3470 100
ⲟⲩⲟϩ -0.15426509 0.15200554 0.06064321 0.019210303 0.029013507 -0.28462538 0.05049072 0.29605025 0.022083333 0.012883605 0.07865467 -0.08382949 0.04940632 0.2638187 -0.18630993 -0.14229038 -0.033651724 0.0027981861 -0.09123664 -0.48489043 0.1380068 0.0536253 0.42733413 -0.02059533 0.12335486 -0.12480772 0.0115946205 0.18007137 -0.24752916 -0.07614647 -0.19223082 0.2287621 -0.10520546 -0.24375488 0.19193113 -0.027179454 0.28178954 -0.1436161 0.104977824 -0.3464762 -0.34950382 -0.0034695398 -0.4175911 -0.14225401 0.22318636 -0.1053934 -0.3305894 0.27254352 -0.018480115 0.25840086 0.005685313 0.16998848 -0.1021251 -0.02427116 0.36748448 -0.16870621 0.28567013 -0.21174572 -0.2305295 0.46301362 0.015184648 -0.13244756 -0.33631086 -0.056558203 0.14711028 0.072022416 0.14572796 0.0018559578 -0.06992564 0.350932 -0.21698837 0.059214637 -0.15127808 -0.18643759 0.27604094 -0.13110267 -0.035726827 0.13930695 -0.11091223 -0.30779263 -0.06534529 0.22022283 -0.008098527 0.2140717 -0.19637617 0.033790182 0.010745531 0.061693404 0.01923407 0.44881365 0.13464294 0.05964572 0.27292058 0.10572527 0.54649043 -0.09705641 0.09169438 -0.32701543 -0.0066683004 0.30650023
ⲉⲃⲟⲗ -0.42320058 0.20296742 0.32068318 0.11625119 0.07959986 -0.37831283 0.23920684 0.4994199 -0.11125362 -0.099464916 -0.026871366 -0.25642052 -0.17269388 0.2530935 0.0035778757 0.08690801 0.049886703 0.14216821 0.225297 -0.40932277 0.20775025 -0.2705806 0.35907203 -0.10736807 0.41075167 -0.033475295 -0.24381332 -0.04501959 -0.22503898 0.26554206 0.32647276 0.08599092 0.078388125 -0.30937168 0.008488382 0.14600287 0.29285708 -0.005476445 0.04883018 -0.12172657 0.10333345 -0.23891002 -0.2975062 -0.019778527 0.1251757 -0.025897384 -0.1711103 0.18075754 0.26374015 0.17255653 0.17076075 -0.26388162 -0.08962556 0.08540234 -0.021969048 0.19389915 0.29349446 0.047857936 -0.12329547 0.45045385 -0.18073483 0.07137981 0.00032217294 0.002765562 -0.09067915 0.089471065 0.083488815 -0.18618715 0.07259333 0.20073836 -0.2785804 -0.0065268027 0.23936604 0.07126643 0.33465552 -0.24974394 -0.2185895 -0.09153486 0.11502107 0.038891677 -0.20410594 0.041711338 0.03811447 0.28587618 -0.23602334 0.013465254 0.10978957 0.035588887 0.056327824 -0.033795018 0.32170707 0.19804376 -0.13245346 -0.075411074 0.22545224 0.19354187 0.0069945753 -0.3572763 -0.19807704 0.32043082
ⲇⲉ -0.033402406 0.14341104 -0.05990257 -0.1376955 0.23608673 0.14833702 0.16338214 0.31136578 -0.3536955 0.16164955 -0.014490889 -0.29676127 0.32348645 0.08567093 -0.13108648 -0.31163627 0.1822008 0.009025835 -0.43925187 -0.43983352 -0.1416271 0.26246616 0.34468305 -0.19841872 0.15973958 -0.08443989 0.088096425 0.15023042 -0.28232002 0.13479061 0.16734847 -0.009583286 -0.0026456949 -0.3122021 -0.11231223 0.1582879 -0.07619579 0.078297675 -0.1192174 -0.43417546 -0.03760872 -0.22237085 -0.022171738 0.23258771 0.36682868 0.32743645 -0.46546844 -0.14636743 0.30105394 0.2841091 -0.08136398 -0.18068494 -0.3720656 -0.35084504 -0.3182882 -0.2192325 -0.13615295 -0.123453975 -0.33318296 -0.20954876 0.06406513 0.04249502 0.18126303 0.27515858 -0.30731162 0.6112928 0.44517612 0.50203884 -0.42410854 0.09645523 -0.02143247 0.26668167 0.2749734 0.055237867 0.04336054 -0.01832161 0.2771956 -0.06156071 0.12774669 -0.14876617 -0.27274984 0.00083105924 -0.56223816 0.05543917 -0.06765038 -0.16916496 0.28196785 -0.1744294 0.40886343 0.22973216 -0.0020948316 0.27639508 0.13464078 0.059806906 0.4692563 0.27370626 0.24807435 -0.045710098 0.0400275 -0.18638514
ⲡⲉ -0.1789473 0.4865248 0.18659355 -0.35500485 0.0037244891 -0.31254598 0.09277452 0.56677634 -0.17837872 -0.28869334 0.31719893 -0.09513247 -0.14194943 0.018205665 0.24664013 -0.07728874 0.2292719 -0.4576876 -0.17824112 -0.5122386 0.017270241 0.21075064 0.17587894 0.06520236 -0.42385483 -0.18579085 0.18761 0.33929622 -0.13390237 -0.13412994 0.06947682 -0.15889643 0.052215107 -0.36531624 -0.038222887 0.5542127 0.23298994 -0.20442428 -0.086878486 -0.028708406 0.030326238 0.016868895 0.020780124 -0.107185856 0.43322688 -0.019402388 -0.2765287 0.07905962 0.029545981 0.32540956 -0.15977785 0.1712663 -0.3405058 -0.16592509 0.052400205 -0.3783495 0.37991285 0.20430887 0.063917965 -0.030657662 0.06045766 0.010927032 0.057285856 -0.11815311 -0.19467196 0.2474797 -0.16905181 0.11492228 -0.19994223 -0.23799421 0.043537367 0.16989775 0.11179163 0.34586614 0.08770032 -0.2911449 -0.047814623 0.011829435 -0.0511352 -0.14351477 -0.14816506 0.16810645 -0.05286222 0.37473497 -0.033252038 -0.16764562 0.12185266 0.14012423 0.21733482 -0.004103231 -0.12433694 0.24582456 -0.16384451 -0.004260355 0.71292955 0.09918383 0.13908754 -0.53934014 0.3355631 -0.2933958
ⲛⲱⲟⲩ 0.020778364 -0.15424538 -0.41989118 -0.055690635 -0.14468646 0.041654777 0.18852288 0.3587969 -0.23728123 -0.07702347 -0.020053046 -0.0794726 -0.05141388 0.38811114 -0.44339556 -0.2363167 0.15346271 -0.054304264 -0.13431692 -0.53733075 -0.0696393 0.07017509 0.35044438 -0.006455645 -0.15767337 -0.17707072 0.15235396 0.18509059 -0.5994081 -0.13718052 0.12666471 0.21465883 0.22549672 -0.39195946 -0.17305157 0.1531794 0.017429154 -0.24012944 0.052670028 -0.37206197 -0.021659197 -0.44173276 -0.5166267 -0.002085228 0.4698156 -0.41343746 -0.16192761 -0.06087525 0.304091 -0.031322435 0.20578302 0.17713724 0.10696911 -0.078403465 -0.086675085 -0.24339177 -0.14329971 -0.09593198 -0.36067662 0.1729988 0.102847405 0.01186363 0.2179429 -0.0652869 -0.20038688 0.47184733 0.29391226 0.31473976 -0.4436307 0.32890084 -0.12193003 0.3469781 -0.21713966 0.51857907 0.38795868 -0.114048816 0.012234625 0.36572376 0.34588665 -0.3065272 -0.23766468 -0.19807692 -0.01907424 0.48682424 -0.5590376 -0.473289 0.4139584 -0.043369297 -0.32480595 0.13273242 0.3339729 0.15701286 0.2506557 -0.007525542 0.40360123 -0.140895 0.22102246 -0.22092989 0.3094952 0.047985353
ⲙⲙⲟⲥ -0.16626865 -0.10723144 -0.04298184 -0.64329827 -0.54532176 -0.20542428 0.41247746 0.6601279 -0.47673705 -0.34749565 -0.27044585 -0.18741015 -0.03728046 -0.06793872 -0.28806973 -0.14380649 -0.09105805 0.17895205 -0.13616204 -0.8085825 -0.2434126 -0.077947885 0.5877484 0.17317662 -0.337161 -0.58643776 0.11260606 -0.43011323 -0.0021919527 0.1868377 0.20671448 -0.07338447 0.33012262 -0.7036198 -0.094092295 0.5760378 0.26399586 -0.0068699378 0.23495358 -0.19527917 0.5372472 -0.3855674 -0.04945805 -0.2535582 0.38022205 -0.38473937 0.20388314 0.476777 0.31350914 0.1654022 0.23683615 -0.15554246 0.105424225 0.53486615 -0.5998798 0.09110877 0.2649004 -0.0077996515 -0.14233993 -0.034899253 0.61743003 -0.11749896 0.5187302 -0.26930884 -0.24465303 0.6758412 0.14029767 0.05024745 -0.6202716 -0.3682187 0.13743275 0.2526426 0.406301 0.27882978 0.38424513 -0.18284756 -0.23070796 0.22453903 -0.0854152 0.0560038 -0.033254635 -0.06329265 -0.14490816 0.047139518 -0.14924991 -0.2829838 -0.011580014 0.32684296 0.079889566 0.1303396 0.64537144 0.2177112 -0.17162807 0.028558271 0.7605349 0.3287914 0.17314968 -0.69622976 0.049023226 -0.25706667
ⲡⲉϫⲁϥ 0.2830189 -0.07648834 -0.37513334 0.46084425 0.08747044 -0.056208238 0.3397459 0.27081442 -0.20063893 -0.26387388 0.1538992 -0.257563 0.030901786 0.5146487 -0.50628424 -0.021167416 0.17983326 0.24825285 -0.07833456 -0.5037534 0.17696603 0.1176191 0.33733848 0.045537382 0.24055208 -0.026416864 0.092355974 -0.15140659 -0.47827765 -0.12552378 0.48176888 -0.013571698 0.24239096 -0.31968942 -0.2892072 0.13217422 -0.05187902 -0.23157127 -0.14876689 -0.34328067 0.103408605 -0.6032454 -0.1114155 0.21927205 0.50192237 0.18047276 -0.55100864 -0.18931065 -0.12299958 -0.00070466846 -0.11623478 -0.12810686 -0.14369142 0.04378004 -0.06828496 -0.06243212 -0.1463918 -0.50442094 -0.60219735 -0.03279005 -0.15049164 -0.11261656 0.45160452 0.07817199 -0.22147478 0.5173808 -0.12010372 0.23757267 -0.41541523 -0.05629844 -0.09590035 0.39779764 0.033684075 0.23390229 0.3654173 -0.10973396 0.48441458 0.16015306 0.24762033 -0.35015967 -0.22971962 -0.26039648 -0.34578243 0.10425557 -0.4644487 -0.39944136 0.36954293 -0.096911564 -0.2162986 -0.07886218 0.1407522 0.14810337 0.16797121 0.27982992 0.38287023 0.19002631 0.25954157 -0.43611684 0.13522398 0.06284297
ⲙⲙⲟϥ 0.20478058 -0.25146556 -0.042544063 0.33464012 -0.3458333 -0.5091598 -0.11037244 0.18381238 -0.2617165 -0.33020976 0.119822845 -0.21871588 -0.048919175 0.23539369 -0.12943652 -0.149663 0.183439 -0.08998826 -0.09503635 -0.47328532 0.29514793 0.3244413 0.43870676 -0.55858845 0.13519704 0.021616908 -0.18721427 0.09442069 -0.11809219 -0.21110126 0.031116987 -0.07251652 0.44743422 -0.6134061 0.043454386 0.07315034 -0.22396626 0.1025075 -0.23447007 -0.2615195 0.12671281 -0.0793154 0.20275088 -0.08501283 0.15176536 -0.05848135 -0.16418885 -0.09281822 0.22689228 0.15048952 -0.21721384 0.37222442 0.03706915 -0.13489152 -0.018896084 0.073776186 -0.2296215 -0.14205675 -0.24711092 0.032436565 0.3370194 0.14149755 -0.06679165 0.4214018 -0.069594026 0.6476903 -0.18975218 0.21592012 -0.3833817 0.2425002 -0.020783646 -0.23745823 0.34773138 0.2334303 0.13006929 0.0790715 0.23845784 0.02525701 -0.138775 -0.25845078 -0.52228594 0.2023291 -0.47399527 0.34956694 -0.15324564 -0.118549034 0.39926502 0.31724018 0.44493112 0.11845676 0.2555957 -0.08838176 0.028054051 0.10053516 -0.011784142 0.2759098 0.047812857 -0.08705949 -0.08671796 -0.47410783
ⲛⲁϥ -0.08387401 0.34475434 -0.15686625 0.25364342 0.17379873 -0.11175139 0.2626981 0.23156583 -0.2972454 -0.15915692 0.025218865 -0.3009001 -0.1551655 0.25324404 0.10439315 0.09767755 -0.13710906 0.36818197 -0.13879748 -0.58372986 0.25250798 0.2489072 0.64285624 -0.3134212 0.23444256 0.013402161 -0.12246755 -0.16667008 -0.052430946 -0.13360026 0.34170815 -0.2395236 0.41423562 -0.32776493 -0.085349075 0.0637968 0.080381826 0.050712273 0.21926728 -0.40099108 -0.2254167 -0.39462674 -0.036447085 0.18289606 0.13803293 -0.12590696 -0.05582824 0.11458295 -0.31813654 0.19173367 -0.07768234 0.10206846 -0.03651716 -0.09655282 0.44242153 -0.018569436 0.10836312 -0.47870344 -0.32098153 0.18078321 0.05323847 -0.27637628 0.40309492 -0.07668298 -0.4446608 0.65695584 0.040665712 0.4298776 -0.38980597 -0.012784646 -0.38053587 0.25681937 0.20724829 0.061721057 0.13682422 -0.18361102 0.0069795297 -0.24784003 -0.24088138 -0.6167242 -0.15610732 -0.007291005 -0.18996872 0.10039192 -0.008073438 0.017980762 0.31598425 -0.21463013 -0.0712438 0.24006163 -0.14718865 0.12718132 0.4314868 0.06251724 0.8451922 0.33118156 0.21445023 0.033099093 0.17022173 -0.108286195
ⲁⲛ -0.06647404 0.107870415 -0.20696332 0.29294202 -0.3418607 -0.3609162 0.041261263 0.4485433 -0.17180389 -0.36120954 0.08143195 -0.01095861 -0.23634586 -0.15274185 -0.09456246 0.1415691 0.5746467 -0.36559463 0.42883557 -0.37403595 0.0479432 0.64464545 0.146837 0.027827464 0.10787493 -0.11235102 -0.25351354 0.1586707 -0.32920796 -0.4035923 0.14700605 -0.1752461 0.55765164 -0.05300371 -0.1121177 0.47759518 -0.06956142 -0.34554702 -0.32008877 0.1531784 0.29826224 -0.20670538 -0.11643227 -0.13343725 0.28516757 0.15767352 -0.54150736 -0.17786041 0.37236583 0.0725041 -0.09121103 0.2918413 -0.43934125 0.24219467 0.008440549 -0.12045442 0.09062143 -0.10634597 0.21646021 0.12032101 0.071762756 0.27790016 0.5334369 0.008279655 -0.18062676 0.11814643 -0.3590141 -0.19677061 -0.13253061 0.042281494 0.26667598 0.470606 0.23864952 0.12947354 0.49175984 -0.14133456 0.058831304 0.03935423 -0.030630605 0.00411077 -0.2513494 -0.1227738 -0.09612107 0.6728272 -0.3071851 -0.19014537 0.045594085 0.40053916 0.45114943 0.12560229 0.033589114 0.35503086 -0.09083604 0.30035967 0.54863614 -0.00093542953 0.05177434 -0.14805062 0.5330325 -0.45407468
ⲅⲁⲣ -0.051443607 0.39752743 0.12237639 -0.74868625 -0.36527264 -0.43171564 0.0222433 0.6007969 0.008682242 -0.49304336 0.1891043 0.045918994 0.3261648 -0.22594249 0.09871226 -0.18196811 0.51596487 -0.4163229 -0.046464693 -0.54853827 -0.054911554 0.49624336 0.2902227 -0.16581112 -0.38802272 -0.17246309 0.03190579 0.2953746 -0.1279216 -0.019711232 -0.18294068 -0.12695564 0.09067368 0.18898645 0.07845828 0.39866632 0.09059659 -0.28048202 -0.36063457 0.023174219 0.06588187 -0.20840314 -0.14654422 0.045661695 0.17085634 0.0030889132 -0.47825482 -0.0019098484 0.28309143 0.18806864 -0.031433783 -0.06426775 -0.57360804 0.087603696 -0.25048664 -0.17805211 0.22627525 0.066760235 0.17668813 -0.041463453 0.17871776 0.034898527 0.25717738 0.20160587 -0.38477844 0.15028301 -0.22205341 0.02311623 -0.329034 0.100755 0.2827008 0.31127945 0.1426171 0.13834764 0.06927291 0.14820436 0.1056866 -0.014111267 -0.17918593 0.34227732 -0.22461209 0.2801974 -0.07052701 0.56984854 -0.21222557 0.008688926 -0.011382715 0.45478877 0.50192386 0.27622628 0.50126284 0.09286245 -0.2591104 0.16923918 0.23340452 -0.008950216 0.3520788 -0.29807177 0.09831051 -0.25076672
ⲉⲣⲟϥ 0.029188946 0.058442004 -0.02950015 0.046197303 -0.14320947 -0.6870668 0.11442821 0.5231393 -0.13182881 -0.101021126 0.3273122 -0.07196913 -0.11050735 0.29922187 -0.025576936 -0.016653704 -0.046657126 -0.18690425 -0.11702912 -0.756164 -0.029893612 -0.14372075 0.16240314 -0.24521412 -0.124038056 -0.33511555 -0.39645872 0.38878226 0.21768717 -0.2216022 -0.11637203 -0.18040748 0.62272245 -0.27330232 0.14714523 -0.064935304 0.30295807 -0.09160691 -0.2119941 -0.24898934 -0.31709164 -0.21370174 0.017022062 -0.17927653 0.080377564 -0.34945944 0.012675609 0.2816975 0.20288058 0.4456279 -0.3429654 0.3353639 0.22827548 0.29698643 0.041745756 -0.1855867 0.12636918 0.052349687 0.058490813 0.024503682 0.10586203 -0.1481508 0.20488901 -0.077132635 -0.043302182 0.19299957 0.15682593 0.092016175 -0.1681366 0.29226837 -0.029276686 0.13750991 0.060877085 0.2372217 0.42476448 -0.15088569 -0.093168296 0.24508551 -0.28966308 0.028064972 -0.06980035 0.39993697 -0.10431134 0.2249081 -0.105658 -0.18554698 0.108934805 -0.049180474 0.25385284 0.3469369 -0.08807488 -0.019056302 -0.16363111 -0.035285056 0.8635332 -0.11075343 -0.26964104 -0.2974853 0.1321096 0.036087308
ϩⲓⲛⲁ -0.14866737 0.255869 -0.32136032 -0.27257392 -0.10597841 -0.105824865 -0.0014446008 0.5423287 0.036166243 -0.073025495 0.024213225 -0.4472106 -0.35028824 0.34432113 0.11955082 -0.04334669 -0.045193993 -0.33625084 0.50865054 -0.62033457 0.083763 0.10691987 0.6723048 -0.008195477 -0.18271096 0.09572474 -0.36590198 0.35603034 0.096286505 0.07823944 -0.09212665 0.05341964 0.7018409 0.069519944 -0.15606016 -0.08162193 0.07159363 -0.5251353 -0.11916981 -0.26040027 -0.47752288 -0.31204984 -0.18000263 -0.042369895 -0.22023481 -0.26898268 0.20180705 0.20136508 -0.3876375 0.36707044 -0.13586845 0.016400669 -0.007955351 0.16548271 0.096622944 -0.26313865 0.11296233 -0.095483206 -0.10728509 0.20244557 -0.018635299 -0.028528227 0.06732003 -0.1369919 -0.07879047 0.10003144 0.3570189 0.08652785 -0.3567014 0.250402 -0.16213694 0.60884905 0.27303773 -0.17250983 0.18579176 -0.11110688 0.016514702 -0.46762574 -0.20738007 -0.16086896 0.12404212 0.017231502 -0.1806014 0.47961965 -0.34754035 -0.35502964 0.31213394 -0.14527339 -0.021666916 0.2817871 -0.23304844 -0.09374566 -0.01750429 -0.5530395 0.3542559 -0.18484339 0.121981904 -0.17162403 0.5073968 0.18240431
ⲉϧⲟⲩⲛ -0.72064996 0.552911 -0.37685472 0.21573794 0.1562874 -0.7281092 -0.20707016 -0.046885055 -0.12725891 -0.48568717 -0.104509376 -0.2118022 -0.6052995 0.27232838 0.19488515 -0.15470245 0.2942318 0.21501425 0.02181157 -0.62624496 0.5733602 0.48778388 0.48116857 0.052391972 0.33902884 0.2772636 -0.67779267 -0.13832459 -0.24420398 0.13380396 0.48892063 0.24110405 0.64476454 -0.6397288 -0.05621821 0.19064422 -0.10381212 0.35114598 -0.17325424 -0.114928745 -0.24696235 -0.1201758 0.3756251 -0.13330784 -0.011323562 -0.15504445 -0.032684322 -0.16094042 0.29068774 0.18649359 0.03869055 0.59781766 -0.05118727 0.32497382 0.25291255 -0.073310934 0.11769062 -0.31536078 0.013070304 0.65092105 0.13443048 -0.07866526 0.1649852 0.23638123 0.44123048 -0.00899459 0.14358129 -0.33526358 0.3003278 0.25641975 -0.34243244 -0.16310957 0.124044314 -0.05517836 0.6496103 0.021534394 -0.37303665 0.03156988 -0.11482253 0.013175157 0.05326914 0.011638067 -0.2739783 0.38134918 -0.22962444 0.19918044 0.5980209 0.36900613 0.024399195 -0.06729933 0.23568334 0.45825148 0.10486731 -0.38359722 0.39882204 0.13849775 -0.0090944115 -0.1694078 0.16522591 0.37182125
ⲫⲏ 0.23618148 -0.06544969 0.2771685 -0.07506068 -0.038144834 -0.4947325 0.3431703 0.7181947 0.08383674 -0.13717417 0.024963247 -0.49980557 -0.33738148 -0.6785206 -0.16765739 0.104702406 0.6327223 -0.64150506 0.20831914 -0.13351302 -0.18752338 0.5946406 0.40161288 -0.27938336 -0.027930591 -0.017090814 -0.2130237 -0.16359746 -0.18888555 -0.08150229 -0.05274675 -0.21890664 0.5789273 -0.015204954 -0.18545306 0.07905724 0.10411578 -0.04843029 -0.17894617 -0.24532485 0.5675431 -0.47073406 0.11941863 0.4070739 0.24272846 0.62510526 -0.56179166 -0.10059606 0.38975105 0.23067561 -0.3906802 -0.19131348 -0.17395988 -0.6284661 -0.30710787 -0.099319406 0.40421107 0.354427 0.2859867 0.13595307 -0.03082222 0.24645466 0.19538432 0.88705075 -0.63073957 0.41331348 -0.027996182 0.06557409 -0.42753166 0.34320092 0.2619367 -0.14603816 0.4151587 -0.082774386 0.12447063 -0.32400084 0.1737773 -0.14184107 0.0760029 0.3194737 -0.48070544 0.39996883 -0.1327102 0.19895326 0.07323992 0.08240489 0.16692148 0.4250749 0.43713906 0.031137604 0.6710281 -0.37150142 0.09955744 0.40930718 0.117967665 -0.17444631 -0.07705242 -0.07696822 -0.293103 0.023068199
ⲁⲗⲗⲁ -0.24689972 0.19992949 -0.09396475 0.35026178 -0.15702993 -0.46881104 -0.19474886 0.37109315 -0.2012415 -0.282154 0.09971888 -0.04834774 -0.10118622 -0.09594372 -0.14146683 -0.10526893 0.5717586 -0.12484525 0.5348126 -0.092175566 0.17493428 0.71522605 0.17538597 0.019342382 0.24534878 -0.18061826 -0.21596804 0.2924396 -0.48078704 -0.53994596 -0.12428826 -0.25497773 0.37298465 -0.11153712 -0.18407397 0.6177531 -0.24630956 -0.5422724 -0.52322686 0.38109383 0.39503092 -0.33190998 -0.16529863 -0.037796378 0.3961804 0.47626525 -0.5491128 -0.40656206 0.29377252 -0.24056184 -0.55012274 -0.15433022 -0.064669274 0.2868472 0.25527945 0.2518819 -0.0020268285 -0.006721511 0.189644 0.19800109 0.26317424 0.20774525 0.36751997 0.1431968 0.054873858 -0.021372365 -0.1316053 0.07482432 -0.30089962 0.32816106 0.12955654 0.3916111 0.42562765 -0.2530918 0.4941989 0.059215132 -0.007773824 -0.00363286 -0.32326555 -0.10543473 -0.48835257 -0.08403982 -0.3727106 0.6892395 -0.25467864 0.10230945 -0.21186797 0.18394925 0.44466376 0.1433401 0.14069553 0.062337745 -0.38867098 0.3541825 0.40794644 0.12755065 0.13250174 -0.0058641285 0.0561762 -0.30452332
ⲛⲑⲟϥ 0.14450058 -0.03242255 0.12251528 -0.046542317 0.3045969 0.022191433 0.45468602 0.50794685 -0.16614828 -0.03462042 0.074156046 -0.31916624 -0.09486319 0.34105706 -0.24337609 0.0853859 -0.32027858 -0.105069324 -0.34244996 -0.7231026 0.14148405 0.23677367 0.28121543 0.02197982 0.23035073 0.07696583 0.14416587 -0.03325868 -0.3525267 -0.0040973052 0.09806815 0.08179645 0.23406622 -0.34124514 -0.1285555 0.23161547 0.14854874 0.078127645 -0.1486736 -0.4550322 0.13584937 -0.38645974 -0.16460225 0.44352475 0.67437756 0.1834945 -0.53074163 -0.06979296 0.3729496 0.4070322 -0.22840005 -0.10796557 -0.17902544 -0.2949132 -0.10298901 -0.15963365 -0.111719206 -0.22311936 -0.49069628 -0.1078437 -0.19359009 0.1746917 0.18364982 0.18636599 -0.4041805 0.5955919 -0.13030997 0.6454726 -0.30757576 -0.18522198 -0.028225504 0.27405915 0.13177215 0.2628885 0.24321616 -0.49192634 0.6498711 -0.17252654 0.69021744 -0.42699334 -0.29212543 -0.1328515 -0.43218562 -0.050658684 -0.25197318 -0.261276 0.47692826 -0.29642868 0.04128555 -0.13937894 0.17690025 0.33178976 0.24428953 0.13308783 0.12273628 0.5133978 -0.17117521 -0.20956331 -0.093387835 0.28547093
ⲁϥⲓ -0.24409653 0.26508597 0.095727496 0.11634085 0.105192505 -0.68353266 0.08335974 0.33480537 -0.03461415 -0.5029389 -0.07849585 -0.10915515 0.20635575 -0.00365236 0.0667367 -0.39537728 0.4531503 0.3194767 0.00419815 -0.71917915 0.4044177 -0.13469627 -0.19015573 -0.12768264 0.17523783 -0.075183704 -0.5491936 -0.13292807 -0.35137123 0.085305974 0.23803 -0.026243111 -0.2301751 -0.68861055 0.14411172 0.43830138 0.1515095 0.29130372 -0.13896297 -0.10324198 0.052907918 -0.16999955 0.2252276 0.058262773 0.38424727 -0.46769208 -0.4283905 -0.071782865 0.29575622 0.12530552 0.5095714 0.44822505 0.22369665 -0.033582423 0.36895823 -0.14398512 0.49253693 0.15948921 0.106874175 0.48427185 -0.4456721 -0.2209991 -0.1157314 0.2557648 0.23267548 0.15609455 0.14561175 -0.11950832 0.25994653 0.14627919 -0.20404597 -0.20747587 -0.039014533 0.110501945 0.47383922 -0.26530442 0.057497475 0.7189504 -0.10654016 -0.09637191 -0.53554446 0.39091927 0.076977946 0.3722462 -0.11772493 0.42256397 0.6590043 0.5409069 -0.03658769 0.23746282 0.7079154 0.43591696 0.15289968 0.035135645 0.8755587 0.16753514 0.2109217 -0.21265082 0.013079985 0.21407668
ⲛⲱⲧⲉⲛ 0.21531977 -0.4356158 -0.47483686 0.2562594 -0.2841325 -0.21412173 0.33980277 0.6317019 -0.4192279 -0.4921853 -0.2093217 -0.32329598 0.034240242 -0.28235164 -0.57624936 -0.027076494 0.38388935 0.4275708 0.363087 -0.1363064 0.32798645 0.1307628 0.714632 -0.28408012 0.2453093 -0.25098816 -0.19081436 -0.4609078 0.006723258 -0.48759642 0.10937982 -0.20781334 0.3830397 -0.18781626 0.37711367 -0.049564797 -0.20226952 0.021307077 0.16136657 -0.3582442 0.49716434 -0.2068964 -0.08614832 -0.038247563 0.022142718 0.0132934395 -0.0481346 -0.05113849 0.4461172 -0.03838164 -0.076663606 -0.5206195 -0.07740681 0.1563712 0.0058807447 0.7701304 -0.25574082 -0.15154342 0.08256322 0.07702413 0.29994318 0.3052044 0.52403367 0.6932759 -0.50811744 0.89090043 0.12393273 0.42159468 -0.8190221 0.36380684 0.4898949 0.13831168 0.6527322 -0.07847126 0.49899238 -0.10645168 0.25724262 0.60041016 -0.60495275 0.012980432 -0.94475514 0.003057738 -0.29770344 0.3947956 0.13370454 -0.15691257 0.20503248 0.42027697 0.21657723 -0.25096595 0.7738579 -0.30976555 0.4191461 0.6273819 0.63432896 0.3758692 0.436031 -0.26822692 -0.14405732 -0.41722727
ⲧⲏⲣⲟⲩ 0.0773028 0.14562333 0.14959756 -0.21316935 -0.2784743 0.2345316 0.4854556 0.38162288 -0.033736557 -0.13361071 -0.19475672 -0.1416593 0.64051586 0.14920992 -0.28717425 -0.019519357 0.2750729 -0.09924901 -0.62410444 -0.63045067 0.112662956 0.10982205 -0.14814833 -0.031445198 -0.25874814 -0.18152615 -0.17020233 -0.1243918 -0.24903367 0.20214064 -0.13918583 -0.18837798 -0.24192311 0.21258219 -0.4618321 0.3598258 -0.048137918 -0.16854796 -0.22245798 -0.4893979 0.061158992 0.088466704 -0.44666058 0.34248054 0.17472085 -0.10082488 -0.7170349 -0.09591206 0.39130148 0.22562508 0.09237593 -0.68838453 -0.16414665 -0.3706911 0.20557387 0.18122858 0.23090978 -0.09947323 -0.3110036 -0.07598897 -0.23992339 -0.1359913 0.28577077 -0.059493035 -0.5045221 0.31645602 0.08611049 0.2686417 -0.39199492 0.26342914 0.30072558 0.18514352 -0.022857219 -0.20498674 -0.0062066144 -0.12415354 0.42630854 0.45971167 -0.089948416 -0.010909338 -0.54457104 0.17794415 0.21775752 0.23105848 0.12757047 0.017241513 0.15975392 0.27591494 -0.1937491 0.20278253 0.5658826 0.10515968 0.21243933 0.50684375 0.37451968 -0.03859466 0.0029625786 -0.09861071 0.12660922 0.46358857
ⲛϫⲉⲓⲏⲥⲟⲩⲥ -0.026003638 0.03718388 -0.33627886 0.1890551 -0.034669925 0.08871727 0.49360472 0.29869387 0.061734986 -0.21638535 0.04750846 -0.0388225 0.25246084 0.3357167 -0.36759353 0.038393077 0.20463124 0.57034385 -0.44937435 -0.38074848 0.2367456 0.06723598 -0.006054748 0.432506 0.055880297 -0.24928935 -0.081326745 -0.24433213 -0.66246164 -0.20130658 0.22404623 -0.24383937 0.14453186 -0.32028258 -0.11063729 0.31479138 0.28284088 -0.012866648 -0.10929236 -0.33541408 -0.04910929 -0.31472132 -0.5551107 0.16755117 0.38276234 -0.4297214 -0.47772038 -0.22685966 0.14997976 0.025645232 0.13865098 -0.1483632 -0.09362325 0.10419764 0.14869903 0.105328456 0.16457236 -0.24443242 -0.44256413 0.19431013 -0.16877635 -0.31989974 0.49526894 -0.21019615 -0.09162568 0.42187175 0.10149945 0.071953505 -0.27928776 0.12336331 -0.08421438 0.094389364 -0.27246973 0.06677036 0.50149417 0.25462398 0.24109499 0.6865489 -0.17409977 -0.35916442 -0.50307715 -0.19363935 0.17941085 0.3264627 -0.62197524 0.03029485 0.44202104 0.17451139 -0.3275215 0.1925357 0.32263604 0.5545508 0.28663263 0.4964381 0.9401864 0.057860095 0.2031973 -0.17423545 0.05854829 0.11163105
ⲛⲓⲃⲉⲛ 0.017213594 -0.20478943 0.3472862 0.74591345 -0.4036658 -0.2139344 0.04470472 0.81157225 0.19440106 -0.084805794 0.035099424 0.021784877 0.3185102 0.35479486 -0.31375474 -0.19365224 0.61170584 -0.1921247 0.399209 -0.0017031102 0.306318 -0.17849863 -0.19792989 -0.35625893 0.6834373 -0.39953166 -0.62319523 0.16853274 -0.14171281 -0.1064066 0.6022042 -0.2514209 0.6323681 -0.5608127 0.1593447 -0.042048793 -0.11992225 -0.57602733 -0.47628295 -0.56880254 0.39461398 0.03004664 -0.17141218 -0.23866394 -0.33315122 -0.22809783 -0.342053 0.11195827 -0.034065973 0.065800056 0.07880126 -0.20176004 -0.24895209 -0.08405563 -0.14159642 0.3741434 0.0035583675 0.5501653 0.16052575 0.12748122 -0.16053712 0.43247676 0.047809992 0.8407481 0.083515815 0.33518407 0.34380755 0.27891767 -0.7017631 0.9893049 0.6061491 0.2609554 0.4573633 -0.40319306 0.6311818 -0.6944659 0.03382439 0.26947156 -0.2829134 0.44800174 -0.6676448 0.016156655 0.2118409 0.6063891 -0.5766129 0.027419573 0.2119723 0.13306731 -0.02622054 0.4056867 0.6262985 -0.5388513 -0.30550456 0.47463578 -0.08060977 -0.026198586 -0.32187578 0.11289629 -0.09244293 0.03951517
ⲉⲣⲱⲟⲩ -0.052115526 0.20847371 0.23713474 0.030656632 0.1841316 -0.03948051 0.32661778 0.37558496 0.1255187 -0.12395676 0.10042538 -0.28563493 0.6670926 0.7417181 0.13580203 -0.15045875 -0.10399203 0.014170872 -0.70396215 -0.55190897 -0.07117991 0.4968889 -0.70015466 0.3926885 -0.4643462 -0.13112275 0.06777812 0.24562383 -0.33428338 0.26967373 0.21439768 0.084911555 -0.4007098 -0.37633148 -0.20784904 0.3438777 0.3387019 -0.4363855 -0.010703289 -0.43053612 -0.15597048 -0.034445416 -0.73749304 -0.18624216 0.45080578 -0.062312122 -0.5498523 -0.16477658 -0.023744576 0.26857853 0.2825007 -0.48050618 -0.069275275 0.022220932 0.13016884 0.3829168 0.1565963 -0.4042732 -0.15966393 0.38199863 -0.32919228 -0.21810824 0.012668485 -0.29368913 -0.19134563 0.5640238 -0.2718202 -0.10761539 -0.11900537 0.273175 -0.31799453 -0.06598127 -0.20246327 -0.11493891 -0.052945934 0.20862949 0.046751536 0.12786767 0.3224319 0.37136132 0.16219819 -0.060182136 0.0012272367 0.2647977 -0.1838686 -0.2022347 0.03541189 -0.1563802 0.13039166 0.55982137 0.5326694 0.18525648 -0.029982992 0.33765233 0.26350233 0.04061564 -0.19127782 -0.08532231 0.049973805 0.33472195
ϣⲱⲡⲓ -0.105176374 0.19996195 -0.052755352 -0.3826532 -0.03896746 -0.26263103 -0.38144532 0.0036090165 -0.20701833 -0.24763657 -0.12805001 -0.5972599 0.37755582 0.47048426 0.05006056 -0.21873485 0.4865223 -0.49490866 0.081365414 -0.25963315 0.6780113 0.2695358 0.44849604 -0.58536035 -0.37587664 0.23179898 -0.09485111 0.088015586 -0.1806656 -0.0031502922 0.22283395 0.282012 -0.63905936 -0.5077449 -0.117369555 -0.07699019 -0.12007383 0.08520656 -0.21541321 -0.09549492 0.20248258 -0.18281882 0.0042467704 -0.06563279 0.33042127 -0.37266934 -0.43077353 -0.11617768 -0.26515433 0.12846334 0.41269904 -0.24266912 0.2922198 0.15355147 0.31781366 0.12509716 0.2421228 0.14347887 -0.39954016 -0.3092107 -0.34140986 -0.05435517 -0.37521133 0.52426964 -0.03797463 0.603913 0.47468928 0.052665006 -0.059976425 0.5700757 -0.054068893 0.23041748 -0.20699029 -0.35624257 0.123443805 -0.07431521 0.45572025 0.148867 -0.36279333 -0.04967425 -0.5063536 0.25246793 -0.28780875 0.19444698 0.17321096 0.11745581 0.42741907 0.3074516 -0.71366256 0.6386027 0.43208358 -0.5081658 -0.092605256 -0.35253164 -0.0044896645 0.4169832 0.300787 -0.19461526 -0.30815196 0.24007455
ⲛⲁϥϫⲱ 0.063748315 0.009297702 -0.1403234 -0.61734 -0.7480646 -0.4515957 0.32336223 0.63745403 -0.3157442 -0.39598817 0.10946241 -0.06108307 0.24287067 0.390451 -0.059976697 0.3546873 0.37896433 0.47706857 -0.266261 -0.8548817 -0.2983616 0.13931982 0.21207573 0.15434852 -0.7494472 -0.290217 -0.14606348 -0.3864665 -0.012795502 -0.114200115 0.1483006 0.062230594 0.66446257 -0.14733097 -0.01374171 0.24950449 0.46479106 -0.48046198 0.16163191 -0.17492378 0.14308527 -0.45485115 0.19682537 -0.31745878 0.50226116 -0.38916445 0.19898513 0.010577004 0.5032883 0.09421667 0.47009534 0.41584298 0.15973797 0.32562572 -0.03314082 0.011840683 0.2804266 0.2125922 0.09107282 0.248488 0.4361012 -0.11331538 0.41103587 0.15885566 -0.42038798 0.6555479 -0.024032788 0.002104413 -0.5670201 0.28642955 -0.06566415 -0.069594696 0.23700756 0.571304 0.4207711 -0.07211698 0.006863215 0.5485111 0.062911645 -0.14869893 -0.07960724 0.1475335 -0.21402338 0.73681647 -0.36843142 -0.16244368 0.37103713 0.13300595 0.30438462 0.53617233 0.64786637 -0.14902686 -0.26150128 -0.09536873 0.6105449 -0.19889429 0.16746037 -0.46993414 0.12864503 -0.19929226
ⲁⲩⲓ 0.02699313 0.3473979 0.18326496 -0.40984553 0.10384024 -0.4542127 -0.2011485 0.6663001 -0.05226801 -0.2770007 -0.21185021 -0.022296457 -0.017415272 0.22561038 -0.06929547 -0.24884322 0.139236 0.26339874 -0.42611063 -0.8394145 -0.041668177 -0.053185232 -0.22916608 -0.25697175 -0.37030154 -0.24733014 -0.35577384 -0.1373636 -0.24344376 0.066493675 0.5367983 0.1935538 -0.45259485 -0.8873948 -0.1783134 0.4205013 0.16143589 -0.024406217 0.6219389 -0.5161278 -0.13958375 0.1805432 0.06808667 -0.47383884 0.19920251 -0.6666278 0.03730946 0.058876146 -0.08748933 0.32432544 0.13570483 0.0027852925 -0.0073079783 0.002125394 0.28600708 -0.04973685 0.6285186 0.078894645 -0.20838612 0.60442156 0.20463078 -0.18377994 -0.20222104 -0.545761 -0.115263715 0.63378227 0.17715555 -0.24162892 -0.22046839 0.091679744 -0.4430547 -0.16046356 -0.094498225 -0.077800505 0.41348022 -0.44578928 -0.31345794 0.4140372 -0.29643852 -0.21147974 0.03727643 0.57405347 -0.18871166 0.69253325 0.009254894 -0.021383343 0.13725945 0.5121678 -0.35131592 0.24515653 0.19660982 0.056388106 0.5927961 -0.056076597 0.6557189 -0.118726455 0.3011408 -0.2960682 -0.10055986 0.09102986
ⲙⲙⲱⲟⲩ 0.043086667 -0.122486524 0.03719264 -0.25886223 0.5078146 -0.13778731 0.26380557 -0.04167847 -0.16607578 0.013469391 0.039004017 -0.32657963 0.5473074 0.19509864 -0.39187896 -0.49238527 0.23835118 -0.2958152 -0.5481007 -0.5211109 0.15309297 0.33510676 0.12984213 -0.22263336 -0.48345697 -0.32831943 -0.06775799 0.15263484 -0.31162223 0.29964313 0.21539854 0.5066274 -0.07865543 -0.34950858 -0.20173936 0.30767113 -0.4320413 0.20498773 -0.050750606 -0.6353181 0.40952587 0.089969106 -0.28698468 -0.17196119 0.36634517 0.013281069 -0.25880477 -0.29563588 0.4225732 0.11104484 0.2471145 -0.36555362 0.19494243 -0.018335352 -0.1817689 0.60214853 0.30470753 -0.09638745 -0.29832628 -0.13243142 0.11540464 -0.15326352 -0.24804081 0.1239004 -0.17327973 0.40107185 0.26122534 0.14755653 -0.24421473 0.48592436 -0.18709064 -0.39368567 -0.13554265 0.016353652 0.30525792 -0.3908542 0.4132924 0.27266034 -0.09563573 0.7138705 0.04107699 0.3687201 -0.49374592 0.23769534 0.101999484 -0.31043184 -0.07945187 0.061622757 0.061737213 0.39139953 0.87116295 -0.24095578 0.11951604 -0.08668776 -0.18124749 0.16793717 -0.1371238 -0.083827645 -0.22137688 0.2266629
ⲛⲏ 0.17250778 0.49955425 0.17283955 -0.28804183 0.5689822 -0.28348827 -0.0872449 0.09179482 0.44983524 0.27464226 0.28486037 -0.21994393 0.2738701 0.55231065 -0.058164302 -0.45645586 0.65134984 -0.46147153 -0.9308017 -0.069184236 -0.24691477 0.7817998 -0.0554952 0.12415847 -0.39209327 -0.25981194 -0.61358416 0.16857548 -0.48746195 -0.3948447 0.18732145 0.08114319 -0.45836765 -0.5244134 -0.5523558 0.21155897 -0.5171622 0.23569109 0.15370946 -0.21338859 -0.23895888 0.067892134 -0.17113341 -0.45046782 0.27729082 0.4612238 -0.4819646 -0.17831466 0.23089102 0.084381804 -0.109099224 -0.5048706 0.43374342 -0.37173638 0.40055427 0.32703578 0.52825177 0.08076855 0.10401684 0.445615 0.2085839 -0.04110574 -0.21223858 -0.33308116 -0.18558258 0.07679657 0.13703631 0.083039455 -0.6292141 0.7283367 0.105961174 -0.1672113 0.4596114 -0.7030561 -0.0791093 -0.13352764 -0.21629085 -0.28200546 -0.55424863 -0.048430376 -0.09002376 0.22522458 -0.3992136 0.47765616 0.15729816 -0.26590332 -0.0411944 -0.05715756 0.48619828 0.3677497 0.67180604 -0.049803007 -0.03999584 -0.19490914 0.16380544 0.23819846 0.026808968 0.3805121 -0.7440937 0.02434817
ⲥⲁⲧⲟⲧϥ -0.017778983 0.14199525 -0.029960215 0.58950704 -0.20768188 -0.4828232 0.24841836 0.19663872 0.21211259 0.033125352 0.18614139 -0.28471735 0.010042902 0.528996 0.035975892 0.13115145 0.17848945 -0.061819836 0.16444886 -0.5375505 0.59601027 -0.36125854 -0.05487115 0.14991228 0.19318837 -0.25795737 -0.37036893 0.21271448 -0.30540743 -0.080047436 0.203017 -0.075680874 0.40352917 -0.5876947 -0.012619851 -0.09635272 0.7158808 0.050684173 -0.26737007 -0.33722982 -0.562242 0.07322418 -0.043151334 -0.20455444 0.16915639 -0.22091144 -0.5062461 0.014501991 0.023444124 0.2353391 -0.23377566 0.54687786 0.06425697 -0.11351059 0.52692384 -0.3100089 0.36870798 -0.033370256 -0.09197673 0.77602935 -0.30250204 -0.3248607 -0.25073963 0.17518033 0.034372456 -0.28904924 -0.20836894 -0.17651385 0.33276713 0.76682127 -0.20265386 -0.414832 0.11274 0.051526748 0.48287728 -0.32195774 0.11677426 0.29653165 -0.23499912 -0.052403785 -0.08430182 0.075171 0.2019399 0.41234234 -0.50458634 -0.17343087 0.44780388 0.12501606 0.1089669 0.1768644 0.27790624 0.50801027 0.10218784 0.011042886 0.4410828 0.08167235 -0.15024744 -0.44203264 0.3550966 0.64898044
ⲟⲛ -0.2309898 0.3078339 -0.15377463 -0.4795263 0.45252064 -0.31174403 -0.07322565 0.15630877 -0.21422014 -0.2161017 -0.008599661 -0.09237784 0.44570723 0.47539735 0.08873389 -0.53238505 0.14422266 -0.06032974 -0.899252 -0.86952245 -0.036712322 0.34884572 -0.17196615 0.18110287 -0.1315573 -0.067080416 -0.14917943 0.20861696 -0.27357066 0.011880896 0.074397884 0.001767148 -0.43089497 -0.7396813 0.06393658 0.5287003 -0.006464913 0.1731262 0.08989851 -0.064602844 -0.30963236 -0.15407774 0.0875137 0.01599148 0.8076194 -0.026311537 -0.60585755 -0.111774586 0.26752508 0.17269967 0.42474493 0.21196833 -0.030207835 -0.11234061 0.13702317 -0.26654035 0.24940874 0.2652494 -0.13954851 0.21234888 -0.09861112 -0.26218072 0.22343265 -0.2309736 0.0042964392 0.38882697 0.16179109 0.023869598 -0.25141725 0.1992808 -0.10984195 0.06207264 -0.21989551 0.13107401 -0.1848717 -0.27325636 0.3082223 0.4913282 0.03075524 -0.27687708 -0.5269771 0.07303067 -0.6354551 0.11280837 -0.04479542 0.12812255 0.3817633 0.23348166 0.12838897 0.15910672 0.64035475 0.6752597 0.06420167 0.11255592 0.8481382 0.5060161 0.4397398 -0.096192025 -0.13797249 0.061252587
ⲛⲁⲕ -0.11225265 0.7994681 -0.36448488 0.8885777 0.1421012 -0.3808815 0.42164984 0.3164572 -0.6423252 -0.2843084 -0.18776433 -0.85540897 -0.5380359 -0.15870598 -0.036009334 0.255221 -0.20109767 0.39140773 1.3254095 -0.81506234 0.93326443 -0.32897916 0.95499957 0.13111897 0.6217404 0.0023814668 -0.012761414 -0.20328805 -0.23639354 -0.53526044 0.48298338 -0.53355217 0.9817675 -0.53081286 0.30143002 -0.02216284 0.61234295 0.31449544 -0.5108056 0.22849394 -0.3741825 -0.63405776 0.07344717 0.5198436 0.016411789 0.0040021725 0.2891484 0.01734861 -0.18954717 -0.03713706 -0.44913056 0.3756939 -0.3635274 0.9084757 0.05557361 0.17819768 0.08175717 -0.86791974 -0.63089675 0.74314785 -0.09744898 -0.5326362 0.6213387 0.10014195 -0.22958098 0.02092356 -0.40298653 0.11756051 0.11778582 0.0021724752 -0.515571 0.5389652 0.6986701 -0.24694498 0.7689607 0.10744807 -0.1551129 0.30988762 -0.11826729 -0.3775314 -0.67841506 -0.3944108 -0.073173344 -0.04355879 -0.73555666 -0.11058326 0.25251913 0.3022714 0.6952188 -0.32786453 -0.18391806 0.68827057 0.15618111 0.23402035 1.0125706 0.53468174 -0.0008140824 -0.5407977 0.30956447 0.075203046
ϣϫⲟⲙ -0.4098471 -0.3086347 -0.18615481 0.12708656 -0.23989037 -0.8052418 -0.49380633 0.225578 0.10338667 -0.34656307 0.45138925 -0.39733434 0.2987961 1.4293958 -0.11356957 -0.14448676 0.6255345 -0.13962512 0.04716374 -0.20116834 0.1534255 0.7472646 0.43654653 -0.3512669 0.28938842 -0.4468516 -0.10120871 0.6540521 -0.14048214 -0.07586572 0.25446802 0.59488 1.071888 -0.80140764 -0.6390502 1.0690631 -0.39503163 -0.54157853 -0.31646055 -0.32391936 0.15292299 -0.48862448 0.32585755 -0.58736354 0.25597745 0.3335412 -0.42100126 -0.09358232 0.25383428 -0.16365635 0.03713533 0.56785786 0.22608015 0.11925052 -0.301341 0.38366804 -0.749222 0.09105745 -0.2392773 0.22368352 0.60704356 -0.14525051 0.30099243 0.37201193 0.17996329 0.43836066 0.04411468 0.05519681 -0.53124565 0.7581426 0.2931762 0.18381597 0.2275776 0.40872687 1.0533985 0.10884319 -0.41446218 -0.61494297 0.06246264 0.52702636 0.05189642 -0.3278213 -0.70868975 0.43074122 -0.73674834 -0.37942818 0.13516036 -0.39838547 0.44738144 0.775937 0.37214452 -0.4183722 -1.0098513 -0.4064254 -0.16995691 0.10592053 -0.8779087 -0.25078952 -0.086182855 -0.4579569
ⲛⲉⲙⲁϥ 0.11648116 -0.097699165 -0.12049083 0.5745781 0.23871133 -0.21290408 -0.09463769 0.47151747 0.36766952 -0.04898301 0.23134059 -0.38880488 -0.32069036 0.35007533 0.2845263 -0.02930333 -0.26491672 -0.53603387 0.41985354 -0.21678671 0.32405254 -0.29371166 0.1484712 -0.45879716 0.32452658 -0.013853028 -0.3704417 0.19598144 -0.32952228 0.14676076 0.6085358 -0.09360857 0.16359971 -0.7591807 -0.026968222 -0.30667597 0.019778967 -0.19817224 0.064635545 -0.60847014 -0.5546956 -0.40808493 -0.2918784 0.0061376113 0.26643336 -0.2866759 -0.025340887 0.11597808 -0.68267554 0.5366678 -0.38653278 -0.23726954 0.35603562 0.013234648 0.46059608 0.0044190865 0.4627886 -0.0077765714 -0.33376965 0.5156962 -0.38326707 0.03200782 -0.580205 0.0119235795 0.009158627 0.30110174 0.41148105 0.24085085 -0.3713874 0.74190664 -0.16070378 0.10262021 0.47528186 -0.9575726 0.13686225 -0.4127414 -0.040898614 -0.4859335 -0.35159323 -0.36100793 0.3593416 -0.028397394 -0.137456 0.2288414 0.21025339 0.059048902 0.20473273 -0.06684261 -0.22139953 0.57004535 -0.1894685 -0.14851189 0.32547474 -0.017118901 0.19522522 0.14719267 0.21343228 0.12197342 0.02156122 0.30276823
ⲓⲏⲥⲟⲩⲥ 0.14679591 0.049992397 -0.34463346 0.38114974 0.0030101177 0.0910487 0.43396008 0.5765758 -0.15536086 -0.009661939 0.21292056 -0.23479794 -0.5938805 0.4320815 -0.28361827 0.3145989 -0.1705875 -0.3606321 -0.07784961 -0.41556895 -0.055199612 0.37293068 0.5734168 0.1867141 0.19474174 0.047550295 0.5134093 -0.04486506 -0.18486995 0.092289545 0.43681556 -0.2116786 0.5223209 -0.30964866 -0.16714242 0.6973693 -0.1121178 0.039123893 -0.055344246 -0.5290653 -0.09461881 -0.7860651 -0.28898033 0.4266244 0.58925253 0.20645112 -0.4935848 0.0029705095 0.005933836 0.45059267 -0.4044338 0.06589588 -0.38312393 -0.20980479 -0.14401719 0.05959103 -0.2758211 -0.48166257 -0.6853881 -0.14531833 -0.12810516 -0.06793516 0.47610655 0.20044558 -0.28843752 0.6791434 -0.26943985 0.3867649 -0.39461866 -0.22312745 0.24594638 0.45683488 0.09223754 0.18336715 0.58993965 -0.34671032 0.07797785 -0.4011103 0.54058194 -0.21111855 0.12810759 -0.58369106 -0.28260618 -0.28108585 0.03617333 -0.4362414 0.29263496 -0.10843653 0.18133058 -0.030608287 -0.13546287 0.20782189 0.18790862 0.31182095 0.15224029 0.55114067 -0.24888426 -0.35789296 0.36931422 -0.0014495198
ⲙⲙⲟⲛ -0.44990838 -0.056607626 -0.33603653 0.1930785 -0.028627861 -0.6749348 -0.66205496 0.5032895 0.14243871 -0.33166328 0.36997035 -0.55863446 0.3471687 1.310966 -0.010048261 -0.2726126 0.50973123 -0.09746613 -0.121680684 0.08581864 0.36018598 0.79013985 -0.15720233 -0.08851248 0.15638828 -0.12099815 0.44898063 0.48395285 -0.26066306 0.024847629 0.09603514 0.46748024 0.6883238 -0.4276623 -1.014007 1.0971193 -0.31493878 -0.5741965 -0.09013235 -0.27150944 0.11617224 -0.35115626 0.3836464 -0.43508643 0.1611438 0.5965771 -0.4240895 -0.3897442 0.1946747 -0.01995453 -0.49353835 0.13156673 0.06810028 -0.24212177 0.1641002 0.17972703 -0.55689657 -0.22728741 -0.12196579 -0.23536812 0.27018556 -0.08113447 0.15577343 0.29581177 -0.28802824 0.7074065 -0.12967414 0.012357864 -0.41502085 0.35628682 0.17913319 0.021151002 0.3447208 0.19755818 1.0733632 0.42836383 -0.38280144 -0.6358526 0.0133000985 0.6147955 0.14826764 -0.24535283 -0.77198476 0.6569148 -0.088446654 -0.3363087 -0.025932329 0.022226404 0.03883577 0.3842238 0.039038055 -0.23389053 -0.45713282 -0.115265466 -0.5776269 0.34145874 -0.94263107 -0.30014288 -0.08900672 0.085554
ϫⲉⲟⲩ 0.12590382 -0.007437497 -0.077296846 -0.05487204 -0.25495392 -0.55865246 0.14884253 0.39472967 -0.42719093 -0.48598173 0.22000985 0.10775091 0.039841432 0.3723173 -0.36490655 -0.040652674 0.15171713 0.12162095 -0.19257925 -0.86972886 0.04830476 0.4651756 0.4556809 -0.29964495 0.09494695 -0.36174655 0.32460505 0.23101011 -0.27076104 -0.05504119 0.38060403 -0.20920373 0.5073326 -0.7389834 0.32762054 0.09565514 -0.057353057 0.09928635 0.055434518 -0.11460661 0.13183162 -0.08564636 -0.048359495 -0.22385201 0.78575224 0.1410181 -0.34164828 -0.062914215 0.6929927 0.1740562 0.048472926 0.43949986 -0.55450016 -0.025216214 -0.08934397 0.11192745 -0.21778095 -0.055414356 -0.25112393 0.1111472 0.23248962 -0.00046247174 0.48557395 -0.030470368 -0.41870853 0.9045907 -0.03919826 0.1026278 -0.18257517 -0.17715979 -0.1096437 -0.053223882 0.024409728 0.7087453 0.3115685 -0.07573901 0.33585078 -0.04312042 -0.0018014968 0.015357135 -0.6743607 0.16133143 -0.74751264 0.5907499 -0.31423926 -0.40376154 0.35944852 0.023514561 0.56958216 0.27788767 0.31856954 0.20986983 0.07778296 0.095604315 0.44012627 0.34829226 0.26118806 -0.16786852 -0.09811636 -0.69787747
ⲉϥϫⲱ -0.22287399 0.24264556 0.10971153 -0.38597065 -0.062342566 0.0184865 0.8270274 0.6711054 -0.3847325 0.0055667395 0.09001387 -0.7482518 -0.3676716 0.09131421 -0.23995249 0.38594738 -0.2663112 0.46911967 -0.12430938 -0.83344823 -0.24532068 -0.46109703 0.13582624 0.4221384 -0.30859268 -0.21155849 -0.12386453 -0.44039482 -0.00854061 -0.11714879 -0.18995155 0.20484495 0.64798 -0.5539431 0.15922123 0.34996182 0.5480295 0.17891046 -0.118962236 -0.27000675 0.045459766 -0.07219507 0.16665676 -0.36468634 0.55929965 -0.3817222 0.20829014 0.06786747 0.7190633 0.46496037 0.059228513 0.22068977 -0.13640463 0.34524298 -0.26577115 -0.024290167 0.063183896 0.09281511 0.078103326 -0.06562332 0.06951407 -0.14573589 0.2332771 -0.027128622 -0.25475034 0.35049158 -0.121547185 0.13692562 -0.08633979 -0.26926294 0.21121864 0.2378103 0.43844834 0.50150645 0.85350287 -0.4468273 0.011213384 0.30017802 0.28988206 0.255418 -0.16421363 -0.1947933 -0.13125335 0.04229276 -0.03389218 -0.35290754 0.33340207 0.1224116 0.19911025 0.17659989 0.10513167 0.50934327 -0.0770674 0.1902258 1.1983949 0.30878642 0.04914032 -0.40275738 0.2707073 0.34673578
ⲛⲧⲉⲫⲛⲟⲩϯ -0.5208999 0.103646934 -0.34650415 -0.49711797 -0.22269621 -0.21096346 0.4053077 0.12591839 -0.32040063 -0.33718044 -0.10063742 -0.12979381 -0.39513662 -0.38985282 -0.19747235 -0.18848576 0.28333184 0.403906 -0.19170816 -0.32727498 0.043151464 0.6036947 0.7045013 0.2889373 -0.11497795 0.28597444 -0.5712098 -0.6891786 -0.22142424 -0.30218336 -0.23797777 0.100044385 0.5046015 -0.2563686 0.03080361 0.20827274 -0.24263802 -0.18503478 -0.32327557 -0.0827254 0.09435546 -0.012391161 0.006323068 -0.12494803 0.2541869 -0.30409357 0.2453331 -0.41444558 0.5952236 -0.12582317 0.26695246 -0.099900536 0.09405758 0.64170825 -0.110777654 0.12792762 -0.16567178 -0.21558115 0.22287779 0.034858637 0.6088982 -0.16775024 0.3387999 -0.025142683 -0.061396245 0.108140655 0.0034005365 -0.05202176 -0.4568023 0.088681206 -0.23998307 0.28566635 0.60547227 -0.3407831 0.55842066 0.4910324 -0.44208565 0.61814326 -0.66624236 0.28525135 -0.15667349 -0.19981246 -0.21813351 0.4165013 -0.25576124 0.060187113 0.38454288 0.23360291 0.13735528 -0.3139571 0.50586087 0.6609108 0.025617667 -0.055819783 1.2874107 0.20177935 0.23377469 0.018246941 0.112757616 -0.14718153
ⲉϣⲱⲡ -0.23286921 -0.1722536 0.13638845 0.51251554 -0.14887407 -0.23106161 0.07072086 0.40888774 0.17414677 0.2551648 0.09212413 -0.68058544 -0.13598402 0.5246826 -0.3912024 -0.3386467 0.17425601 -0.3098392 0.34184128 0.08966249 0.6740729 0.06323992 0.21852577 0.05337854 0.23128322 -0.04226201 0.0007797233 0.19612598 -0.04047786 0.005345349 -0.11864402 0.2279092 0.38198143 -0.23317976 -0.058578283 0.40194672 0.17848545 -0.06256163 -0.17505616 -0.5734494 0.27949688 -0.17068599 0.18238899 -0.09842853 -0.23879005 0.123400524 -0.52250874 -0.040167946 0.12970592 -0.12650761 -0.13560417 -0.12820253 0.46637315 -0.3324774 0.059872262 0.470002 -0.24308226 0.2364798 -0.39575347 0.029412726 0.059035145 -0.10902208 -0.13839671 0.77953297 -0.06954295 -0.05195434 0.09490886 0.2947418 -0.68032706 1.2851546 0.38080186 -0.31899843 0.36418545 -0.42327163 0.32173172 0.25198376 0.18790853 0.097493805 -0.38285688 0.7292791 -0.29055434 -0.0894605 -0.09096941 -0.04684539 -0.32443562 -0.09365261 0.115109235 -0.09185042 0.3303268 0.33879077 0.72196174 -0.7297083 -0.5668087 0.16600864 -0.30800152 0.101119034 -0.5645824 -0.6817119 -0.25263694 0.5767196
ⲓⲉ -0.5332744 0.5314877 -0.77936935 -0.623724 -0.84036386 0.056930516 -0.32905695 -0.3140101 -0.7156313 -0.4177306 0.3442313 -1.2866619 -0.6568673 0.032235757 0.09957717 -0.82748926 0.56329197 -0.98190254 0.6038617 -0.08501228 0.8981892 1.2685252 1.6903299 -0.070809565 -0.7877817 0.7329181 -1.0086288 -0.71587586 0.3490641 -0.81007963 -0.6073037 -0.056938175 0.7227792 -0.21931177 0.1674976 0.5431006 -0.47030956 0.15134582 -1.0911714 -0.6435184 -0.5361859 0.070770755 0.33378878 -0.07205259 -0.25645462 0.025303986 0.40429366 -0.5004822 -0.10371825 0.3088494 0.053187408 0.30809584 0.2074514 1.061921 0.339697 -0.121826075 0.19053295 -0.6673783 -0.6926785 -0.6458566 0.5629204 0.28756902 -0.8389787 0.7850164 0.29842523 0.2476586 -0.5779959 -0.5067292 -0.82744515 0.9266116 -0.10808557 0.03326096 1.1698015 -0.6767437 0.21732102 0.76429546 -0.29508922 0.62863576 -0.8224812 -0.0024341668 -0.4220479 -0.59653145 -0.3678234 0.24334747 -0.059541896 0.47505462 0.50519294 0.860664 0.43384337 0.37093645 0.12885109 0.31876177 -0.38204253 -0.39616737 0.7840171 0.96493614 -0.673139 0.0836462 0.11144029 -0.27430543
ⲙⲙⲁⲩ -0.43027806 0.21843036 0.07955891 0.20623624 0.21242684 -0.7698228 -0.37154558 0.25931117 0.068122625 -0.4528951 0.115147986 -0.030997088 -0.35988337 0.37451798 0.22276656 -0.044883788 -0.08411885 -0.3659013 0.35643372 -0.39627352 0.40361637 -0.03107617 0.13745534 -0.37218133 0.6516527 -0.14919658 -0.3794055 0.33119863 -0.44715217 0.024343822 0.84710604 0.0034847737 -0.21156676 -0.81540924 -0.055117376 -0.14872783 0.055548374 0.11535728 0.023407687 0.12846641 -0.079512306 0.099076375 -0.45087776 -0.3910896 0.3963948 -0.471862 -0.090136394 0.12729222 0.17254667 0.3733537 0.08711831 0.16599457 0.1088434 0.40470144 0.21528715 -0.05914622 0.32841954 0.16884814 0.029399697 0.6899825 -0.45117766 0.20982301 -0.16850726 -0.060716975 0.08581633 0.41443393 -0.16161297 -0.30530638 0.40671757 0.22278842 -0.12243931 0.37517828 0.37616447 -0.08132938 0.48323873 -0.7463883 -0.3707045 -0.09659686 -0.075189486 -0.2851799 -0.5169352 0.08435394 -0.04441997 0.6740592 0.0011887376 0.03064913 0.35228997 0.38727862 -0.19402163 -0.034196407 0.3244142 0.3078183 0.17818344 -0.27547804 0.25523913 0.63320047 0.134526 -0.24620426 -0.19167627 0.02316564
ϩⲁⲣⲟϥ -0.08368109 0.06383537 0.09171744 -0.5695744 -0.0048375307 -0.73371345 -0.38606027 0.7069926 0.30005214 -0.35106254 0.024397131 -0.093306944 0.6125169 0.91457444 -0.0581484 -0.49652943 0.39020345 0.04423667 -0.6557311 -0.7539506 0.10752973 -0.1634788 -0.40167212 -0.19706334 -0.11051088 -0.46653712 -0.12002805 0.32939622 -0.26552492 -0.1138884 0.07028384 0.5614113 -0.24404123 -0.85633755 -0.40074643 0.8266366 0.03357067 -0.11942936 0.22223473 -0.5111684 -0.3056587 0.21887998 -0.043121006 -0.6911445 0.20646963 -0.61221266 -0.1378332 0.022390353 0.120970994 0.405708 0.1801995 0.25683525 0.17469308 0.0016582803 0.1740264 -0.308585 0.65431124 0.2116294 -0.25034058 0.5864421 0.18930115 -0.2154505 -0.17408417 -0.5168827 -0.117866285 0.13813256 0.042737607 -0.33715054 -0.3158127 0.8328482 0.14072844 -0.28015143 -0.26547912 0.32945147 0.5760721 -0.50723577 -0.09328248 0.4966018 -0.33735973 -0.21342817 0.030621609 0.6058397 -0.31267557 0.5224143 -0.1440399 -0.17305657 -0.13573758 0.48202902 -0.29170012 0.45572293 0.55241215 -0.08751032 0.1638682 -0.22339386 0.22331706 -0.05129855 0.13099773 -0.56639576 0.10944026 -0.0035748081
ⲛⲑⲱⲟⲩ 0.09712816 0.12193178 -0.58644605 -0.5003914 0.15528096 -0.1755291 0.23593101 0.082188256 0.023959057 -0.08162841 0.21881776 -0.117208816 -0.1240255 0.24453864 -0.17945327 -0.41406974 0.0819737 0.08972761 -0.7018983 -0.8651574 0.12483031 0.6164673 0.71664643 -0.20594935 -0.46258566 -0.08270074 -0.13708422 -0.41024807 0.1914818 -0.1361839 0.201545 -0.1012522 0.47925085 -0.38465813 0.0646603 0.042852934 -0.27889195 -0.04800493 0.38073063 -0.58171475 -0.14357588 -0.1377498 0.3039464 -0.041641463 0.45253018 0.0918893 -0.2205342 -0.08766467 -0.03697605 0.5191821 0.013793301 -0.027345065 -0.04458644 0.028231757 0.17030835 0.19777694 -0.05872891 -0.66878253 -0.44315395 0.18400516 0.29815823 -0.26116815 0.16495812 -0.22493374 -0.4143419 0.94487756 0.13788001 0.61685836 -0.78740704 -0.074425146 -0.37070784 0.14936882 0.13263583 -0.049422003 0.27931666 -0.15634663 0.384118 -0.15357578 -0.20907703 -0.48885125 -0.16707084 0.25825313 -0.67990965 0.19658704 0.012199124 -0.3226375 0.59617054 -0.3442616 -0.045237888 -0.008910135 0.027790712 0.031317156 0.5575083 -0.14530627 0.3574763 0.2215848 0.0557418 -0.06998154 -0.12478127 -0.35218987
ⲉⲩϫⲱ -0.3027896 0.3111837 0.04917433 -1.0803791 -0.029539445 -0.24342962 0.41304615 0.65849483 -0.44730198 -0.21202244 -0.0023606655 -0.62970424 -0.13368893 0.2796455 -0.052123405 0.26692 -0.026160302 0.2751254 -0.21641076 -1.0252783 -0.38187176 -0.16049694 0.12812789 -0.15102193 -0.51045346 -0.3971407 0.0880606 -0.40580806 0.4236596 -0.06425187 0.02281425 0.2977535 0.34791017 -0.3473833 -0.1547139 0.29638976 0.26581928 -0.2819122 0.34091163 -0.3507769 0.22199543 0.023429168 -0.05539375 -0.08585385 0.354765 -0.18749703 0.25764853 0.45316818 -0.0701794 0.4364768 0.09864549 -0.25423568 0.1855358 0.44698778 -0.017979283 0.16810526 0.22402078 -0.16149108 -0.025122063 0.134933 0.2450223 -0.4909256 0.3592676 -0.15724283 -0.78400266 0.6653871 0.015120464 0.101828285 -0.3166809 -0.3448644 0.39305073 0.29487056 0.6286695 0.13408872 0.22149469 -0.19976328 -0.14205447 -0.46067214 -0.25567093 0.11642668 0.13745436 0.16607563 -0.2567855 0.035802618 0.2406787 -0.08541647 0.051597815 -0.1920154 -0.003878033 0.4010859 0.19984399 -0.030745657 -0.29220492 -0.03918866 1.136818 0.30928788 -0.058703385 -0.61169463 0.047119725 0.09615813
ⲟⲩⲇⲉ -0.99902666 0.055485923 0.5927604 0.35731265 -0.07903872 -0.7149005 0.11259866 0.6238116 -0.183613 -0.6104723 0.20134968 -0.5550649 -0.54126006 -0.2352786 0.060924906 0.24997707 0.33597824 -0.43723184 0.6649239 0.19108476 -0.47422996 0.6081286 -0.51987326 -0.060435377 0.225305 0.102139264 -0.21996646 -0.072420165 -0.50777173 -0.51299393 0.40656257 0.20411435 -0.046055574 -0.05979 -0.074478686 0.37558264 0.07693338 -0.43042785 0.2230583 -0.217112 0.33556274 0.01879002 -0.3743293 -0.7843946 0.4238176 0.07868389 -0.25470155 -0.122037955 0.54176587 0.07303217 -0.55477464 -0.25319454 -0.24655196 0.37949383 -0.14695384 0.64909196 0.01786691 -0.06879173 0.70878804 0.40585637 0.24959162 0.48536626 0.09981144 0.1112711 -0.41952452 0.2819653 -0.77148414 -0.87485784 0.43450782 0.10497195 0.41350245 0.25481153 0.8877374 -0.23828979 1.0548997 -0.0074136253 -0.8000722 -0.24258469 -0.19968292 0.9535443 0.08413747 -0.3475967 -0.0968146 1.0406913 0.08244934 -0.21604943 -0.16216938 0.4440461 0.27933285 0.11487496 0.07050115 0.4155893 -0.29063588 0.25110784 0.8364241 0.25552192 -0.51867855 -0.14202777 -0.033683296 -0.046786413
ⲉⲧⲉⲙⲙⲁⲩ -0.24435714 0.2630764 0.15789579 -0.13610187 0.14531898 -0.3974831 -0.40495232 0.7823494 0.3136597 -0.32332557 -0.08467378 -0.13822207 0.50766283 0.1929917 0.059265554 -0.4489221 0.5133409 -0.37837192 0.24961849 0.1111137 0.4740897 0.3556583 0.16205283 0.0901183 0.13405283 -0.15058136 -0.16337904 0.38700247 -0.6590381 0.16039248 0.2945015 -0.2969099 -0.08905401 -0.3661504 -0.017362442 0.7489028 -0.16742004 -0.21297812 -0.43438494 0.056129638 0.0014703574 -0.32892478 0.042144917 -0.008871519 0.24326026 0.3445659 -0.5150965 -0.020461174 -0.1157621 0.1758255 0.13134433 -0.5217389 -0.3246941 -0.45782807 0.16976093 0.18223953 0.09696925 0.24412382 -0.039393187 -0.37299082 -0.22655596 -0.086826764 -0.117889665 0.7116768 -0.08046301 0.56215477 0.40714583 -0.09313454 -0.40811756 0.5367401 0.17104144 0.20007779 0.08194543 -0.5798034 0.13709058 -0.090230234 0.13177885 0.003441465 -0.077759236 0.24762157 -0.48788258 -0.016206156 -0.52703243 0.25001362 0.19333023 0.37145507 0.12765768 0.28917825 0.013075467 0.498567 0.39697593 -0.40909615 -0.3782997 0.13993633 -0.11172361 -0.10468635 0.1599193 -0.01567828 -0.3315547 -0.12620123
ⲛⲥⲱϥ -0.1121065 0.36149693 -0.322523 0.2212664 0.059682697 -0.00036029983 -0.15874298 0.010377182 -0.1102529 -0.1465731 0.15579216 -0.5964485 -0.22564581 0.21345656 -0.025529545 -0.36991116 -0.00857941 -0.50470823 -0.1420755 -0.15585232 0.37242082 0.10999621 0.24191467 -0.12739104 -0.22586367 0.090185195 -0.30296257 -0.15910774 -0.5735566 -0.25509474 0.36868146 0.09402426 -0.1479689 -0.7211672 -0.15236066 -0.21743928 0.06883383 0.27189043 -0.15738 -0.56961364 -0.430062 0.21864831 -0.31531703 -0.07611815 0.10852405 -0.27116168 -0.0138674015 -0.17449099 -0.079587854 0.38719824 0.06000402 0.2077458 0.2821059 0.22346494 0.4095358 -0.22056708 0.4155768 -0.15161614 -0.40221524 0.22246969 -0.22772865 0.32671356 -0.54610324 0.009318797 0.40117434 0.22910276 -0.23354122 -0.5831801 -0.008958034 0.30611488 -0.006685904 -0.019722605 0.33157972 -0.2560325 0.1176604 -0.022140319 -0.07295312 0.20455393 0.0099426145 -0.29063535 0.0041541946 -0.26769155 -0.049476884 0.09113895 -0.05462381 0.059500918 0.33584544 0.4138198 -0.115442194 0.37080488 0.23640878 0.541698 0.3476534 0.04183064 0.35268456 0.6430772 0.1439762 0.2217749 0.34544098 0.23143978
ⲁϥⲉⲣϩⲏⲧⲥ -0.021543473 0.31875068 0.026340878 0.095728874 0.37208742 0.08104489 0.13154796 0.36654776 -0.20296219 0.0348435 -0.010680322 -0.24304864 -0.1916857 0.523177 -0.03290909 -0.012528192 -0.28759137 -0.30049905 -0.22658855 -0.7164918 0.2983735 -0.16188149 0.1153925 0.07117787 0.17884623 -0.2844123 0.055417147 0.14134838 -0.46759406 0.05798786 0.5421961 0.42071798 0.096909255 -0.72448725 -0.4361498 0.3860473 0.2747696 0.085786626 -0.09489252 -0.4349462 -0.19500922 -0.30063355 0.024241315 0.17898208 0.31738624 -0.36074883 -0.29164037 0.031533346 -0.15345652 0.44683775 -0.024010785 0.3499734 -0.15890458 -0.0471765 -0.121426 -0.32536423 0.20934455 0.13805966 -0.60414356 0.14963683 -0.35292628 -0.09609331 -0.046371106 -0.42190516 0.18099175 0.5125286 0.024636427 0.13536525 -0.056996275 -0.100577034 -0.32173714 0.27368623 -0.15781157 0.16429345 0.46767303 -0.66567785 0.17493929 -0.25047323 0.33342236 -0.3211599 -0.12450828 -0.2812376 -0.28970927 0.13370429 -0.39960486 -0.27681005 0.7082413 0.14714368 -0.1940366 0.10667778 -0.24503481 0.68663085 0.022968939 0.08639103 0.39497837 0.45097148 0.042984284 -0.32346585 0.5396166 0.31814995
ⲟⲩⲟⲛ 0.14951597 0.067978814 -0.081837356 0.025239704 -0.44676173 -0.4666542 -0.20327486 0.24450149 0.04377862 0.045638084 0.31458312 0.023344295 0.370107 0.94455045 -0.10467104 0.0025250071 0.5455919 -0.420361 -0.34352127 -0.36852357 0.101748876 0.36756772 0.14567482 -0.18178183 -0.22297697 -0.4367215 -0.24690837 0.4790116 -0.32785663 -0.46111292 0.21238275 0.12768658 0.5810625 -0.3708473 -0.32467705 0.20058839 -0.2235574 -0.40716916 -0.4200099 -0.19096062 0.20889443 -0.21888553 -0.27346635 -0.54956126 0.19289443 0.043681014 -0.25855935 -0.09924109 0.13694607 0.10838064 -0.016312456 0.010033731 -0.12804721 -0.05566053 0.09312061 0.29835054 -0.23527505 0.33358982 -0.24988872 -0.07802697 0.27901298 -0.038939293 0.39678702 0.18841557 0.094094366 0.3134176 0.1766539 0.19007602 -0.6789671 0.92961365 0.2804166 0.05413518 0.15164025 0.25002608 0.37706375 -0.009149958 -0.16356759 -0.21073271 -0.30450982 0.11026431 -0.13490501 -0.07498068 -0.4567146 0.79898465 -0.72029746 -0.17437762 0.25896478 -0.21122515 0.2512096 0.5670242 0.5116128 -0.4506709 -0.5436044 0.17780009 -0.16356073 0.25107646 -0.4641995 0.10805344 -0.09581187 -0.30912086
ⲛⲉ 0.14442508 0.61376107 -0.2779723 -0.09723165 0.28708908 0.011945039 0.010261268 -0.019385455 0.11258503 -0.013341952 0.22359034 -0.26765355 0.07816854 0.51068604 0.094622575 -0.32202414 0.028263517 -0.76409394 -0.65676576 -0.23772983 0.10023339 0.76954144 0.56374556 -0.11602227 -0.18822578 0.12882616 -0.24719204 0.083058156 -0.36016676 -0.52484185 -0.07782121 -0.021370266 -0.16213 -0.29563528 -0.17200038 0.101953946 -0.42776248 0.038409375 -0.2648496 -0.1988484 -0.4169433 -0.4079289 -0.2943522 0.05269354 0.6961492 0.5770629 -0.6093341 -0.3356421 -0.252332 0.18271801 -0.0007438459 -0.33827153 0.0951191 -0.29249892 0.5354643 -0.1179422 -0.06532485 -0.47454968 -0.5847853 0.013547116 0.14616275 -0.06555349 0.11205227 -0.26131645 0.09102423 0.32167193 0.06348234 0.45159507 -0.71129894 0.483376 0.09085725 0.18092051 0.31915727 -0.52649444 -0.44915417 0.33077532 0.47058034 -0.3915124 -0.043824274 -0.40997264 0.027813444 -0.22345462 -0.75565803 -0.11771551 0.0028519894 -0.1618918 0.31920227 -0.19697145 0.31191462 0.43404198 0.39101607 0.095277324 0.0020574913 -0.06802431 0.27148473 0.51345295 0.14757584 0.3153387 -0.28963274 -0.049377173
ⲛⲉⲙⲱⲟⲩ 0.041886825 -0.13810697 0.010643189 0.5741341 0.046166457 -0.18683527 0.3395502 0.5602371 0.35453713 0.31097367 0.29944348 -0.22306454 -0.30257502 0.49980366 -0.047499582 -0.14070073 0.012836271 -0.83714443 -0.25558084 -0.062044915 0.30109218 0.02197553 -0.44454676 0.092262685 0.060259003 -0.09030766 -0.19962437 0.090628095 -0.47077975 -0.07433975 0.34422365 0.14202917 0.15520483 -0.38012326 -0.23225443 -0.074079566 0.2246239 -0.007817848 -0.14539218 -1.0107026 -0.08515995 -0.027875654 -0.51653105 -0.01252926 -0.12077918 -0.16961345 -0.8073108 0.09339496 -0.1441859 0.2535362 -0.47754785 -0.24461597 0.1291486 -0.5269019 0.31410298 0.034986544 0.32743135 -0.035161342 -0.044538032 0.2327452 -0.24548884 0.062168334 -0.17870168 -0.10327945 0.011166354 -0.12361318 0.011728462 0.1754307 -0.1904995 0.6388069 0.11676544 -0.05793713 0.19706407 -0.25044054 0.3933317 -0.39765126 0.21448475 -0.1617874 -0.04749798 0.20622107 0.34461522 -0.009119508 0.08092569 0.18991953 -0.39587533 -0.4892775 0.26966268 -0.08761528 0.010055905 0.33365768 0.014176137 0.3060467 0.4345597 0.36770573 0.12267844 0.09863708 -0.33080423 0.07614363 0.6440834 0.39190257
ⲛⲁⲩϫⲱ 0.11325808 0.46110472 0.33602482 -0.96079034 0.024627957 -0.26973492 -0.09091501 0.8010326 -0.4212019 -0.2124392 -0.06603474 -0.26259115 0.1031054 0.19506824 0.025382333 -0.08264063 0.033945013 0.22235253 -0.603646 -0.91347194 -0.09816927 -0.08515254 0.4290589 -0.015060958 -0.58899635 -0.41174975 -0.109355 -0.25983408 -0.0032869612 0.0052800053 0.19965951 -0.21788916 -0.36915997 -0.88080996 0.17103793 0.48659882 -0.061970674 0.1666291 0.56640506 -0.0402645 0.101569586 -0.10648025 0.097246855 -0.2335927 0.604348 -0.3874214 0.31731874 0.028057382 0.27879512 0.44365308 0.36149493 -0.12229452 -0.03044462 0.3472855 0.05330184 -0.24008083 0.6488098 0.23162386 -0.042629875 0.17440109 0.3736867 -0.0970824 -0.19399355 -0.1027106 -0.6832675 0.9628329 0.13430962 0.095020816 -0.3392062 -0.0028680773 -0.10333536 -0.11376797 0.29940602 0.046841215 0.03281028 -0.5267625 -0.15141216 0.49223977 -0.13011652 -0.29634085 -0.56216794 0.38253585 -0.35384768 0.37124395 0.40819615 0.101826824 0.08152863 0.34839475 0.19699976 0.16461797 0.29206058 -0.17470069 0.15918791 -0.15246159 0.8958593 0.3833219 0.4576089 -0.58996224 -0.60768974 -0.26450232
ⲡⲉϫⲱⲟⲩ 0.41000757 0.05081904 -0.50893027 0.23330778 -0.15471104 -0.13600065 0.112041086 0.14206344 -0.23346679 -0.1677142 -0.26669437 -0.36506793 0.049338326 0.43243286 -0.31161904 -0.047637716 0.100634366 0.023286404 -0.07912126 -0.8727188 0.41613594 0.52897364 0.8766241 -0.39051813 0.007124558 -0.15828 0.036526766 -0.13018593 0.034546003 -0.033794772 0.046968643 -0.28643665 0.48195925 -0.44838816 -0.20952512 0.07198987 -0.37349367 -0.14833121 0.2614025 -0.45053983 -0.13549069 -0.31177467 -0.027467504 0.15191633 0.11903948 0.16386059 -0.23287468 -0.09954164 -0.52497 0.13941154 0.1684395 -0.19178441 -0.1063031 -0.4389009 0.4883216 0.021968454 -0.08568487 -0.6905898 -0.6174479 0.17767952 0.11135614 -0.34435225 0.1838047 -0.19004844 -0.5872282 0.944836 0.1422331 0.5732685 -0.60564387 0.27717003 -0.33364007 0.3453888 0.3402599 0.0025837622 0.14223482 -0.20551272 0.5245954 -0.53264534 -0.2443592 -0.43814704 -0.17841679 0.31010997 -0.49564525 0.050254334 -0.07524058 -0.61494625 0.13851362 -0.108063996 0.052589156 0.30778912 0.06911327 -0.25214577 0.7062414 -0.010400901 0.2280568 0.25427088 0.48959756 -0.13498312 0.22440812 -0.32301715
ⲉⲃⲏⲗ -0.8113071 -0.16317599 0.33573982 0.32806024 0.02867594 -0.533008 0.21087916 0.49288008 0.19609855 -0.4515085 0.21239492 -0.6818929 -0.5256858 0.4645902 0.2202082 0.08543567 -0.14461213 -0.3768247 0.28639886 0.27093592 -0.072644405 0.37893426 -0.49814045 -0.07137976 0.05137541 0.119429626 -0.26441288 0.03755293 -0.41426268 -0.33075547 0.45678967 0.38617125 0.28997272 -0.17655768 -0.28272638 0.25098357 0.26248688 -0.21166317 0.018533966 -0.5784046 -0.07546198 0.08075956 -0.27010792 -0.58509386 0.025640368 -0.07142005 -0.19162646 0.08072386 0.081649296 0.32565 -0.43055698 0.083709165 0.0672275 0.24311253 -0.09387657 0.46084026 0.029532246 -0.1872247 0.32424107 0.29786712 0.09348307 0.34661463 -0.3252318 -0.032827727 -0.08089475 0.099323906 -0.5634085 -0.6484969 0.13399266 0.22192653 0.27250376 0.19107252 0.64584 -0.15496902 0.9761089 0.012547371 -0.38034678 -0.2549572 0.06418982 0.71013784 0.4532842 -0.37936392 0.07678412 0.7234437 -0.22452667 -0.19072582 0.1012299 0.2561435 -0.1104507 0.1993223 -0.1494462 0.4317382 0.010352705 0.113790594 0.20212184 0.29733002 -0.56682956 -0.018169543 0.372355 0.35547206
ϯϫⲱ -0.08551499 -0.2625675 -0.3259806 0.029880477 -0.35294133 -0.19586499 0.58001393 0.76396364 -0.3527041 -0.42642662 -0.30433428 -0.28578913 0.101780355 -0.3116817 -0.70157546 0.12809956 0.38097358 0.8038857 0.20145474 -0.31091937 0.31936678 -0.16221067 0.58958435 -0.019548735 0.2298171 -0.46120986 0.004368313 -0.8503772 -0.26547098 -0.43297535 0.07303098 -0.13436072 0.46823403 -0.39897206 0.44058618 0.08580921 -0.097638726 -0.035334013 0.08340484 -0.3356499 0.6652906 -0.121374115 -0.4794508 -0.14981595 0.2022107 -0.20338939 0.17799172 0.1132425 0.45352203 -0.16877306 0.27723014 -0.59429234 0.002567209 0.54663676 -0.15284863 0.81565946 -0.06990475 -0.11682126 0.12770255 0.2285546 0.21752608 0.06146299 0.38176578 0.5653318 -0.3202607 0.7678643 0.06288239 0.26587057 -0.9225563 0.2867645 0.38796982 0.38683704 0.70098794 -0.16645698 0.67978567 -0.046081837 0.08811617 0.63123775 -0.4893481 0.004291085 -0.9184242 -0.13653623 0.017599333 0.4830117 -0.32031152 -0.09140148 0.13981749 0.45277447 0.10043089 -0.02007485 0.86334497 -0.026739456 0.26448184 0.79441 0.94511616 0.32357326 0.35487562 -0.26254705 -0.25490186 -0.029486965
ⲉϧⲣⲏⲓ -0.34419593 0.0209773 0.30141023 -0.0011438665 0.02361124 -0.22280827 0.42972067 0.5085719 -0.24281327 0.013082905 -0.09280096 -0.7126321 -0.41093996 -0.23007746 -0.08125327 -0.11109882 0.0434548 -0.2406553 0.31018695 -0.10127694 -0.2224281 -0.12518762 0.19038343 0.06422144 -0.011664706 0.29795253 -0.22711958 -0.37789863 -0.21536736 0.15208478 0.11006224 0.25432578 0.12556894 0.15512405 -0.05197033 0.047486775 0.25959185 0.07764148 0.110398166 -0.56240946 0.25204438 -0.15681951 0.032239385 0.05322459 0.008963233 0.045414925 -0.11747719 0.10577758 0.31361967 0.06396008 -0.25851798 -0.3248517 0.068376966 -0.19512108 -0.15295976 -0.030432807 0.27568403 0.11368234 -0.03597 0.28777462 0.1103792 -0.051501013 -0.04073012 0.32777083 -0.2521248 0.23076487 -0.10726004 -0.22191669 -0.0892211 0.102618925 0.012595159 -0.0826573 0.5043474 -0.2662084 0.29092818 -0.042932715 -0.21465918 0.04004735 0.11485836 0.19873758 0.122765236 0.025287872 -0.107513376 -0.03230943 -0.11881102 -0.12779759 0.08328955 0.20035782 0.11543992 -0.071626954 0.14864995 0.18092148 -0.020963991 -0.03728695 0.6362667 -0.16245921 -0.08910425 -0.49196976 0.1677452 0.41747764
ⲙⲫⲣⲏϯ 0.009878504 0.12203008 -0.10884448 -0.18664052 -0.17742485 -0.2774984 0.15127438 0.32176504 -0.05361993 -0.14474332 0.023821352 0.021273715 0.042176962 -0.11897149 0.054656595 -0.094370045 0.5583995 0.13001157 0.027572675 -0.2618463 0.048831347 0.26551422 0.024456507 0.24441107 -0.17388356 0.011848172 -0.5090384 -0.35305583 -0.39709774 -0.23087138 -0.10715445 -0.11988576 0.036666766 -0.28601652 -0.03987246 0.5147265 -0.060543768 -0.17958401 -0.19274774 -0.06460768 0.1342219 -0.09355618 -0.15065847 -0.35044092 0.4185211 -0.13849546 -0.43936673 -0.4305587 0.31460673 -0.14523783 0.1511931 0.24691057 0.039508387 0.19678724 0.3274892 -0.1685339 0.4329858 0.14476009 0.089797445 0.34274766 -0.041180085 -0.10484777 0.14966592 -0.1453261 0.113195956 -0.09925818 0.039824262 -0.1986626 -0.28108394 0.30069405 -0.070583135 0.054598525 0.06947889 0.10886964 0.432913 -0.2578523 -0.017157631 0.6487189 -0.42184994 -0.29683056 -0.36963555 0.17724217 0.0110659255 0.70001256 -0.41179025 0.12754647 0.033995416 0.36397648 0.10972934 -0.035806436 0.40348294 0.3781616 -0.041402027 0.06535032 0.9138558 0.010099717 -0.05529632 -0.24982968 0.19843754 -0.14860655
ⲡϣⲏⲣⲓ -0.35130078 0.45617628 0.41105512 -0.26197472 0.00042196724 0.12468621 0.5385569 0.77685565 -0.27729684 -0.18593702 0.02261522 -0.6707135 -0.5825893 0.066457905 0.19156784 0.18252578 -0.20752147 -0.10851593 0.090733774 -0.3145901 -0.25568634 -0.101226896 -0.3700863 0.27983266 -0.2160711 -0.20059194 0.39580408 -0.0049879462 0.06289112 -0.16788068 0.27511153 0.19318849 -0.05494032 -0.27463177 -0.15525727 0.43170035 0.6697038 -0.22695798 0.49317014 -0.7025802 -0.09654279 -0.098347865 -0.22199203 0.10515549 0.17862985 -0.18586622 0.013190438 0.39667982 -0.18567063 0.6982823 -0.38211447 -0.24016187 -0.10487431 -0.13239759 -0.04562747 0.09751039 0.3276499 -0.06491574 -0.21858045 0.09658068 -0.14809288 -0.14431602 0.026557699 -0.37134793 -0.50854135 0.5369242 -0.41625234 -0.08403262 -0.08417569 -0.40839082 0.1992765 0.73569685 0.5042957 -0.23346871 0.38411626 -0.0152404215 -0.13029453 -0.49167457 0.10234823 0.04277983 0.5147572 -0.19871974 -0.16804628 0.03353182 0.16377835 -0.29454508 -0.06310298 0.07112298 -0.2501223 0.30276838 -0.34316024 0.35741448 0.011443548 0.15261179 0.9370152 0.27782556 0.12731281 -0.54299724 0.7489747 0.16230097
ⲉⲧⲁϥⲓ -0.31028795 0.28298295 -0.056067318 0.31212407 0.41400015 -0.48112094 0.039121006 0.25624353 0.050028864 -0.4545397 0.070446126 -0.19177401 0.057139125 0.58515286 0.14194353 -0.4418546 0.090436116 0.10373852 -0.3759497 -0.5912721 0.43603927 0.010139369 -0.367359 -0.12611936 0.29964143 -0.08598705 -0.4043669 0.17863877 -0.43717536 0.17856453 0.4006735 0.15466975 -0.19216673 -0.7793561 -0.32492474 0.36477345 0.26655367 0.12577827 -0.13483755 -0.38615698 -0.33627468 0.033852518 0.07887506 -0.01934092 0.30400297 -0.36195195 -0.5427182 -0.065294564 0.10990122 0.29392123 0.28617454 0.33720264 0.24245295 -0.23398098 0.16422223 -0.17793104 0.27848127 -0.0062032104 -0.2244281 0.58168405 -0.4070028 -0.107174486 -0.10626124 -0.16309758 0.36983308 0.1820887 -0.080009855 -0.0652498 0.17493378 0.14057393 -0.2697747 -0.045355234 0.03588107 0.018292617 0.46780914 -0.39022583 -0.02507399 0.21739301 -0.0011578527 -0.24924213 -0.23496707 -0.015976727 -0.17684105 0.3456156 -0.27649227 0.10711572 0.5976403 0.28198558 -0.1820506 0.28771198 0.48860192 0.7350329 0.29132912 -0.024615232 0.57749665 0.4053088 -0.027373789 -0.09075081 0.27872393 0.41280878
ⲙⲙⲟⲓ 0.055393476 0.06726387 -0.4989911 0.48525408 -0.18561609 -0.097923934 -0.01966494 -0.143171 -0.48889253 -0.24301617 0.14526807 -0.66417783 -0.47594982 -0.16757452 0.36513093 -0.29755569 0.377155 -0.8277829 0.41723943 -0.21518154 0.32705104 1.0676861 0.7764082 -0.00825284 0.029962841 0.13451244 -0.544896 -0.2688789 -0.249305 -0.646385 -0.3398079 -0.2638498 0.8402747 -0.39125186 -0.24644347 0.3176162 -0.43236095 -0.26485828 -0.5633527 -0.27279967 0.0018435167 -0.51648736 0.3963894 0.3939884 0.318067 0.77418 -0.63778 -0.63935006 -0.19935901 0.28414437 -0.77786255 0.09829623 -0.17340027 0.12855434 0.6545524 -0.26163393 -0.13835226 -0.37269953 -0.4335188 0.0020570934 -0.008000043 0.46485087 0.1208543 0.24269591 -0.23585922 0.1679874 -0.13461445 0.36442563 -0.57987857 0.41169438 -0.058798388 0.29121098 0.7842622 -0.28949597 0.17214215 -0.13461746 0.26450706 -0.2017449 -0.14734069 -0.8258884 -0.2761662 0.051612806 -0.5297278 0.39524305 -0.07057466 0.34366006 0.053044017 0.35649297 0.63505733 -0.23170759 -0.086865366 0.028448999 0.15209283 0.25184268 0.22102673 0.3162958 -0.13471463 -0.11888364 0.26017475 -0.7102448
ⲟⲩⲁⲓ 0.082087755 0.03989528 0.36596915 0.19733769 -0.09034846 -0.28215227 -0.20826389 0.7556794 0.07212978 0.29203442 0.05041385 -0.33578414 0.124704845 0.5405778 0.5811771 0.32538885 -0.065258525 0.066751 0.09011064 -0.35314626 -0.10350426 0.18613379 -0.049290173 0.19646545 -0.109352656 0.30191538 0.12009344 0.019675722 -0.15691632 0.62774634 0.7465305 0.068486005 0.15938061 -0.48455793 -0.33511743 0.52782804 0.42612356 -0.24685211 0.28949732 -0.48521435 -0.16211726 -0.5520485 0.25744036 0.3268593 0.56894463 0.11375765 -0.05863082 0.1484662 -0.24705672 0.30280447 0.08929388 0.15947628 0.3266583 -0.41923267 0.17527853 0.007675673 0.3678259 -0.2113839 -0.19163045 0.25770608 -0.005494286 0.097274646 -0.43397114 0.33675182 -0.6558485 0.9854001 0.15596417 0.34648937 -0.3633491 0.20509245 -0.553473 -0.1807037 0.35469186 -0.232716 0.23839003 -0.09078268 -0.12024861 -0.2857007 0.4132928 -0.5256934 0.26174444 -0.06208101 -0.47350925 0.5213611 0.21578485 0.06371368 0.070846334 0.16698559 0.30028287 0.41026863 0.44436616 -0.20502506 -0.24323733 0.17164312 -0.15006544 0.064607434 0.016463919 0.21977843 -0.41853195 0.22648387
ⲙⲫⲣⲱⲙⲓ -0.05025562 0.21895404 0.31259415 0.031494617 -0.18125136 -0.03176321 0.443695 0.7373849 0.035132732 0.046157528 -0.34659144 -0.47981247 -0.64973325 -0.27897355 0.08270396 0.09063035 -0.11402165 -0.43351007 0.6449824 -0.19058803 0.019425793 -0.021773357 0.10653077 0.09889562 0.13870603 -0.011777589 -0.03449379 -0.10664839 -0.14758706 0.14616627 0.36391515 0.21702528 0.27208441 0.012427904 0.09490557 0.34103796 0.59812415 -0.18139744 0.018621963 -0.36670214 0.0044764155 -0.4526881 -0.37436405 0.2264435 -0.004157747 -0.12204366 0.24174044 0.5552233 -0.19154537 0.5807459 -0.4152509 -0.47186708 -0.006230174 -0.13124755 -0.18483597 0.2866275 0.2891012 0.00914772 -0.05116916 0.34228653 0.04085579 0.12294299 0.04838588 0.22342199 -0.31628534 0.24805476 -0.07754282 -0.02129445 -0.30864736 0.0716547 0.23289923 0.69117177 0.51706916 -0.5188366 0.29191437 -0.17227226 -0.25671026 -0.43136534 0.18414706 0.26620734 0.25771466 -0.3208198 -0.11143415 0.13488828 -0.0066551613 -0.28787097 -0.10009094 0.28763738 0.008584263 0.36361596 -0.12494352 0.027879812 -0.008031598 0.1905879 0.3260925 -0.03871191 0.20617108 -0.25519443 0.3365488 0.23521483
ⲁϥϣⲉ -0.1973624 0.5018257 -0.2819398 0.36458704 0.35289487 -0.34468558 0.1297294 0.27261156 -0.09320651 -0.39393342 -0.14178993 -0.43971908 -0.3459273 0.3255944 0.06132619 -0.19491372 -0.30186027 0.058670707 -0.009899837 -0.67823297 0.42210385 0.105684996 0.4281651 -0.21135116 0.15583815 0.15221426 -0.52083564 -0.05902317 -0.16579565 0.11538414 0.44975647 -0.11405088 0.19286467 -0.43641615 -0.17691243 -0.088513315 0.20554651 0.27490467 -0.12240451 -0.27688172 -0.45891356 -0.3912044 0.10855583 0.24083436 0.2493718 -0.12617 -0.09948679 -0.08430295 -0.3798523 0.34095126 0.034308657 0.24981846 0.34001705 -0.25066385 0.42408985 -0.4094961 0.17265357 -0.31351236 -0.25383666 0.34333807 -0.14950491 -0.06801031 -0.040596586 -0.21375556 0.08637873 0.35412976 0.27293384 0.21050772 -0.19162545 6.830697e-05 -0.5425819 0.36719373 0.28505388 -0.45530036 0.13821709 -0.13103402 0.101960674 -0.1922303 -0.10937974 -0.50590277 0.1183837 -0.059784792 -0.23930794 -0.09424608 -0.0050024115 0.11536464 0.6677809 -0.08369279 -0.089330964 0.24592379 0.020819468 0.39940026 0.5900267 -0.2535769 0.79060936 0.2465951 0.27861977 0.03719497 0.2424428 0.44891372
ⲟⲩ -0.14264494 0.41390806 0.009772834 -0.32683134 -0.100744 -0.26787537 0.040058218 0.3986839 -0.14320238 -0.31370664 0.07178096 -0.24740665 -0.047791135 -0.16709174 -0.043396804 -0.18144414 0.3470668 -0.35705933 0.45747685 -0.32481593 0.10432336 0.5079364 0.4008844 -0.23054563 -0.17322917 -0.12580699 0.114711486 0.03263983 -0.18891932 -0.11284694 -0.2084331 -0.34904212 0.3858302 0.0033571592 0.09398026 0.32811764 -0.113306694 -0.20493442 -0.34124804 -0.052139867 0.118834876 -0.30971238 -0.08773036 0.111659296 0.10070374 0.5258075 -0.29852676 -0.013792284 0.1032808 0.15982045 -0.27173692 -0.27289996 -0.49014145 0.08384622 -0.07879961 0.19545 0.061782893 -0.21048974 -0.07325677 -0.25130188 0.28401905 0.069039024 0.062890165 0.42669377 -0.3810007 0.14258477 -0.15361857 0.009792388 -0.53061396 0.19615448 0.14033951 0.33881068 0.4513206 -0.23990367 0.054426175 0.1960927 0.021404337 -0.047565006 -0.16208337 0.36339658 -0.3184884 -0.009356898 -0.31828818 0.35195425 -0.04845051 -0.122238785 -0.18291043 0.29547876 0.47660226 0.20990975 0.014161635 -0.10406141 -0.36762363 0.29843354 0.14824389 0.1387021 0.056607656 -0.11497156 -0.013660834 -0.18809487
ⲉⲧⲁⲩⲓ -0.20250218 0.17241895 0.08953529 -0.105747275 0.12673786 -0.39197767 -0.18858235 0.43344343 -0.16701472 -0.34125364 -0.24265099 -0.56115717 0.032910474 0.6422603 0.21293792 -0.2607667 -0.16241568 0.11542979 -0.18051597 -0.6266602 0.2566018 -0.1727463 0.18502127 -0.3964679 0.082312874 -0.10289966 -0.4210202 -0.006562176 -0.23194419 0.23307236 0.44149607 0.23693179 -0.3254019 -0.8762607 -0.2276234 0.04400867 0.031450525 0.010317607 0.0900225 -0.35487387 -0.33425948 0.14612524 0.068727545 -0.21593776 0.045669492 -0.6010662 0.3420453 0.107728906 -0.16655047 0.39692807 0.30822664 -0.048681434 0.29371762 -0.09282152 0.10417961 -0.2202035 0.4168747 -0.015050469 -0.29711175 0.62359935 0.038124606 -0.08591656 -0.34604388 -0.3540792 -0.12020071 0.5742516 -0.0251872 -0.09816635 -0.013668677 0.31410608 -0.38650858 -0.065543786 0.100903794 -0.29827616 0.23484455 -0.4866464 -0.20266539 0.022478862 -0.12546912 -0.2716754 -0.14254518 0.22387217 -0.06764695 0.21047795 -0.009292905 0.024539066 0.3119609 0.28014672 -0.14972743 0.355807 0.4240351 -0.0076700523 0.2797163 -0.25203255 0.22639397 0.19492854 0.25323805 -0.2914871 -0.18286197 0.23167838
ⲧⲏⲣϥ -0.27189052 0.031208485 0.60006297 -0.14508851 -0.36074427 -0.6701782 -0.016230607 0.5810077 0.1867219 -0.22965057 -0.039904628 -0.5372038 0.06695647 -0.0026451743 0.035647057 -0.101352505 0.32738295 -0.8826317 -0.17217983 -0.24306265 0.030546492 -0.09316841 -0.061223183 -0.265907 -0.24888198 0.23647903 -0.4445778 0.1729445 -0.21891792 -0.053930447 -0.20917694 0.17726013 -0.4575316 0.16470046 -0.16981342 0.23085147 0.10966556 -0.21432982 -0.34013274 -0.5759712 -0.09594091 -0.08032386 -0.0883522 -0.04328692 -0.056833588 -0.1796913 -0.60347635 0.072600745 0.1926679 0.27441213 -0.16340661 -0.29620844 -0.05742933 -0.4737154 0.09716173 -0.25822684 0.48249674 0.11558066 -0.072408244 -0.23246369 0.13892786 0.107466646 -0.19968529 0.47318706 -0.6692925 -0.09129418 0.02904184 -0.009770124 -0.16540375 0.7803423 0.60172284 -0.25402915 0.25486955 -0.27765507 0.2312859 -0.004591988 -0.06633163 0.07695213 -0.2844062 0.5400379 -0.18665019 0.64041865 0.28145418 0.28354308 0.33499482 0.01842922 0.072592594 0.8363422 0.08556718 0.28582788 0.56835616 -0.1733497 0.26604128 0.15592502 0.13474661 -0.01599033 -0.016465643 -0.2518267 -0.15268451 0.32197964
ϫⲉⲉⲑⲃⲉⲟⲩ -0.13640901 0.2673987 -0.29586965 -0.37134534 0.038938057 -0.16040957 -0.13503471 0.2916293 -0.35817567 -0.28755134 0.05101896 -0.2793056 -0.12869391 0.16793516 -0.16507326 0.012581198 0.16704221 -0.045510843 -0.1501046 -0.5150102 -0.08996053 0.28954428 0.31948248 0.027673228 -0.0957021 -0.12478309 0.10222955 -0.118269905 -0.07867534 -0.10920078 -0.012654733 0.1540023 0.091780566 -0.39749867 -0.1646481 0.47488055 -0.07413853 -0.374074 0.18300223 -0.09159496 0.11874648 -0.15977837 -0.2470569 -0.093266614 0.5586525 0.14107732 -0.28774446 -0.11823274 0.058706697 0.0852349 -0.072946064 -0.031469114 -0.09230881 0.42896482 0.28583515 -0.09605384 -0.14751601 -0.196876 -0.32141447 0.15998998 0.20583002 -0.08535654 0.31267652 -0.1764061 -0.34343743 0.36498576 0.16881895 0.11688671 -0.21002708 -0.1731924 0.052134447 0.4781803 0.11865155 0.17558923 0.14679755 0.030209363 -0.03919698 -0.19054049 0.042399425 -0.33199182 -0.09565588 -0.0495996 -0.37242383 0.29768682 0.041953396 -0.11503048 0.11297013 -0.0032721267 -0.031247096 0.13424405 -0.10979913 0.07036141 0.06957831 0.09592489 0.66588485 0.2659264 0.22162017 -0.40478805 0.13859014 -0.22835456
ϩⲱⲥⲧⲉ -0.21234961 0.3293481 0.20814115 0.10958112 0.18295132 -0.09857744 0.21060571 0.19460195 -0.19660482 0.013248176 0.033507317 -0.29871628 -0.05159871 0.013612853 -0.0019038491 -0.100976065 0.09793195 -0.37368655 -0.006912321 -0.3992222 0.0638071 0.19733499 -0.43269557 0.035473984 -0.033996142 0.04559866 -0.031680327 0.17250286 -0.18877417 0.21190318 0.32843724 0.071321994 -0.2430474 -0.20932649 -0.116663575 0.43459252 0.18984084 -0.109584354 -0.22533982 -0.54138476 0.05368852 -0.15232323 -0.2133746 0.21851674 0.2018717 0.042984445 -0.6020151 0.1458393 0.12716861 0.19542389 -0.07192537 -0.25951013 -0.027691916 -0.12267727 -0.046755705 0.15314095 0.2508909 0.13943616 -0.26264662 -0.038437333 -0.32032275 0.13391347 -0.0755903 0.12439458 0.052545764 0.13740504 -0.025211152 -0.08460919 0.13966309 0.12085883 -0.08860942 0.13351525 0.032079145 -0.26050898 0.19931023 -0.3379934 -0.003824554 0.1301162 0.08548719 0.30462527 -0.057508312 -0.0061964975 -0.1732939 0.10085305 -0.033153813 0.051777773 0.12364457 0.23763593 -0.10387712 0.28889972 0.11665729 0.33278584 -0.18005951 0.2135062 0.3656206 0.13002864 -0.13097595 -0.27069482 0.3871497 0.348665
ⲛⲁⲓ 0.10083779 0.56262535 0.09496198 -0.4669911 0.3538849 0.1911123 0.35127327 0.21985579 -0.067005895 0.23180893 0.07829411 -0.37654102 0.073707774 0.24439119 -0.007825592 -0.18332829 -0.054301966 -0.42417297 -0.8381101 -0.46431273 -0.16529651 0.52929807 0.032158643 0.05013903 -0.46450508 -0.139506 0.060354136 -0.046424802 -0.31147653 -0.19330645 0.060338695 -0.041513737 -0.19372681 -0.21833843 -0.3532426 0.234816 -0.11183822 0.12175503 0.104749836 -0.3824662 -0.0853367 -0.20322615 -0.3312531 0.12297656 0.52422386 0.35537863 -0.29222488 -0.020170134 -0.101860985 0.39821553 0.025879506 -0.52683854 0.20942944 -0.437564 0.26078454 0.10154773 0.110823385 -0.20088917 -0.42702055 -0.07944704 -0.00019588173 0.031351067 0.116876684 -0.35048753 -0.22089969 0.46517196 0.16463658 0.31508502 -0.6215719 0.12190851 0.27422807 0.2585208 0.2976712 -0.3882774 -0.24057344 0.03514568 0.2151145 -0.32974765 0.021518895 -0.19459765 0.14020868 -0.13915394 -0.53014594 -0.032646943 0.083928436 -0.08081581 0.15996583 -0.30101186 0.17702727 0.40689355 0.42553765 0.19840723 0.09184398 0.053384338 0.5144522 0.3019308 0.048551373 0.14236332 -0.019061664 0.13844764
ⲫⲁⲓ 0.008511193 -0.027003905 0.125206 -0.22839616 -0.27574798 -0.3846574 0.088568605 0.5659987 -0.15089501 -0.049621183 -0.004664757 -0.06031746 -0.22954276 -0.22577782 -0.17520407 0.012215922 0.2606878 -0.38600522 -0.032322556 -0.31390956 -0.054944616 0.44423574 0.19706365 -0.051222205 -0.11346613 -0.18549086 0.090708084 0.19920532 -0.112064846 -0.27746764 -0.24895781 -0.066006824 0.22544475 -0.07739413 0.17662774 0.16539732 0.011961749 -0.24065062 0.038593985 -0.21924141 0.20111832 -0.1349203 -0.09355411 -0.071211636 0.37157515 0.22489773 -0.4233622 0.13301387 0.23666662 0.18017112 -0.2929663 -0.012921229 -0.25416005 -0.15258785 -0.10278714 0.1234308 0.06406495 0.04682118 0.040668394 -0.04193955 0.18513858 0.034402024 0.13352491 0.46814826 -0.27504113 0.4067868 0.017031927 0.17497513 -0.33416876 0.19869183 0.2597599 0.1283006 0.21496367 0.13981703 0.1365352 0.058412258 0.047279064 -0.041806914 -0.1017569 0.17505394 -0.27984113 0.25440532 -0.22306904 0.4221893 0.1667933 -0.11284379 0.056546323 0.18013683 0.25722986 0.19606106 0.34429267 -0.1696817 -0.096624255 0.25219408 0.36380985 -0.013155128 0.09929011 -0.41604087 0.082966745 -0.20029277
ⲁⲛⲟⲕ 0.29345775 -0.090779506 -0.21434893 0.44240966 -0.29881245 0.00060276425 0.38781205 0.5646963 -0.39524898 0.06543436 0.020333465 -0.15422678 -0.13468006 -0.085142925 -0.06536884 0.19090025 0.51431274 0.03613392 0.19774722 -0.2501703 -0.07426651 0.5151056 0.32962885 0.16304696 0.22031178 -0.3394125 -0.2380656 -0.35383114 -0.27383652 -0.21849526 -0.15475479 -0.27652103 0.96328235 -0.26192364 -0.19564705 0.43968323 -0.049314093 -0.36859983 -0.20453018 -0.29914254 0.4965465 -0.5367664 -0.04487201 0.2406861 0.3280525 0.45286503 -0.6179652 -0.25466603 0.35731938 0.046814967 -0.24659495 -0.012651925 -0.18164608 -0.0043101017 0.24300532 0.04337429 -0.095401205 0.004244949 -0.001456262 0.017991295 -0.022553694 0.27905446 0.6169432 0.35322097 -0.476423 0.3310027 0.07426521 0.5136407 -0.7349132 0.23255587 0.22516078 0.41171378 0.4645866 0.17016281 0.4963861 -0.36381304 0.26779515 0.07505427 0.04645915 -0.51000446 -0.4154262 0.044493005 -0.18372977 0.27893102 -0.3407665 -0.08962476 0.078949936 0.17677903 0.54792964 0.0074343295 0.36333537 0.007195174 -0.011029678 0.6278623 0.5458221 0.1662318 -0.17535736 -0.20181932 0.23402432 -0.41513845
ⲁϥϯ -0.017850826 -0.16983585 0.102462836 0.15724365 -0.067899235 -0.026617063 0.43115756 0.56024736 0.21087582 -0.030543404 0.09034236 -0.4006364 -0.20420812 0.04305823 -0.046991535 0.025273416 0.047126956 -0.4697973 0.041582216 -0.24477497 -0.05486526 0.10440151 0.06407806 0.054456055 -0.3494927 -0.10401543 0.14578532 0.17112105 -0.484542 -0.06575327 0.16382034 -0.059462737 0.14392133 0.118578084 -0.0528635 -0.045503337 0.36870438 -0.41512695 0.09084165 -0.5981352 -0.129696 -0.15343334 -0.7044199 0.097760856 0.25255778 -0.030843891 -0.38314188 -0.04153215 -0.013767767 0.18158631 -0.26200554 -0.17133877 -0.2547314 -0.17001154 -0.213138 0.05499172 0.3918278 -0.024435336 -0.07238951 0.241952 -0.24083601 -0.0036695928 -0.10246686 0.10224272 -0.24148284 0.2885986 -0.10848538 0.030014096 -0.15686378 0.17997903 -0.020227209 0.1779891 -0.12285297 0.020180106 0.13239296 -0.062202238 0.13173418 0.01459167 -0.030529382 0.1643259 0.09489332 0.10288653 0.21320555 0.5076943 0.0141430795 -0.24140629 0.06254877 0.12411256 -0.26031652 0.20597154 0.20855634 -0.120683484 0.3424366 0.08672533 0.31592858 -0.14557365 0.14029974 -0.4607665 0.30941522 0.10226102
ⲛⲉⲙⲛⲏ -0.08836363 0.30831248 0.1394716 0.11474747 0.29434296 -0.09159779 0.04495265 0.34889248 0.1153496 -0.06645757 0.057562005 -0.16563939 -0.07642795 0.099853516 0.1118239 -0.2504083 0.04904353 -0.34568182 -0.035089165 -0.26767868 0.17113052 0.12126444 0.1893251 -0.24923556 0.20754984 -0.19723924 -0.48529452 0.046772018 -0.30090246 -0.033426743 0.35518372 -0.14648828 0.051543467 -0.38359797 -0.07557825 -0.1407205 -0.06146511 -0.06585218 -0.098759614 -0.31020072 -0.36030176 -0.18751036 0.1073498 0.09254162 0.22311275 0.13811205 -0.16759223 0.13676728 -0.10334466 0.30002004 -0.16158292 -0.12165811 0.07611215 -0.20837125 0.21330337 -0.14249527 0.45570192 -0.012918361 0.05607257 0.12510774 -0.07725941 0.17736071 -0.23269908 0.040806048 -0.20996864 0.3313944 0.36253455 0.13628761 -0.36800385 0.5210681 -0.22799176 0.039165188 0.40599874 -0.6493264 -0.024663262 -0.32511193 -0.021606624 -0.26769015 -0.25681937 -0.21718708 0.03692474 0.21570581 -0.18168049 0.05304844 0.18715382 0.27283418 0.26336175 -0.11391737 0.11123334 0.47596496 0.07918785 -0.06451956 0.19290853 -0.046679635 0.29793355 0.18120536 0.041592572 0.15738194 -0.063821234 0.22621247
ϫⲉⲫⲏ -0.051588584 -0.091105446 -0.31145135 -0.15940534 -0.2501314 -0.3259426 0.27604905 0.3654814 -0.34490412 -0.18961251 0.00859348 -0.13555421 0.021515472 0.2586818 -0.35479167 0.05188284 0.11231134 0.44743654 -0.15500905 -0.4013902 -0.038585357 0.1557225 0.5422917 0.08739246 0.026131764 -0.20025876 0.030364996 -0.3317487 -0.08136426 -0.30217752 0.086374976 0.13978678 0.502828 -0.33262333 0.058192898 0.21005814 -0.08763587 -0.075730145 0.03578886 -0.3618892 0.44383675 -0.32798475 -0.16919501 -0.31090498 0.32702407 0.015069899 -0.059138857 0.023609031 0.32274884 -0.13149856 0.043547608 -0.11165064 0.06290439 0.29653493 -0.11531296 0.36460945 -0.38601428 -0.10193658 -0.20355898 0.03655483 0.56745046 -0.061422728 0.42205313 0.13365546 -0.04093501 0.62722117 0.18799013 0.29664737 -0.76814604 0.1354625 0.110002644 0.23349722 0.3563385 0.22374865 0.39042574 0.21260008 -0.0404895 0.17778829 -0.079416715 -0.118481874 -0.17015974 -0.26739767 -0.41828534 0.37046218 -0.4014766 -0.0696966 0.19698915 -0.030881014 0.26257548 0.17040406 0.5465752 -0.0025753106 -0.113902494 0.27449617 0.5732732 0.20648587 0.08586954 -0.17359321 -0.16216509 -0.20034456
ⲉⲧⲁϥⲛⲁⲩ 0.10354227 -0.24721561 0.04277269 0.23555656 -0.021041974 -0.22265995 0.42973083 0.50576055 -0.0027648811 0.011191956 0.1713471 -0.24834764 0.012740428 0.49178904 -0.2927282 0.19979869 -0.023633214 0.1244975 -0.30448887 -0.601915 0.10609541 -0.0658619 0.065229714 0.10646167 0.15408042 -0.16403618 -0.2187922 0.055698853 -0.26891315 0.0022288254 0.05333049 -0.10838776 0.47279745 -0.41577405 -0.20263112 0.15355337 0.35267982 -0.040521465 -0.14731477 -0.3274288 -0.12739632 -0.2629713 -0.09723998 -0.052182663 0.30195105 -0.33040997 -0.2955927 -0.039716683 0.32428527 0.26420525 -0.21366102 0.117776826 -0.09215089 0.024631664 0.060810577 -0.07369579 0.1468227 -0.07582504 -0.19011657 0.21649586 -0.26054597 -0.29351062 0.22602357 -0.027306998 -0.24267285 0.34072593 -0.06151423 0.062154252 -0.06958586 0.2253805 -0.12732282 -0.15814391 -0.17669237 0.32868415 0.47565395 -0.14478745 0.28295064 0.27186853 0.058663726 -0.1254044 -0.22599295 0.006191407 0.037311647 0.23595259 -0.5420479 -0.26683205 0.30664852 -0.007828176 -0.0030150795 0.15936351 0.10254534 0.2546006 0.02687729 0.19150352 0.58682823 0.028304357 -0.1513446 -0.2816475 0.13100208 0.17872542
ⲛⲁⲥ -0.08186629 0.3184474 -0.15725796 -0.06257704 0.05128719 -0.19774494 0.14450027 0.43061292 -0.014267382 -0.30526403 0.14512403 -0.14382298 0.06819005 0.17389618 -0.032391384 -0.11969148 -0.037887763 -0.32059127 -0.044318218 -0.3309308 0.15741278 0.18155666 0.28430742 -0.23779154 -0.013884398 0.14564177 -0.10373465 0.17654513 -0.3000342 -0.26498854 0.019516733 -0.17653394 0.017348954 0.09100318 -0.015995221 0.13872068 -0.035415336 -0.09345861 -0.17150077 -0.26886973 -0.26063192 -0.48685348 -0.20661096 0.13314056 0.3520442 0.13206536 -0.29745537 -0.07888846 -0.17445277 0.19687821 -0.18514305 -0.14693063 -0.15688819 -0.22653428 0.24287997 -0.22298282 -0.03167758 -0.17030554 -0.3319198 -0.0946277 0.111047536 -0.06908034 0.18829156 -0.01889764 -0.23458211 0.35320133 0.05362276 0.36132488 -0.50861514 0.20296052 0.005514966 0.24989192 0.29137617 -0.17042169 -0.08210791 0.21250391 0.18692496 -0.15441558 0.036729608 -0.20808764 -0.052266605 -0.14788792 -0.3406645 0.06323625 0.0073452126 0.090161085 0.19120355 -0.04354104 0.15628682 0.1708943 0.031670734 0.035754856 0.2325173 0.08945193 0.31306872 -0.0011475005 0.23028754 -0.0025121956 0.04828298 0.09734896
ⲙⲡⲓⲥⲁϫⲓ 0.038900945 0.34303057 -0.08711928 -0.09317886 0.14287664 0.06059581 0.19267175 0.13803144 0.16314639 0.3907295 0.12696539 -0.2540734 -0.2732817 0.23478225 0.055026047 -0.34058985 0.028474532 -0.558032 -0.5177599 -0.17428133 0.11851384 0.4693162 0.04478985 0.26195726 -0.3183012 0.15179469 -0.3092463 -0.27006838 -0.26759663 -0.34986073 -0.10582607 -0.052306693 -0.11067575 -0.21292569 -0.055167206 -0.01586218 -0.014819643 0.16149278 -0.1183344 -0.5733493 -0.1805743 0.121226355 -0.29265466 0.003356016 0.17794216 0.19045179 -0.6327834 -0.1858666 -0.00306473 0.08355589 -0.277057 -0.087370165 0.20315507 -0.37045166 0.44381785 0.0046661254 0.26985896 -0.2225442 -0.22097346 -0.027504396 0.047949165 0.0075897467 -0.28703773 -0.08318325 -0.021386141 0.00938834 0.007643279 0.13536136 -0.47003147 0.5889388 -0.0023898035 -0.20588006 0.20826308 -0.4263234 -0.111924976 0.08719256 0.39864004 0.08377808 -0.29566193 -0.040650364 -0.044403452 -0.20440358 -0.18957171 0.23075593 -0.25038493 -0.16783711 0.29482135 -0.071681924 0.4322646 0.09736126 0.11549476 0.37061793 0.22065404 0.105921 0.5506943 0.33095583 -0.2135714 0.1741387 0.13836156 0.20291264
ⲙⲙⲟⲕ -0.3198782 0.4494934 -0.011775165 0.20364796 -0.17366095 -0.2981841 0.3316691 0.49714267 -0.35061646 0.07993378 0.053148508 -0.56345403 -0.42592874 0.50439405 -0.010364184 0.3363366 -0.19714044 0.3376782 0.45205465 -0.4625371 0.20966254 -0.10377501 0.6229153 0.22555712 0.3158155 -0.18493795 0.043341685 -0.044517893 0.26281497 -0.033436928 0.20017418 0.020699406 0.88207936 -0.48060256 -0.060520705 0.23444349 0.38825843 0.0036383818 -0.08525404 -0.24998654 0.1391486 -0.3908541 0.272427 -0.12622741 -0.18329519 0.07330876 0.12795718 0.23233709 0.07416425 0.21438713 -0.27477074 0.29516834 -0.09082164 0.5392304 -0.1533986 0.27832595 -0.31034064 -0.078874625 -0.33569157 0.1522 0.4095209 -0.4804174 0.40858066 0.36985072 -0.087228045 0.09529694 0.024543824 0.043396275 -0.33587465 0.42281187 0.12069969 0.2819183 0.5051432 -0.15505764 0.70923 0.08769603 -0.3907088 -0.1268588 -0.18326096 0.2361808 -0.030826686 -0.2655812 -0.1232112 -0.1451763 -0.50135034 -0.093818344 -0.13732836 0.044324644 0.49943134 0.17029782 0.058927998 -0.17211138 -0.48427036 0.03973167 0.57341594 0.20118934 -0.50971276 -0.6984008 0.0014010642 0.21929209
ⲛϧⲏⲧⲟⲩ 0.11651003 0.54856074 0.110294834 -0.6452343 0.331625 -0.1780841 0.029999407 0.1783803 0.027907396 0.06368899 0.24917203 -0.20745234 0.0039009666 0.27144724 0.007248471 -0.29090852 0.038533162 -0.42120224 -0.6697434 -0.4967392 -0.16071658 0.602218 -0.12752846 0.18559046 -0.53071445 0.062421095 -0.030562729 0.0927895 -0.42227393 -0.16082235 -0.08285364 -0.17915653 -0.35226843 -0.34806916 -0.049453977 0.39104822 -0.101117186 0.06813434 0.049778108 -0.19234683 -0.19462565 -0.033736937 -0.35774946 -0.05499336 0.7394202 0.43899134 -0.5761947 -0.21997769 0.25350872 0.07425508 -0.1408289 -0.25002652 -0.030891864 -0.06260261 0.26692128 -0.08277994 0.11454206 -0.026536116 -0.14849836 -0.029222542 0.14860463 -0.01907709 -0.116025604 -0.15982759 -0.117975116 0.12323246 0.034133654 0.017318986 -0.42541137 0.16268854 -0.051448368 0.038519047 0.2892375 -0.25110397 -0.30797416 0.17483789 0.2609055 -0.024377033 -0.051116176 -0.21193697 -0.11666922 -0.07412057 -0.5371873 0.31879926 -0.029684054 -0.14943767 0.04508129 -0.00812205 0.44954705 0.21000956 0.22859663 0.45043474 -0.09206683 0.018547453 0.6699624 0.36625904 0.14650904 0.043263163 -0.12715103 -0.047370173
ⲧⲉ -0.009608978 0.1305199 -0.15428466 -0.3645122 -0.0522611 -0.023024231 0.11505517 0.1483391 0.13691741 -0.07335137 -0.21081628 -0.15380478 0.37764308 0.15365382 -0.25787842 -0.19273482 0.35929874 -0.09127541 -0.3829408 -0.3506444 0.037758846 0.46700442 0.16487992 0.03398887 -0.24905889 0.0038150589 -0.092465915 -0.18857102 -0.2517357 0.034740996 -0.039917443 0.16594885 -0.109427735 0.11425278 -0.37252066 0.55070865 -0.25549304 -0.28931057 -0.13056244 -0.35596195 0.06150121 -0.14199841 -0.083234705 -0.039530925 0.22921558 0.09571206 -0.66515493 -0.234642 0.26572844 0.032644052 0.35122746 -0.378365 -0.017833393 -0.076642565 0.040079106 0.15934478 0.13544446 -0.20921971 -0.351228 -0.08837333 0.07957352 -0.013160763 0.16365685 -0.0342242 -0.22046553 0.15988332 0.17440742 0.17570245 -0.4854495 0.30113438 0.16209808 0.18800451 -0.12197784 -0.063941255 0.28631523 0.13311931 0.20058806 0.34620914 -0.038392298 0.00085508864 -0.26934552 0.056882955 -0.22012413 0.3311299 -0.049028065 -0.18336155 0.14533402 0.2507471 -0.077980794 0.1596787 0.52534366 0.18976888 0.15770766 0.118472725 0.26393163 0.0063103326 0.038012568 -0.121989086 0.17557858 0.02616613
ⲉϩⲣⲏⲓ -0.21144697 0.29069585 0.29974195 0.21026854 0.29409507 -0.14111128 -0.055320635 0.52373654 0.057923734 -0.020319415 -0.10101976 -0.67023647 -0.15929806 0.5843613 0.19100812 -0.20518306 -0.20584662 -0.25919214 -0.05990315 -0.26754972 0.29993388 0.009057366 -0.0539567 -0.10423764 -0.06318873 0.21631822 -0.115657 0.17228909 -0.40974182 0.22901829 0.53087676 0.28057426 -0.42575124 -0.45576754 -0.38578302 0.1404135 0.3859241 -0.11210671 0.107074864 -0.6415883 -0.43668392 -0.0046337666 -0.15466829 -0.0006218676 0.02987031 -0.25835037 -0.16299842 0.1583262 -0.43633032 0.48293915 -0.13763537 -0.18143189 0.288222 -0.412654 0.3508716 -0.061113413 0.42882583 -0.19755179 -0.36101952 0.24735965 -0.20250157 -0.029294122 -0.50340086 -0.17601295 -0.20063095 0.36504453 -0.099089436 -0.10181559 -0.09604436 0.49682862 -0.28219676 -0.026376033 0.054121133 -0.6214936 0.13665101 -0.078510724 -0.057351157 -0.20180275 0.04804025 -0.073803954 0.26837164 -0.01164194 -0.1195864 0.16717398 0.015668366 -0.0271341 0.21487844 0.14766318 -0.31408834 0.42363295 0.15697291 0.071312316 0.18623331 -0.018028967 0.13707039 0.049254756 -0.0076714274 -0.21923174 0.034081656 0.547223
ⲛϣⲟⲣⲡ -0.22045004 0.13316849 0.1510222 -0.2506082 0.009591581 0.056940287 0.47536272 0.55280775 0.09155358 -0.19253123 0.15707971 -0.022844555 0.17086619 0.057000134 -0.1589602 -0.1731379 0.17042662 -0.06353963 -0.11631079 -0.27296606 0.12880498 0.40709826 -0.18173026 0.18436985 -0.1657156 0.009756891 -0.04695273 -0.025836665 -0.35867828 -0.025282986 0.011086996 -0.03423013 -0.05142843 0.059319753 -0.0073332344 0.40044546 0.24626921 -0.16640708 -0.08096254 -0.23719357 0.020495659 -0.10622598 -0.2754111 0.034481887 0.16112353 0.24093327 -0.5662833 -0.03010991 0.46810797 0.31235725 0.066364616 -0.32927155 -0.22719535 -0.01100921 -0.0898473 0.20239909 0.12199396 -0.0039017533 0.007516976 -0.051906273 -0.06968215 0.15840718 0.13967527 0.05380249 -0.28614676 0.16498224 -0.20883583 0.29728696 -0.36160922 0.07274631 0.22392784 0.38852376 0.24525414 0.013118372 0.23519525 -0.007774787 0.08561688 0.41615263 0.16282997 0.25967848 -0.094454005 -0.10981807 -0.09999601 0.32977635 -0.152529 -0.18435042 0.039490066 0.04800948 0.08861623 0.09892543 0.31155598 0.33870915 -0.071744666 0.3615921 0.3156164 0.1929888 0.027170159 -0.15751143 0.14702716 0.07597753
ϫⲉⲛⲑⲟⲕ -0.013135412 0.32022476 -0.21666467 0.11130325 0.0077525903 0.08105053 0.57969564 0.50036865 -0.52172714 -0.13871871 -0.05411915 -0.45112118 -0.2808964 0.2187353 -0.16237381 0.33679932 -0.24827194 0.43430036 0.18679927 -0.66791296 0.3235419 -0.08769458 0.56330353 0.09260895 0.2643042 -0.10645996 0.1814364 -0.24020973 -0.07043714 -0.16362946 0.0984944 -0.11346131 0.53683823 -0.4107572 0.054671198 0.34241152 0.3413265 0.07113754 -0.007395924 -0.36292616 -0.08481921 -0.3929294 -0.08680896 0.28904167 0.27255946 -0.1250873 0.01278578 0.13504551 0.10903332 0.179761 -0.098058574 0.08326437 -0.20303224 0.3046502 -0.07302168 -0.067168474 -0.04524959 -0.36841217 -0.5194478 0.09551026 -0.018305894 -0.22281677 0.47026604 -0.14293149 -0.37472954 0.44963977 -0.16055724 0.45102933 -0.38035575 -0.21364646 -0.10531019 0.59843194 0.3775165 0.051514555 0.5523507 0.07386882 0.16102384 -0.011471683 0.024267 -0.4015232 -0.26830205 -0.3142676 -0.15333962 -0.0839535 -0.2544265 -0.35157016 0.28656438 0.07455484 0.24403512 -0.059378598 -0.17335632 0.60658854 0.118145004 0.2400857 0.8624318 0.42229706 0.09149613 -0.40155366 0.41045377 0.02950068
ⲁϥⲉⲣⲟⲩⲱ 0.15364026 -0.032487575 -0.284949 0.023740014 -0.060266744 0.09705698 0.48954636 0.41390735 -0.14036573 -0.13341469 0.039834537 -0.16599448 0.18124758 0.50509465 -0.4130867 0.024123944 0.07256985 0.30654737 -0.4498991 -0.7348709 0.17993172 0.23284826 0.23956288 0.049640905 0.047059618 -0.17385724 0.15026487 -0.11638346 -0.43764293 -0.057252746 0.19025263 -0.029320003 0.3172888 -0.37373742 -0.26567417 0.3901285 0.12339632 -0.17096515 0.0189434 -0.37456384 -0.013315696 -0.339043 -0.27701497 0.086546816 0.56245625 -0.149112 -0.47795668 -0.1454388 0.33979544 0.23663878 0.16292438 -0.05010024 -0.16275685 -0.016564278 -0.053010676 0.047878545 -0.09220574 -0.28521973 -0.569202 0.08178907 -0.11887148 -0.16441491 0.52612484 -0.28372476 -0.35907915 0.62899673 -0.03239176 0.4780038 -0.44081277 -0.09845791 -0.057837985 0.34527528 -0.12704001 0.42412657 0.42813638 -0.054081228 0.40186366 0.27144858 0.22007978 -0.49250975 -0.38224575 -0.16003355 -0.24444392 0.30748212 -0.42653635 -0.37307224 0.46542728 -0.13491099 -0.02686617 0.0775323 0.30029702 0.45737764 0.26703778 0.21855877 0.5159902 0.26656035 0.098454356 -0.21315184 0.2580506 0.0038732474
ⲛϧⲏⲧϥ -0.059466977 0.058756106 0.07501767 -0.10514309 -0.21073352 -0.18378723 0.42998448 0.47617307 -0.22734128 0.03532642 -0.053329412 -0.41707706 -0.068886645 0.24662763 -0.047886163 0.10521248 -0.15650259 0.3133306 -0.13251565 -0.7021889 0.032527927 -0.3854033 0.20334584 0.30546293 -0.23070341 -0.38211924 -0.17890675 -0.0529128 -0.20809402 0.013238555 0.06792121 -0.014717309 0.27968654 -0.34969598 0.06505118 -0.0078741545 0.6317166 -0.10969844 0.16020477 -0.27038196 -0.044368867 -0.22010288 -0.31868634 -0.099766076 0.20633219 -0.52960503 -0.036881562 0.1005161 0.31241652 0.11704657 0.059631824 0.0973197 0.18562083 0.4293423 0.046122264 -0.14272736 0.30020618 -0.06233427 -0.03351597 0.47982326 -0.016239958 -0.27245238 0.1182329 -0.11745178 -0.22284625 0.19418918 0.04405449 0.031796314 -0.19460912 0.26772505 -0.21739309 -0.020693744 0.14943464 0.04501213 0.2592593 -0.07303024 0.009591294 0.45288977 0.0007392199 -0.185538 -0.16279224 -0.0068339286 0.31870723 0.23661818 -0.23908457 -0.12598705 0.036337517 0.023261998 0.15545285 0.18019067 0.33288497 0.287152 0.2132491 0.013534917 0.862263 0.064248204 0.061800495 -0.5271713 0.036460295 0.31854317
ⲛϩⲗⲓ -0.10742355 0.34133598 0.07503244 0.022720594 0.058547918 -0.036809165 0.36237696 0.5709927 -0.23081706 -0.010445788 0.13296942 -0.08142599 -0.2037139 0.19008802 0.022882309 0.091200404 0.053442877 -0.22258931 -0.002319263 -0.61560506 0.053377043 0.28550518 0.15517853 0.14053792 0.09350304 -0.1421642 0.11522916 0.29222184 -0.085184135 -0.04374051 0.017336415 0.07820519 0.48845026 -0.19518006 -0.1707613 0.54878795 0.032615475 -0.2623646 -0.2183715 -0.14667074 0.14102662 -0.2539923 -0.08575575 0.0876814 0.23865663 0.07505247 -0.27000713 0.119130455 0.32229447 0.22902754 -0.19151539 -0.028362721 -0.32294387 -0.0038964602 -0.14813177 -0.04246379 -0.12163547 0.060485817 -0.09052602 -0.10851915 0.04522534 0.10544793 0.42605668 -0.13181055 -0.19312547 0.32640105 -0.032919463 0.34539548 -0.25241154 -0.24402063 0.047399074 0.48508576 0.29561606 0.12857592 0.46453932 -0.3224274 -0.07458108 -0.32576343 0.15387158 0.0071049905 -0.040845286 -0.165934 -0.30070215 0.28652 -0.14355628 -0.25910014 0.20672965 -0.114130326 0.26126474 -0.05869554 -0.024810357 0.42873955 -0.25692144 0.13679889 0.4685605 0.3106438 -0.1486587 -0.26001117 0.3610324 -0.054752145
ⲛⲧⲟⲧϥ 0.17217636 -0.0823534 0.1730387 -0.100073844 -0.34670833 -0.5124254 0.22259064 0.66678023 0.14975633 0.023998842 0.028593428 -0.09884102 0.12543105 -0.11279103 0.07271822 0.062643975 0.39127916 -0.25691843 -0.031619035 -0.39123058 -0.05979628 0.051715873 -0.015690586 -0.11220941 -0.2827663 -0.30321988 -0.1903548 0.06571134 -0.15319084 -0.14370696 -0.003888558 -0.1696789 0.3177551 0.033670958 -0.0029913213 0.053457737 0.35715696 -0.41720328 0.1402517 -0.3733083 0.023039497 -0.23698455 -0.20234852 0.052594107 0.20843995 -0.05709872 -0.35209563 0.21347035 0.12543887 0.1820953 -0.0813764 0.026102815 0.0014498014 -0.3026158 0.12571743 -0.12106241 0.50384545 0.15163855 0.17827606 0.39164755 -0.08188899 -0.08106146 0.06506184 0.21078795 -0.34834963 0.21137874 0.20727144 0.053825203 -0.26501974 0.5727229 0.06392318 -0.1445866 0.034781013 0.13861828 0.1684357 -0.2917872 0.052145153 0.042148765 -0.22432782 0.024621114 -0.25349894 0.48694292 0.06325039 0.48979738 -0.053577628 -0.16411783 0.22023878 0.12620236 0.16255619 0.2427306 0.3910813 -0.22413287 0.18486468 0.16409877 0.42417356 -0.23319122 -0.047316946 -0.42558572 0.091007665 -0.02169635
