960 100
ⲟⲩⲟ -0.19153975 0.08264833 0.037673377 0.14856727 0.089406356 -0.21216667 0.054824106 0.38770393 -0.1859125 -0.16750842 0.049881868 -0.20830822 0.08920821 0.0965233 0.08041316 -0.12402948 0.17127012 -0.020155733 -0.13873152 -0.33400613 0.10697635 -0.014489816 0.15989153 -0.08647001 0.03709859 -0.03769852 -0.14390388 0.05085569 -0.1501062 0.039876293 0.19868977 -0.093382254 -0.004758815 -0.20776294 -0.11113103 0.13008513 0.10841608 -0.13681333 -0.07107327 -0.17271769 0.100952916 -0.15772681 -0.11475468 0.075755894 0.12129596 5.920064e-05 -0.08845726 0.01574613 0.122289695 0.1518788 0.062224716 -0.21511085 0.0018957222 -0.04862392 -0.04278725 0.010956127 0.049118925 -0.029390607 -0.16493869 0.05195927 -0.11947567 0.09968834 0.044990785 -0.062099133 -0.12373774 0.20850018 0.03365109 0.22941945 -0.21522883 0.053582106 -0.10050392 0.15281011 0.19550943 0.030990342 0.23538119 0.095476985 -0.084977694 0.058170594 -0.038598962 0.09158087 -0.17686754 -0.058372587 -0.054123573 0.20840059 0.00039372523 -0.089225374 -0.019468252 0.068068385 0.18297523 -0.0037392667 0.07076595 0.15867946 -0.006109047 0.0027024723 0.35047066 0.16108225 0.014962673 -0.16987117 0.036250953 0.09726663
ⲉ -0.18735711 0.12078121 0.04805578 0.13898419 0.13619433 -0.21664558 0.096786834 0.39184502 -0.20049551 -0.16914834 0.022776462 -0.21635765 0.109309204 0.0836043 0.07430725 -0.09970846 0.18668747 -0.0015127447 -0.12202371 -0.33183375 0.12228916 -0.01693675 0.16086249 -0.1022543 0.03676933 -0.01304369 -0.1828056 0.01828526 -0.12421904 0.039170723 0.22124183 -0.08961445 -0.03702304 -0.2124972 -0.07778156 0.14733383 0.13455966 -0.1070477 -0.08347012 -0.1505311 0.09893744 -0.16078089 -0.12335885 0.085149236 0.12902097 0.0022711917 -0.054210965 -0.014822107 0.13920525 0.12868391 0.06236874 -0.23781838 -0.007830787 -0.039020795 -0.06799074 0.033219744 0.052110273 -0.0034448376 -0.1793978 0.069233626 -0.11736317 0.09504399 0.035136532 -0.052718386 -0.10731411 0.21361303 0.04733231 0.19201422 -0.18061288 0.052635055 -0.14096515 0.08723346 0.20888148 0.04934383 0.19981082 0.07464748 -0.13145152 0.046900112 -0.025431173 0.10149605 -0.20566462 -0.06822061 -0.050318185 0.18641545 0.007445801 -0.087034985 -0.00722484 0.093835466 0.21452805 -0.020399164 0.059846267 0.15071973 0.006218021 -0.019822922 0.32650495 0.13165016 0.053122666 -0.18525389 0.02446358 0.11285668
ⲁ -0.17397422 0.072162755 -0.005243811 0.11084076 0.1252709 -0.19840986 0.031167032 0.36095965 -0.1876769 -0.16909917 0.09301011 -0.21327241 0.08565124 0.09529615 0.12402056 -0.14119275 0.18520766 0.020799752 -0.16774198 -0.32142943 0.06732475 -0.050840154 0.16680156 -0.15070312 0.048313197 -0.054110948 -0.07929647 0.078901485 -0.15167437 0.059062976 0.21402378 -0.12276775 -0.01554052 -0.23430185 -0.13444978 0.12069897 0.118910655 -0.112286925 -0.05797503 -0.17097579 0.12397939 -0.1808042 -0.08484701 0.10610625 0.1342074 0.008861674 -0.08923862 0.0019263296 0.09415352 0.1526861 0.077457875 -0.22339666 0.008155197 -0.059041068 -0.06101732 -0.013726986 0.05380183 -0.015561957 -0.14610405 0.014695316 -0.11195558 0.096895196 0.12857561 -0.06870045 -0.12806387 0.27434036 0.055830896 0.23301117 -0.24801417 0.059599366 -0.0782696 0.16994384 0.19236934 0.08862531 0.21824378 0.12490634 -0.08119833 0.1088463 -0.05019606 0.09641196 -0.13408323 -0.07480353 -0.08284997 0.17643991 0.0128169935 -0.12218391 -0.003997706 0.018224977 0.191427 0.0043090787 0.031830728 0.18574516 -0.0044482807 -0.022538222 0.35940513 0.17228922 0.019805662 -0.16608189 0.054087892 0.05227672
ⲛ -0.19772193 0.08294663 -0.0058895336 0.12972817 0.090333365 -0.23737575 0.048569467 0.40004283 -0.16411762 -0.18225 0.03859868 -0.20201896 0.09835928 0.07421002 0.10364727 -0.14351134 0.18248361 -0.062239233 -0.12773703 -0.29489425 0.119774684 -0.02834113 0.16155362 -0.06896578 -0.0038176787 -0.040499438 -0.12559299 0.026131859 -0.1483774 0.0346294 0.21698979 -0.10791042 -0.03056503 -0.19225717 -0.08240519 0.15078475 0.103271194 -0.13309689 -0.09499976 -0.17667271 0.13211812 -0.15422438 -0.08388888 0.06521624 0.13429566 -0.0032776673 -0.09210236 0.0130756125 0.125946 0.1268556 0.0837305 -0.22871417 -0.019901646 -0.05911743 -0.077447526 0.028257128 0.045386303 -0.007790272 -0.15582041 0.04588077 -0.09965282 0.11691956 0.07048288 -0.057810016 -0.12602569 0.19402385 0.042764205 0.2407592 -0.21444812 0.038512576 -0.083769746 0.13896218 0.19732042 0.064857684 0.24089795 0.09215702 -0.11410489 0.04922765 -0.03945881 0.08987799 -0.17584366 -0.029777119 -0.057942897 0.21377823 0.012041343 -0.12186839 -0.01383563 0.115866534 0.2158574 -0.017565738 0.06427767 0.1450115 -0.024168808 0.0077990475 0.3405671 0.16214614 0.038239814 -0.17146742 0.031455737 0.071073845
ⲓ -0.17692515 0.08382502 -0.009143015 0.114955746 0.10045337 -0.18444961 0.10033136 0.36843824 -0.18009852 -0.13658687 -0.00045621285 -0.18462297 0.056457892 0.08122641 0.06611509 -0.11774599 0.16584346 -0.00070846546 -0.14057396 -0.3395916 0.121357985 -0.002462098 0.13994169 -0.082816534 -0.0076472876 -0.01729634 -0.1433957 0.016517086 -0.15695028 0.04925841 0.22567883 -0.10275599 -0.007520874 -0.22413093 -0.09850637 0.1261271 0.10254811 -0.11607537 -0.085085616 -0.172745 0.11273418 -0.19123185 -0.14414765 0.09101917 0.16217363 -0.020786395 -0.074854545 0.021470265 0.18077897 0.11614686 0.08681642 -0.22931907 0.040306732 -0.06293649 -0.09815779 0.02738819 0.013233404 -0.055461124 -0.18587378 0.050765052 -0.06590476 0.09498202 0.058170706 -0.05311805 -0.1058077 0.21086492 0.046211775 0.23220602 -0.25061175 0.06958157 -0.13584794 0.15518045 0.19321974 0.02381416 0.22908528 0.1002756 -0.10097256 0.07781573 -0.023324288 0.06420908 -0.1574048 -0.0849822 -0.09206055 0.20327355 0.012912447 -0.13595411 -0.015307341 0.10960973 0.17837131 -0.0034937437 0.08978975 0.15320428 0.041062944 -0.0011981992 0.33502313 0.116892 0.06348723 -0.20428558 0.05687847 0.0780794
ⲡⲉ -0.17254166 0.065670855 -0.0042998292 0.09606273 0.11245625 -0.21838728 0.08222552 0.3738416 -0.17878515 -0.19593067 0.069967926 -0.20263332 0.048193727 0.07701553 0.121780835 -0.15689985 0.15919404 -0.06815932 -0.11913556 -0.3237805 0.08359047 -0.029730566 0.19484966 -0.09129429 0.008800761 -0.043981288 -0.12794507 0.028572563 -0.11190547 0.038581155 0.21906036 -0.114904486 -0.025768884 -0.18794411 -0.08459184 0.13335957 0.094333656 -0.09260316 -0.05567747 -0.21365128 0.13513356 -0.1352234 -0.105624795 0.090545475 0.13199519 -0.01907029 -0.08429281 0.021341382 0.12575142 0.1421059 0.07918192 -0.22770372 0.009519208 -0.015958803 -0.061115522 0.0019402117 0.093258105 0.015271742 -0.15034111 0.028478658 -0.12362897 0.095050246 0.11453156 -0.089174666 -0.1441177 0.2204485 0.0478565 0.19981135 -0.23531662 0.019635623 -0.09797864 0.15313077 0.22647277 0.050039098 0.20615402 0.086803876 -0.13372733 0.06441259 -0.0719773 0.07399606 -0.13352877 -0.06272173 -0.050096847 0.20466359 0.046036024 -0.10128447 -0.012642787 0.0952836 0.1875913 7.819729e-05 0.08526992 0.16949645 -0.029149897 -0.013063533 0.3760982 0.17691985 0.018936297 -0.13990097 0.06760649 0.042312108
ⲛⲁ -0.15356025 0.07372741 0.022077883 0.11253793 0.13562988 -0.21207656 0.074871354 0.3695209 -0.17767361 -0.18079153 0.09285807 -0.20270598 0.07545746 0.115534805 0.10525183 -0.14065658 0.19676729 -0.036218993 -0.1021923 -0.3431242 0.08635482 -0.040372312 0.19147904 -0.11595148 0.018908352 -0.022303406 -0.15680154 0.028076036 -0.114220545 0.019183759 0.23433675 -0.079503454 -0.0128819505 -0.1684189 -0.09267971 0.104818396 0.070991464 -0.13096808 -0.077636644 -0.21940055 0.12417338 -0.127428 -0.106103815 0.09877601 0.11982625 0.006152051 -0.065548286 -0.01617112 0.10052742 0.14900298 0.07948197 -0.24211761 -0.010459993 -0.014269912 -0.04374441 -0.008692456 0.084191985 0.009279426 -0.1350219 0.012104984 -0.15284696 0.06867171 0.08865802 -0.060746368 -0.14916967 0.2426254 0.03976345 0.18824436 -0.23744744 0.024141552 -0.11791971 0.13671055 0.23065588 0.054770604 0.20111002 0.06768032 -0.12607595 0.06267988 -0.08424921 0.09404801 -0.16287033 -0.061334815 -0.052382115 0.21944441 0.03415458 -0.07921931 0.015948927 0.054631956 0.17096631 0.0026705735 0.07429399 0.1528136 -0.04424696 -0.019619385 0.3532169 0.17866684 0.03551332 -0.12952799 0.061877295 0.07300411
ⲉⲃⲟⲗ -0.16226012 0.082179 0.026190314 0.13388722 0.09589453 -0.20707345 0.081554234 0.3715717 -0.18303639 -0.15295888 0.011168465 -0.19515745 0.09071417 0.07596741 0.0800276 -0.11588504 0.18072036 -0.03021278 -0.12919311 -0.33355135 0.12904997 0.00640879 0.13764377 -0.08946107 -0.0046773353 -0.022043215 -0.15990998 0.014115592 -0.14169957 0.051798835 0.19692607 -0.08478967 -0.019462375 -0.20641999 -0.09060628 0.1253293 0.08156874 -0.124313466 -0.09983789 -0.16532372 0.110309035 -0.1497298 -0.10364927 0.08627821 0.13905907 -0.004346929 -0.09049785 0.00062941434 0.16652134 0.12833522 0.065358706 -0.22702584 0.02646266 -0.064713255 -0.07658995 0.040736895 0.02645109 -0.024857318 -0.17367171 0.05593213 -0.088164024 0.10745463 0.022483474 -0.036396887 -0.10177981 0.21233954 0.020237437 0.22746415 -0.21724308 0.037414994 -0.1254321 0.11997746 0.21608268 0.015017571 0.21579076 0.08601555 -0.09880946 0.04885561 -0.034635343 0.08079403 -0.18629192 -0.073128425 -0.07767368 0.21482597 0.02875762 -0.09636145 -0.018595561 0.12307037 0.21612981 -0.0056279968 0.08216468 0.13081942 -0.0027866992 0.005845383 0.32715625 0.14119683 0.0495705 -0.18656987 0.037385512 0.08258874
ⲱ -0.16774304 0.11140829 0.040706545 0.120850265 0.15353027 -0.18409164 0.10084711 0.35806528 -0.22697513 -0.18234015 0.09737302 -0.23015782 0.09495334 0.09514339 0.15736043 -0.17775917 0.16953121 -0.09071049 -0.0861809 -0.32701337 0.10003367 -0.023506135 0.20310555 -0.10839049 0.013771084 -0.019809823 -0.18427914 0.004083614 -0.082171485 -0.004237029 0.25838515 -0.09033795 -0.029515639 -0.11115952 -0.041081235 0.10720103 0.06728895 -0.08403292 -0.053801063 -0.23715203 0.11332349 -0.07226916 -0.12315876 0.110421725 0.09081291 -0.01013683 -0.025487525 0.008954021 0.08949598 0.12670915 0.08964323 -0.22250284 -0.016556853 0.008754685 -0.013039177 0.01648565 0.11505851 0.064392485 -0.11333241 -0.012250272 -0.19243492 0.04963741 0.08087491 -0.069563165 -0.18163694 0.20740798 0.034701046 0.18357195 -0.21863404 0.024545338 -0.15691411 0.09079708 0.27870902 0.05288507 0.14535098 0.052469213 -0.16775635 0.040429253 -0.11299762 0.0892208 -0.21168356 -0.09000563 -0.028779885 0.23455843 0.058895767 -0.029885372 0.0041728085 0.062553555 0.17734246 0.0017380886 0.08030775 0.13766171 -0.06494643 -0.028896468 0.3873009 0.21903998 0.035554305 -0.06814863 0.07206513 0.047985658
ⲇⲉ -0.17503273 0.055282086 -0.022567732 0.123979904 0.11620248 -0.21052516 0.08293284 0.3919564 -0.17192826 -0.1611977 0.039592475 -0.19678411 0.059467938 0.07063441 0.08958178 -0.12589625 0.1802042 -0.07720626 -0.09343682 -0.32887727 0.10685409 -0.010119974 0.15861264 -0.099162005 0.015954755 -0.048687518 -0.14553583 0.031213108 -0.1332665 0.02406126 0.23660018 -0.08898935 -0.010851393 -0.1597355 -0.10100422 0.13733448 0.082263924 -0.10369129 -0.076665886 -0.20653233 0.111384 -0.1320708 -0.11185708 0.07321491 0.13173683 -0.013606623 -0.08240562 0.03163438 0.15482709 0.1389713 0.09147777 -0.19885196 -0.01119556 -0.010970162 -0.06717493 -0.0042991005 0.05831154 -0.0069864653 -0.16008069 0.047444608 -0.116684586 0.11005701 0.08964423 -0.08137803 -0.15492637 0.20655853 0.04123375 0.18266396 -0.2356328 0.042548053 -0.118599534 0.14530465 0.20663375 0.005448026 0.22632635 0.053926423 -0.10919486 0.052249953 -0.04014468 0.07515202 -0.13595544 -0.06278507 -0.07724844 0.24321659 0.045571405 -0.11004285 -0.042990126 0.108763 0.20718089 0.009061148 0.07151509 0.17691141 0.015547801 0.014001739 0.36901668 0.13393134 0.010147197 -0.14552699 0.07662825 0.057499126
ⲉⲧⲁ -0.17033672 0.07634507 0.027651142 0.1143317 0.09475098 -0.23138973 0.046187107 0.36766678 -0.18114011 -0.17863016 0.07493695 -0.2099129 0.092661805 0.07874748 0.09830405 -0.12124844 0.17480896 -0.035240088 -0.13808686 -0.33670306 0.09170565 -0.025509583 0.16530359 -0.10807329 0.014441195 -0.02969605 -0.12532644 0.034323756 -0.12923501 0.04647063 0.20607635 -0.0951783 0.01011215 -0.19448006 -0.10873568 0.1332041 0.101564325 -0.12371853 -0.080355175 -0.1860435 0.12111663 -0.16753587 -0.10074655 0.099300414 0.12098367 -0.006805231 -0.08499473 0.0029082291 0.10121031 0.1550277 0.069994204 -0.22673567 -0.0099885315 -0.046863083 -0.046107307 0.004135916 0.03591328 -0.015234909 -0.14885119 0.036286075 -0.12624268 0.10168531 0.08421537 -0.059690237 -0.14944154 0.23235518 0.04085516 0.21179265 -0.21806398 0.047594566 -0.091855094 0.15156914 0.19699368 0.078669086 0.22855148 0.11822838 -0.09008628 0.04854989 -0.044707246 0.09797171 -0.15318082 -0.044282388 -0.056068186 0.21669683 -0.0052113766 -0.10380923 -0.017153678 0.077732585 0.19775835 0.004039055 0.07467223 0.16726507 -0.015598245 0.013977467 0.32941583 0.16766563 0.04097395 -0.16097109 0.0454532 0.063547425
ⲛⲱⲟⲩ -0.1522496 0.076962784 0.020727929 0.12118002 0.12951076 -0.22092782 0.05246337 0.38207346 -0.18206193 -0.19246727 0.11061177 -0.20160408 0.064206004 0.09577365 0.13824274 -0.16478206 0.17158906 -0.06303145 -0.12097553 -0.32043335 0.07609278 -0.049884085 0.1823631 -0.12998441 0.0076252376 -0.052924562 -0.14424813 0.0589482 -0.1234372 0.03658888 0.21324334 -0.11009675 -0.014938886 -0.18380609 -0.098187156 0.1270244 0.07909104 -0.11689777 -0.07134733 -0.2156121 0.11260874 -0.13513796 -0.074112915 0.111239865 0.10816142 -0.009313541 -0.04950567 0.0051902854 0.101959504 0.16750768 0.0819946 -0.22289057 0.002434522 -0.019138675 -0.047028046 -0.011121312 0.077779114 0.038364545 -0.13031538 0.014664122 -0.1361333 0.099988416 0.10359028 -0.08313719 -0.14947623 0.24173787 0.048786495 0.2107678 -0.24380797 0.035657912 -0.09579706 0.17343967 0.2175647 0.054614242 0.21412861 0.1020039 -0.12964836 0.08064377 -0.06975685 0.07233045 -0.14958347 -0.020960132 -0.066822655 0.20567581 0.04028849 -0.084077254 -0.012684879 0.051852904 0.20109588 0.013093907 0.06845555 0.15466887 -0.06816561 -0.0034578287 0.36298516 0.16972761 -0.0075822785 -0.121753365 0.048190363 0.04107029
ⲙⲙⲟⲥ -0.17097707 0.07859243 0.061922524 0.07714206 0.1704709 -0.19274648 0.08662257 0.413493 -0.15526824 -0.19369662 0.057270426 -0.21660393 0.0665655 0.094445154 0.12085013 -0.20519198 0.18550697 -0.08192651 -0.044930752 -0.3349839 0.094499625 -0.0478999 0.19677293 -0.0697806 0.024515266 -0.02066803 -0.21436003 0.039800253 -0.10367825 0.027338324 0.20497744 -0.050093666 -0.03427217 -0.11616189 -0.059546646 0.083891556 0.030519 -0.1365752 -0.059741557 -0.22620347 0.09057311 -0.047457412 -0.12238257 0.09670483 0.06504591 -0.03539446 -0.0028458405 -0.023813235 0.086553834 0.17150134 0.11053959 -0.24499993 -0.027956132 -0.0068888683 -0.02504069 0.004804567 0.107227996 0.081887275 -0.1226447 0.040977407 -0.20285712 0.054492228 0.07499474 -0.07302652 -0.17651385 0.20322809 0.076974355 0.1609988 -0.22612311 0.021105286 -0.14510606 0.12516846 0.2672452 -0.0012963667 0.16235124 0.055863794 -0.14707874 0.017264731 -0.12199524 0.08360136 -0.22074099 -0.03317323 -0.038113542 0.27100414 0.03561055 -0.03706597 0.0255688 0.080766656 0.17330492 -0.0034133985 0.094018094 0.124207035 -0.058436573 -0.05567309 0.37377578 0.1877395 0.0646053 -0.0820611 0.08585263 0.08784813
ⲁⲛ -0.18037374 0.090576984 -0.04058984 0.11663166 0.0789863 -0.23068634 0.10076198 0.38753828 -0.18113597 -0.13880531 -0.032022383 -0.1686033 0.074999504 0.0594343 0.069995925 -0.110287 0.17694606 -0.058290947 -0.10157088 -0.32640296 0.16729304 0.015120865 0.16735305 -0.04019519 0.002389327 -0.036921144 -0.16510963 -0.057806343 -0.13223523 0.036768243 0.22051129 -0.08041037 -0.0011984011 -0.19390637 -0.05298682 0.15412322 0.061131556 -0.09343685 -0.092740074 -0.21638468 0.09949008 -0.14578871 -0.110253945 0.06734534 0.14290014 -0.022225851 -0.07934737 -0.0077845934 0.18787041 0.07912031 0.084695645 -0.24459383 -0.033223074 -0.032170277 -0.1101441 0.025482215 0.036127694 -0.04619107 -0.19675313 0.09951702 -0.06885698 0.124207884 0.026853502 -0.03882523 -0.1115547 0.18810461 0.059641764 0.20613967 -0.21001902 0.051970277 -0.13608655 0.100281015 0.20186871 0.012539833 0.24976271 0.077358395 -0.11848385 0.037945356 -0.030988062 0.06931311 -0.16896412 -0.08976927 -0.051448837 0.234519 0.03403132 -0.110166125 -0.023224728 0.17389327 0.22975434 -0.018919991 0.11639586 0.1381516 0.045336988 0.009205213 0.32382244 0.11572596 0.053915318 -0.17059042 0.02463242 0.101753764
ⲙⲙⲟ -0.15036583 0.10243372 -0.0019321946 0.1011449 0.13972218 -0.20613793 0.10489993 0.39984784 -0.15102203 -0.17751384 0.05408925 -0.19408575 0.061343864 0.052487247 0.08707665 -0.11569031 0.18963762 -0.06970793 -0.09160988 -0.33421597 0.1339883 -0.0012535354 0.15992089 -0.094035916 -0.0052644266 -0.03216276 -0.17571007 0.005116608 -0.12090949 0.025236022 0.2110943 -0.094991185 -0.024460683 -0.1927817 -0.09937639 0.13637042 0.107151516 -0.10165639 -0.1027744 -0.19131257 0.10721091 -0.13869235 -0.09046566 0.08309501 0.13947879 -0.0018112418 -0.08695841 0.004275689 0.14493817 0.14002798 0.08509632 -0.21526858 -0.0055347043 -0.04062042 -0.08047469 -0.0028151253 0.07089635 0.007571082 -0.17294136 0.08735744 -0.12459733 0.084043026 0.07013635 -0.06074648 -0.13656315 0.20670946 0.05446136 0.18585564 -0.20897022 0.036593504 -0.1310437 0.10423342 0.22248362 0.017035825 0.21534523 0.055424046 -0.10845811 0.05759344 -0.04852644 0.07764868 -0.16852899 -0.060877003 -0.06516408 0.24269845 0.039351396 -0.07586577 -0.006474245 0.13711007 0.18874182 -0.010625592 0.0934713 0.15499604 0.008707004 0.0060309926 0.3452576 0.11839446 0.032198958 -0.13737021 0.0625143 0.070348434
ⲟ -0.18104856 0.089404084 0.01576421 0.14030904 0.08735959 -0.21359631 0.064899154 0.37645242 -0.18189977 -0.14246985 0.0142060155 -0.2094191 0.089140706 0.0849276 0.06999439 -0.12750256 0.16022608 -0.020183222 -0.10561452 -0.320312 0.123474166 0.013613085 0.13068306 -0.07502239 -0.002211024 -0.040201854 -0.15781642 0.028284382 -0.14410137 0.025249574 0.20522986 -0.111110896 0.0034722672 -0.17692523 -0.10780204 0.1536413 0.11090558 -0.12943643 -0.094588526 -0.16369848 0.12474956 -0.17633307 -0.108355165 0.096238695 0.14066327 0.020133927 -0.09815869 -0.01406905 0.13318563 0.1167226 0.07464064 -0.24324928 0.022910932 -0.03676313 -0.06121835 0.04079835 0.05300738 -0.026342386 -0.1615243 0.06958467 -0.10146897 0.09807671 0.030969089 -0.055092804 -0.113975845 0.18889943 0.031880822 0.24317203 -0.2080279 0.07344195 -0.12969357 0.12892126 0.21457107 0.018053953 0.2450029 0.1046213 -0.105852604 0.054090258 -0.043684956 0.079696976 -0.1875741 -0.0638594 -0.07925975 0.23551464 0.011791709 -0.07901572 -0.046015818 0.09876276 0.21328601 0.012561879 0.083166696 0.14260797 -0.011289423 -0.010481874 0.3113904 0.16008966 0.03798152 -0.14744192 0.050467107 0.08925382
ⲛⲧⲉ -0.1516938 0.07073001 0.007078198 0.12990326 0.077031106 -0.21076804 0.092273235 0.4131869 -0.17989306 -0.11886125 -0.04644679 -0.19736876 0.07332637 0.07208369 0.014195668 -0.06055246 0.15069991 -0.048315756 -0.10092155 -0.35471213 0.14903493 0.040139403 0.12467456 -0.027261997 -0.026588835 0.0062314766 -0.16265325 -0.06807627 -0.15050514 0.023680765 0.22603126 -0.09663932 0.0012446765 -0.20026737 -0.06885245 0.15361652 0.088150024 -0.1347934 -0.11988175 -0.20744053 0.06434803 -0.16098031 -0.12333345 0.07641661 0.15483029 -0.00074094016 -0.08915347 -0.027556153 0.18281738 0.09853294 0.068601586 -0.24439299 -0.009268472 -0.044070628 -0.0753356 0.03992294 -0.0016196389 -0.08918843 -0.21368924 0.07939466 -0.06902623 0.09846167 -0.015882503 -0.025505962 -0.11304648 0.18823043 0.027504122 0.2241055 -0.18189365 0.077427946 -0.12856278 0.12443955 0.20650719 0.009420026 0.22967027 0.0525171 -0.069049396 0.0086472 0.012068191 0.07517895 -0.1741914 -0.089405425 -0.09011063 0.22238313 0.01654276 -0.09749762 -0.075525366 0.15077706 0.20823893 -0.001873642 0.11378168 0.13757454 0.08218879 0.038087454 0.30310807 0.1288353 0.04228484 -0.17438757 0.030772388 0.100480035
ⲁⲩ -0.16157523 0.08934215 0.028689662 0.112726964 0.10295562 -0.22044022 0.098421425 0.37208366 -0.17431727 -0.14087932 -0.00056736195 -0.19056606 0.09230505 0.07067419 0.08987363 -0.13444792 0.15976836 -0.058830604 -0.09848527 -0.321439 0.15862916 0.014095068 0.11237021 -0.07741224 -0.0054970635 -0.035104036 -0.174307 -0.020624608 -0.136001 0.032423683 0.20882754 -0.07433811 -0.030224983 -0.16523226 -0.07848588 0.14479889 0.06854352 -0.11166432 -0.09875206 -0.19911332 0.106074385 -0.14690408 -0.09876439 0.09317973 0.13246393 -0.0047553545 -0.0930343 0.0064313747 0.16226676 0.124278925 0.09377071 -0.2090325 0.013949653 -0.06454276 -0.055173527 0.022719273 0.057291128 -0.037539307 -0.18540467 0.08201239 -0.104585305 0.10805032 0.0065556895 -0.05790082 -0.11842795 0.1776646 0.03985677 0.21785757 -0.19838972 0.03578583 -0.12772399 0.104901075 0.20050523 0.017225193 0.2355115 0.078589916 -0.08663149 0.044746045 -0.03430018 0.0973067 -0.16908331 -0.047150627 -0.07439329 0.23252067 0.043500308 -0.06405341 -0.025156358 0.13465782 0.21490152 -0.008633115 0.096411206 0.13455594 0.024880301 0.006431636 0.3234937 0.1587182 0.03136853 -0.17051819 0.05500035 0.05159133
ⲅⲁⲣ -0.14167778 0.07602839 -0.011954839 0.11980018 0.11949431 -0.2028111 0.103506915 0.40271026 -0.17787258 -0.15399364 0.0010489167 -0.19787346 0.08419028 0.0739236 0.07639995 -0.13316256 0.16481495 -0.06900153 -0.061858676 -0.30497882 0.14455271 -0.004389595 0.14363827 -0.062360767 -0.0052357167 -0.033417266 -0.19077387 -0.011283807 -0.112305626 0.018520173 0.24207659 -0.08731411 -0.028053634 -0.15136178 -0.0696278 0.14200567 0.086671986 -0.09887105 -0.09659038 -0.22736624 0.08689411 -0.13101295 -0.09987949 0.08115072 0.12729222 -0.016991507 -0.069587834 0.002586714 0.17246991 0.10504905 0.05749413 -0.23342189 -0.025771784 -0.025738513 -0.08621514 0.036756087 0.046954002 -0.0023959372 -0.1690067 0.08349601 -0.09782535 0.1074609 0.0308556 -0.051674306 -0.1508004 0.17746001 0.058404278 0.19385472 -0.2038104 0.060586344 -0.12630863 0.09918348 0.22708543 0.007114135 0.21824102 0.049623813 -0.14062552 0.037410233 -0.05888884 0.06694039 -0.16335492 -0.068474986 -0.06763483 0.26698607 0.056565695 -0.07898204 -0.03493339 0.16768691 0.20383681 -0.010262735 0.10428023 0.12690206 0.019312507 0.015822567 0.33009583 0.12714559 0.037352137 -0.15665632 0.07271955 0.06200145
ⲉⲛ -0.16282347 0.08170742 0.01141977 0.13285525 0.08094645 -0.2045139 0.08507153 0.36556745 -0.16534051 -0.1522849 0.025900016 -0.1894616 0.08860401 0.077145346 0.084295936 -0.12412184 0.16949953 -0.05390093 -0.12580138 -0.31678128 0.11652182 0.013948481 0.13271078 -0.08024697 -0.009728805 -0.0321772 -0.14908 -0.013491161 -0.13099441 0.053701837 0.20675433 -0.105859354 -0.011429349 -0.18661982 -0.1018509 0.14407104 0.07137419 -0.12116311 -0.083005965 -0.19403628 0.11248988 -0.1337048 -0.09970167 0.09188958 0.13092779 -0.002895369 -0.08614633 -0.009297278 0.14691786 0.12035104 0.07186323 -0.23052107 -0.014108974 -0.05038356 -0.058472443 0.033316337 0.048979558 -0.017969878 -0.15411474 0.0551296 -0.09896427 0.09354472 0.040685363 -0.061232086 -0.120180756 0.20812897 0.025322402 0.2104542 -0.22624105 0.042734023 -0.11521359 0.13362774 0.21015632 0.012159082 0.22266956 0.08522478 -0.094141364 0.050539874 -0.047806066 0.07256591 -0.17119674 -0.06273026 -0.06465776 0.21486945 0.03281597 -0.098507605 -0.038540326 0.10148555 0.20524971 -0.015351472 0.07754887 0.1497121 -0.0033978205 0.022320569 0.3194529 0.13614014 0.016695645 -0.14755619 0.049062863 0.088500366
ⲱⲡⲓ -0.16414686 0.08915203 -0.0025217016 0.13733193 0.10357808 -0.21196032 0.09191615 0.37580487 -0.15484227 -0.16032274 0.02054283 -0.18981752 0.08037056 0.08054484 0.08674934 -0.13110314 0.15359414 -0.04337026 -0.104552805 -0.3077016 0.1363353 0.013910193 0.123665154 -0.05658298 0.007804408 -0.035683192 -0.15530005 -0.0045987316 -0.15019849 0.011110563 0.21442263 -0.09810201 -0.01746342 -0.1634762 -0.08829512 0.1444776 0.095909454 -0.10236049 -0.09491632 -0.1831894 0.11098812 -0.14809668 -0.12980686 0.08015117 0.14411192 -0.008559387 -0.109103724 -0.004525906 0.15369925 0.13609642 0.08469074 -0.22394855 0.0011423436 -0.04908094 -0.08074802 0.031585317 0.065178014 -0.022608282 -0.18572693 0.057183295 -0.09551439 0.11370789 0.04937403 -0.074169956 -0.15554132 0.1880833 0.03882617 0.20631792 -0.19648817 0.041470207 -0.1259894 0.10578294 0.18414964 0.022845259 0.2516339 0.091668695 -0.100136064 0.046188124 -0.062229536 0.08203371 -0.17085329 -0.0571068 -0.07314506 0.23442401 0.010261073 -0.066672206 -0.026764177 0.108093016 0.1782253 0.005022413 0.0788463 0.15915807 0.007746974 0.0149445245 0.33014655 0.15158373 0.03756922 -0.17389482 0.020814793 0.070659265
ⲉⲣⲟ -0.16874002 0.09497757 0.037651017 0.13969818 0.094785705 -0.20452034 0.06509024 0.37416124 -0.18430406 -0.14707132 0.038359944 -0.19262056 0.0981927 0.08142315 0.077511385 -0.1303717 0.18060683 -0.051809967 -0.120586276 -0.33847696 0.11190669 -0.008410223 0.14826219 -0.076151036 -0.0013333926 -0.019788185 -0.16432813 0.013570698 -0.12037717 0.038116984 0.23306179 -0.09862355 0.0004273979 -0.19424123 -0.091131665 0.11554615 0.08941357 -0.13777688 -0.09390199 -0.20214733 0.10707816 -0.1491635 -0.10620693 0.092255384 0.114931 -0.007856366 -0.07990848 -0.004428649 0.12537782 0.13584206 0.08359739 -0.22419314 -0.006459394 -0.042995933 -0.070967615 0.011212368 0.05249299 -0.01928762 -0.17589678 0.043945998 -0.123183124 0.11080554 0.022564674 -0.0450991 -0.13665761 0.20150323 0.057412818 0.21957551 -0.22822899 0.048005637 -0.11890145 0.13822316 0.21654245 0.022394812 0.22111024 0.0710193 -0.102681585 0.056247603 -0.04764491 0.10063811 -0.1810815 -0.07190913 -0.057927325 0.23619737 0.020138396 -0.08198919 -0.02621127 0.10783552 0.19072226 0.0043812045 0.09960081 0.13265923 -0.0064399135 -0.0034070928 0.32774228 0.154035 0.036627967 -0.15229405 0.051709477 0.074900135
ⲟⲩⲛ -0.17232278 0.124433994 0.043903884 0.15549093 0.12387632 -0.21570568 0.07533497 0.37233746 -0.19975269 -0.17919894 0.011309096 -0.2099099 0.12512967 0.08655043 0.08827057 -0.102260664 0.15841039 0.004703953 -0.108732246 -0.32405424 0.1249213 -0.0038201069 0.11885417 -0.0779216 0.038453 0.015488118 -0.19487809 0.034044236 -0.10996021 0.031362172 0.19663318 -0.072329946 -0.042268563 -0.22180258 -0.08416551 0.15158053 0.13926066 -0.12822221 -0.10028961 -0.14261606 0.111078 -0.16521885 -0.13415049 0.07638806 0.12607858 -0.007103989 -0.066446744 -0.02041962 0.14038074 0.110622 0.063189395 -0.2503904 -0.0031899714 -0.03526091 -0.061187044 0.05831176 0.018963646 -0.025306182 -0.16508323 0.04907178 -0.10967964 0.084727965 0.040847283 -0.029593814 -0.073754154 0.20772624 0.017054215 0.19770806 -0.20756704 0.072578534 -0.14298777 0.10944606 0.20091562 0.034071002 0.18798532 0.0990734 -0.1323151 0.04566659 -0.035358354 0.10834981 -0.1954955 -0.07635443 -0.056424692 0.1712659 0.0031938017 -0.070267394 -0.012656385 0.10019014 0.21661884 -0.010737537 0.07133155 0.13652135 -0.0058795 -0.0057244785 0.31286848 0.112588115 0.048334368 -0.19777319 0.04766047 0.12835799
ⲛⲁⲩ -0.17313737 0.07880756 0.038968235 0.11677232 0.10248736 -0.20881885 0.051886197 0.36242285 -0.17357841 -0.1651089 0.03216113 -0.20226504 0.08575155 0.09240871 0.12764288 -0.1412454 0.17849836 -0.066117905 -0.09159493 -0.32775286 0.12770128 -0.006730418 0.16049962 -0.0968808 -0.014014854 -0.013588933 -0.16814144 0.016284553 -0.1184514 0.03285027 0.23547094 -0.089543134 -0.022735605 -0.17022693 -0.09076393 0.11209078 0.0774942 -0.10875377 -0.09214039 -0.18791133 0.13275664 -0.1226637 -0.10090846 0.07386149 0.11902017 -0.008611142 -0.07697312 0.0067260372 0.12113117 0.13680533 0.097846285 -0.22463232 0.008846772 -0.027266033 -0.056619115 0.03158626 0.074219815 0.022303699 -0.14829728 0.038323365 -0.13711227 0.090218954 0.045916367 -0.04586824 -0.14210345 0.19986159 0.04581759 0.19762336 -0.20901945 0.053265523 -0.13058828 0.11993299 0.21657486 0.016158145 0.22687593 0.07782296 -0.10278727 0.042914838 -0.06318022 0.08466263 -0.18073013 -0.06548668 -0.06597855 0.23874845 0.029462568 -0.070163615 -0.028110703 0.107837185 0.1753444 0.005778842 0.09026073 0.12785414 -0.03728934 -0.011373429 0.3346519 0.18108733 0.050413605 -0.1315163 0.0593384 0.07840842
ⲓⲛⲁ -0.1613632 0.080441795 0.026006548 0.112271346 0.076620154 -0.23183423 0.090904534 0.38432226 -0.18439864 -0.15909627 0.015427616 -0.19148597 0.07667675 0.092589736 0.055787735 -0.0980516 0.17218275 -0.035636406 -0.12039228 -0.34570023 0.09319865 0.009706752 0.12674059 -0.059739735 -0.023842618 -0.039685644 -0.14714216 -0.014061633 -0.1232186 0.008515538 0.23871842 -0.08125934 -0.0013842082 -0.1600412 -0.067782834 0.10688369 0.08568869 -0.15359047 -0.079145856 -0.19973184 0.08611908 -0.14937893 -0.10784806 0.07616597 0.1467699 -0.011691987 -0.06580357 0.009160393 0.15255988 0.10637548 0.09531979 -0.20541155 0.006068794 -0.03708811 -0.048630953 0.036593232 0.06819851 -0.026097588 -0.16087902 0.064393505 -0.10203024 0.08453943 0.020360814 -0.03968188 -0.12977904 0.2036075 0.023275524 0.19299752 -0.20855378 0.05888472 -0.13664807 0.11691626 0.22037488 0.02585912 0.22633272 0.07454687 -0.09436666 0.04937713 -0.031045657 0.08409249 -0.14990975 -0.044575166 -0.07141602 0.23907198 0.05088819 -0.072876714 -0.04328117 0.11731646 0.20723252 0.018565884 0.09063456 0.12461163 0.010726289 0.0066873003 0.34025 0.13636436 0.05939787 -0.16410491 0.06328403 0.06231646
ⲟⲙ -0.14228788 0.12944725 -0.03209826 0.12415616 0.09302923 -0.21285123 0.10237504 0.43634453 -0.16645853 -0.12776062 -0.051950432 -0.16050965 0.094686724 0.05579831 0.042636342 -0.10640204 0.18675938 -0.059865106 -0.10172346 -0.3166535 0.15831514 0.01720686 0.12724347 -0.0662411 -0.016876228 -0.03461768 -0.21072558 -0.060561668 -0.13239387 0.05112689 0.24713054 -0.08860208 -0.030410742 -0.2048265 -0.08287664 0.18812945 0.11023961 -0.12184663 -0.11310053 -0.21994121 0.061370634 -0.15739964 -0.07896318 0.043880936 0.13431694 -0.02946757 -0.0875831 -0.002117193 0.17838448 0.0820696 0.05836909 -0.23078163 -0.040216908 -0.056614026 -0.09340007 0.01965129 -0.00029136232 -0.04505997 -0.23977259 0.0924434 -0.059644897 0.111592844 0.008076676 -0.048845183 -0.110384665 0.16482635 0.075785264 0.16688177 -0.19964473 0.04231882 -0.15840822 0.08296043 0.18220337 -0.0007344513 0.24367449 0.052562356 -0.1372626 0.039112393 -0.0007093055 0.095504284 -0.1423875 -0.05909319 -0.07308361 0.26360506 0.022253009 -0.09650107 -0.034316704 0.21176414 0.23128715 0.0074817017 0.07556733 0.12383082 0.058884043 -0.007975904 0.32293642 0.0914285 0.029741267 -0.16403785 0.040107757 0.06948705
ⲟⲩ -0.17420049 0.0759841 -0.034273926 0.13809049 0.10737893 -0.19882089 0.10683661 0.3954632 -0.18005511 -0.12350136 -0.009745137 -0.1779857 0.08463805 0.053231884 0.053904016 -0.13515817 0.17502818 -0.08146065 -0.099060416 -0.33499888 0.1460398 0.010221387 0.16793028 -0.07931172 -0.023361271 -0.049868464 -0.17217757 -0.00863072 -0.1225077 0.054394785 0.22270219 -0.08553142 0.010279936 -0.16335371 -0.10504646 0.1660046 0.07115083 -0.113797486 -0.098128565 -0.20782864 0.11686781 -0.15145007 -0.10807769 0.06254691 0.15593392 -0.020777384 -0.064656496 0.00066630496 0.17066988 0.109205216 0.083641596 -0.21902609 -0.0077669616 -0.045694668 -0.10206515 0.026271569 0.04024152 -0.02461151 -0.2052468 0.052188564 -0.082143344 0.10124574 0.039021984 -0.07769975 -0.16099237 0.18247835 0.071621545 0.19248664 -0.23276904 0.05779195 -0.13233648 0.11147391 0.20500906 0.022057908 0.21861967 0.04395988 -0.11346148 0.03622403 -0.04659908 0.10012876 -0.12825999 -0.047086593 -0.07546877 0.26299772 0.04575674 -0.112110876 -0.041705042 0.17560586 0.19858512 0.009867611 0.107957006 0.13550402 0.024289358 -0.016800571 0.32611758 0.124722965 0.052436188 -0.1669065 0.06932158 0.04408079
ⲏⲣⲓ -0.15493041 0.091690265 -0.0027568464 0.1170478 0.10133933 -0.21904919 0.102619216 0.34666613 -0.14632192 -0.105385184 -0.006927564 -0.2027086 0.069680035 0.084424585 0.034629766 -0.15183826 0.14883293 -0.08175809 -0.106 -0.3292575 0.12182116 0.05809878 0.14001144 -0.03772217 -0.053523514 -0.056387756 -0.17088723 -0.06589453 -0.11597141 0.021995941 0.21637386 -0.105501324 -0.0017671034 -0.14371446 -0.08007531 0.08772554 0.0060555525 -0.09511111 -0.066385195 -0.2621252 0.08546579 -0.10411 -0.19537279 0.06458291 0.12293823 -0.0051051895 -0.09553695 0.0153253665 0.20006977 0.121032774 0.06625699 -0.26137015 0.01655447 -0.05087905 -0.07542556 0.03535276 0.08853105 -0.022518454 -0.17829368 0.07825427 -0.11424961 0.09998222 -0.022624852 -0.05601032 -0.14273174 0.15449631 0.03915567 0.18020377 -0.25257197 0.029294366 -0.1676091 0.12295776 0.24681021 -0.037436966 0.2021668 0.032136958 -0.1553016 -0.0109752035 -0.071884714 0.039805073 -0.16824895 -0.08554798 -0.02343015 0.25775307 0.09325169 -0.12598638 -0.071055874 0.17216998 0.2245196 0.0039246078 0.09597323 0.13688919 0.039064202 -0.023080783 0.34077945 0.17109865 0.06288392 -0.18149959 0.018942758 0.09615527
ⲫⲏ -0.13535914 0.098243326 -0.017526427 0.11907174 0.103340365 -0.176147 0.11959778 0.38532922 -0.1625903 -0.12640017 -0.017089952 -0.19013193 0.090084 0.07052884 0.042631205 -0.10643946 0.17679001 -0.082467794 -0.08492958 -0.32530892 0.15711813 0.012405025 0.14774595 -0.04368033 0.0017307224 -0.033347428 -0.18446603 -0.03362012 -0.11316733 0.022207288 0.23911282 -0.056611307 -0.014903018 -0.16993383 -0.087795414 0.13852791 0.100679666 -0.11499871 -0.134512 -0.19242123 0.056275316 -0.11940419 -0.10407081 0.06033975 0.1477068 -0.01379352 -0.07536321 0.0020126228 0.16853489 0.1300348 0.048795346 -0.21499598 -0.02986897 -0.025369903 -0.09778352 0.018576827 0.03775788 -0.019362736 -0.21620975 0.09949678 -0.08108917 0.071231514 0.0137998685 -0.06488911 -0.14980061 0.16063446 0.031043831 0.16345409 -0.17861763 0.06999968 -0.13730113 0.06726781 0.21224193 0.012213541 0.20576175 0.044064272 -0.120458744 0.035994515 -0.05505754 0.09798246 -0.15972501 -0.08907931 -0.08548597 0.2530416 0.023972891 -0.08123626 -0.028400375 0.16408081 0.19670253 0.0052088345 0.0942412 0.14547883 0.020528698 -0.0072389035 0.32525364 0.10623393 0.05005978 -0.18502772 0.08553428 0.07041378
ⲟⲥ -0.17991531 0.07284909 0.0045341305 0.106166184 0.12938529 -0.21206316 0.072043724 0.38746133 -0.20322563 -0.16661315 0.046996616 -0.2172456 0.08214385 0.1078601 0.095009096 -0.16060124 0.17916657 -0.08105475 -0.11204462 -0.33607638 0.10615602 -0.01744191 0.1521163 -0.08750563 0.020728247 -0.03426104 -0.15656191 0.020613056 -0.120709606 0.01680789 0.21149832 -0.078298524 -0.029601648 -0.17538553 -0.06300111 0.12339226 0.0797884 -0.13524613 -0.06886219 -0.20631596 0.08605818 -0.14180452 -0.09614142 0.085543364 0.12632525 -0.0034281774 -0.08573542 0.021454392 0.137476 0.13800274 0.08006581 -0.214278 -0.016280638 -0.024913039 -0.07267016 0.008166647 0.078686796 -0.0020670283 -0.15248087 0.03513743 -0.118036635 0.08980097 0.060514495 -0.055163413 -0.1416688 0.20310126 0.050017487 0.20384301 -0.22277638 0.045185003 -0.11923958 0.13674136 0.21169458 0.027687082 0.20350286 0.07249907 -0.12513302 0.053749334 -0.059834745 0.09769122 -0.18868558 -0.060719058 -0.066170335 0.23349224 0.038520522 -0.07217937 -0.022208981 0.11951284 0.21212018 0.009435842 0.07663656 0.16465108 -0.013173665 0.011805105 0.36194992 0.18254156 0.03793294 -0.15739281 0.038469363 0.07111674
ⲁⲗⲗⲁ -0.15612647 0.10280468 -0.03688294 0.1304902 0.08696748 -0.19853076 0.12816893 0.41043055 -0.16945592 -0.13596511 -0.017512964 -0.18424499 0.08603153 0.03658267 0.055559013 -0.11847675 0.17425776 -0.08295369 -0.07049405 -0.3145863 0.16963147 -0.0073297657 0.13964447 -0.060627535 -0.019763105 -0.036191035 -0.17930208 -0.048437048 -0.1386079 0.013037335 0.23061188 -0.08598037 -0.0110950135 -0.20639937 -0.056049436 0.15244138 0.10135791 -0.10562049 -0.1243418 -0.18143459 0.06425713 -0.15658398 -0.09280495 0.056724004 0.1276717 -0.021906419 -0.063803114 0.014616202 0.16020161 0.088317454 0.0678551 -0.21124592 -0.021439008 -0.018260958 -0.11477034 0.012268413 0.039663386 -0.048441444 -0.21409859 0.10863423 -0.06573018 0.09156539 0.02598561 -0.048611917 -0.123931035 0.17117308 0.048467577 0.19322692 -0.18421876 0.040846612 -0.14084019 0.08472437 0.20248702 0.011875639 0.23717956 0.058888294 -0.13020007 0.06319494 -0.011845931 0.07745548 -0.16478857 -0.07203517 -0.07786825 0.24232371 0.017501336 -0.10208724 -0.01748072 0.1831882 0.23000729 -0.0037452409 0.09296813 0.13190824 0.04308174 0.004971151 0.335738 0.10089858 0.035077237 -0.16874681 0.03518483 0.060578726
ⲏⲧ -0.17080772 0.06599052 0.02151087 0.12996337 0.10691033 -0.22467867 0.06120477 0.37048155 -0.1564825 -0.16343758 0.045872945 -0.19711968 0.09921868 0.08572931 0.087168746 -0.14060764 0.17533208 -0.04798608 -0.101986386 -0.30137 0.1240475 -0.009894866 0.1554637 -0.10020648 0.028585251 -0.040560134 -0.15655372 0.027293587 -0.1333917 0.058487736 0.21600316 -0.08216532 -0.011747222 -0.19747211 -0.10058761 0.16047934 0.10248381 -0.13252431 -0.08899534 -0.20065252 0.10554802 -0.17135338 -0.06912665 0.07229033 0.14746486 -0.00029349767 -0.08281376 0.012328586 0.13940237 0.1107266 0.07625177 -0.20295212 0.010576566 -0.049229685 -0.08546829 0.020345412 0.038643673 -0.00048360782 -0.16777256 0.07228743 -0.0834999 0.10996287 0.056476817 -0.071164034 -0.117241785 0.18687555 0.048769847 0.2002132 -0.20333531 0.05190245 -0.11191362 0.13076013 0.18798159 0.035654593 0.24746515 0.087921076 -0.12662394 0.048455935 -0.032035865 0.10607148 -0.14190136 -0.05320524 -0.06866713 0.2351645 0.018820172 -0.08644052 -0.020714395 0.115074195 0.21751484 0.021388685 0.08023661 0.14199382 -0.025385488 -0.018948097 0.3307872 0.12894437 0.017625563 -0.15834664 0.03735093 0.04791399
ⲛⲑⲟ -0.15330897 0.051819216 -0.0031066993 0.0989897 0.12532394 -0.20065784 0.057549164 0.3770105 -0.14894836 -0.17652982 0.08013761 -0.19007513 0.046594437 0.08164493 0.11739297 -0.12575796 0.15743864 -0.064607985 -0.10695562 -0.3280411 0.08279888 -0.023025418 0.16705805 -0.10936002 0.009730456 -0.043742 -0.11232393 0.040660888 -0.119015105 0.04359289 0.20235953 -0.10657497 -0.0004165489 -0.1818726 -0.089527994 0.111004695 0.075286925 -0.1203848 -0.061860155 -0.20461975 0.114779346 -0.1467918 -0.09793241 0.08404421 0.14365605 -0.026271414 -0.07113908 0.014831065 0.1250174 0.15242164 0.070768505 -0.21806753 -0.0012591456 -0.015929965 -0.05332107 -0.0017071306 0.07462123 0.016348377 -0.15017742 0.04619411 -0.12942626 0.09287264 0.096208625 -0.07022074 -0.14961979 0.21984242 0.05800392 0.21612662 -0.23348321 0.045805763 -0.09521207 0.14365399 0.21664114 0.03590668 0.20100933 0.07154728 -0.11631592 0.06260501 -0.07386982 0.06723859 -0.118803576 -0.05919785 -0.06486703 0.22559495 0.058492925 -0.08506905 -0.018792516 0.08590448 0.17980297 0.016236205 0.060068864 0.16027458 -0.008682276 -0.012577749 0.3531192 0.1713354 0.03873925 -0.13810593 0.075087 0.0376726
ⲗⲓ -0.15618947 0.096186906 -0.024592515 0.12903391 0.09116985 -0.22139035 0.10024886 0.43158475 -0.1935376 -0.17801769 0.0061684796 -0.19149613 0.08335162 0.08389952 0.058786258 -0.11054494 0.17326958 -0.046094086 -0.11076037 -0.3206265 0.09988956 0.0009632447 0.16421391 -0.063688695 0.011318588 -0.039251223 -0.15186435 -0.026445583 -0.13847284 0.049764 0.22811295 -0.121832795 -0.006482764 -0.23055205 -0.08628142 0.17030892 0.097377524 -0.117621824 -0.0737467 -0.20699911 0.07831072 -0.16351256 -0.10962917 0.077519044 0.15801941 -0.00397825 -0.08120268 -0.004232823 0.14732131 0.10079846 0.06640782 -0.22165605 -0.025585826 -0.050817974 -0.07301761 0.030038608 0.015881576 -0.03671556 -0.18577847 0.062733166 -0.109648004 0.09025718 0.033058446 -0.03478749 -0.11410186 0.20677173 0.04886728 0.20381232 -0.2090206 0.05287561 -0.11558956 0.12728056 0.20161918 0.038872287 0.24198298 0.069740124 -0.12360098 0.048421763 -0.0093946885 0.08993855 -0.16350885 -0.07931881 -0.04820284 0.20491067 0.035844587 -0.103025705 -0.027366059 0.13679221 0.24253644 0.009244539 0.083840996 0.14072344 0.04949107 -0.0015221413 0.3312878 0.12746215 0.027346598 -0.1699609 0.056286406 0.08210444
ⲉⲓⲏⲥⲟⲩⲥ -0.18520254 0.050986294 -0.009158491 0.12415547 0.101221904 -0.22496405 0.04169224 0.38994136 -0.15997094 -0.18599313 0.087028645 -0.22439247 0.09002386 0.1180034 0.10994283 -0.17582428 0.15727203 -0.036623724 -0.118786156 -0.28920934 0.10397085 -0.023713648 0.16518067 -0.09641251 0.040360786 -0.06413204 -0.11344296 0.04068954 -0.14229946 0.03891678 0.20003326 -0.10032947 0.0077082287 -0.18751971 -0.11422695 0.14794897 0.07906822 -0.13126667 -0.046309426 -0.21936971 0.1353724 -0.14877044 -0.08011654 0.06922913 0.1325 0.002591748 -0.07623403 0.0070564128 0.111811325 0.14145675 0.0665595 -0.22449538 -0.00065079617 -0.039603524 -0.03785124 -0.0017370686 0.08270907 0.0151382815 -0.12617534 0.008969443 -0.11499394 0.095466204 0.10147543 -0.07642687 -0.16660464 0.23840316 0.049903806 0.21396902 -0.231787 0.05041219 -0.07877289 0.16047777 0.21536109 0.06734396 0.24760634 0.11859675 -0.12584119 0.057877317 -0.06548908 0.10183749 -0.15132782 -0.035339203 -0.05633463 0.23236234 0.029101433 -0.10212164 0.004495385 0.06982672 0.197489 0.019382508 0.06611845 0.16995156 -0.02609795 -0.009502208 0.34874335 0.20092806 -0.0054293713 -0.14230274 0.025663715 0.07193874
ⲱⲟⲩ -0.13716955 0.06006299 0.0130396 0.11086255 0.08834189 -0.19841924 0.07895007 0.3721801 -0.16469307 -0.15964788 0.04215703 -0.17661807 0.06527738 0.080738366 0.099518426 -0.14630638 0.15841047 -0.070982255 -0.0865075 -0.31005302 0.12120051 -0.006369727 0.16304721 -0.11343865 -0.0117684705 -0.042566936 -0.14271629 0.028159559 -0.1368286 0.03785273 0.23570389 -0.080409236 -0.013782736 -0.16136587 -0.070897974 0.11273406 0.06796004 -0.1344829 -0.10161031 -0.21614237 0.08840776 -0.12447324 -0.11446003 0.08296354 0.1436774 -0.005015544 -0.078137286 0.013448542 0.16300753 0.13746887 0.09475573 -0.2016872 -0.005570846 -0.050487705 -0.04740727 0.022468159 0.06324132 0.01529636 -0.17018473 0.041835453 -0.124104716 0.10685278 0.055551704 -0.08906602 -0.16411674 0.210018 0.044206787 0.18611296 -0.2351545 0.05056929 -0.11756045 0.12477732 0.21938244 0.022893088 0.20330805 0.06584519 -0.10264326 0.031098409 -0.071568266 0.08957919 -0.14172089 -0.047037337 -0.09253592 0.26071733 0.04579362 -0.09371492 -0.027309414 0.10658875 0.2068265 0.02795919 0.0927146 0.14197509 -0.0015911991 -0.006040039 0.3372809 0.14770912 0.03603494 -0.13756157 0.07014607 0.019448923
ⲉⲙ -0.15295802 0.114238635 -0.038663484 0.12398594 0.094440006 -0.19687176 0.10621784 0.40540946 -0.16863844 -0.14608395 0.005837472 -0.19839711 0.10100839 0.05827399 0.066789016 -0.092983544 0.1696641 -0.03900585 -0.100562036 -0.3076571 0.13429287 -0.00771654 0.11938346 -0.06067245 -0.019444373 -0.023947146 -0.16347834 -0.0395614 -0.13325861 0.025114259 0.20531988 -0.092998385 -0.003009255 -0.21512194 -0.093736455 0.17806657 0.12257279 -0.10423272 -0.12486336 -0.17812823 0.0803473 -0.13289157 -0.075479895 0.050754838 0.14737916 -0.022789102 -0.08565782 0.011285729 0.16552731 0.10957787 0.050839487 -0.21148252 -0.019391833 -0.060732964 -0.08183646 0.011872078 0.018877435 -0.028863512 -0.17684768 0.069609575 -0.084583506 0.09478912 0.020784885 -0.0577336 -0.10575062 0.17716187 0.044701304 0.20837563 -0.19207653 0.04644191 -0.10461383 0.11267689 0.1938531 0.037128884 0.24353138 0.0694163 -0.10131494 0.042187758 -0.0065631517 0.08892694 -0.16780896 -0.08397936 -0.07082023 0.21394528 0.031852882 -0.10475652 -0.031443577 0.16004853 0.2227044 0.0027934173 0.070161216 0.14710268 0.041146535 0.013459584 0.32922667 0.11194548 0.058659393 -0.15239502 0.04873616 0.072452515
ⲉⲧ -0.16018847 0.07915658 0.014234768 0.1129693 0.08738438 -0.19060075 0.11602889 0.3929609 -0.1716256 -0.12854852 -0.011005045 -0.19488257 0.06556828 0.06472207 0.05855334 -0.12564436 0.16903557 -0.053222183 -0.09637947 -0.33058792 0.13498503 0.022080185 0.15207213 -0.08738755 0.0002992328 -0.013603336 -0.18111664 -0.027194215 -0.14206721 0.050792478 0.2171409 -0.07176601 -0.0027478589 -0.17728053 -0.09994903 0.13606352 0.065110765 -0.14984255 -0.12222651 -0.19391474 0.08118402 -0.14021075 -0.1185214 0.0808326 0.15100731 -0.016903862 -0.051725317 -0.0020609137 0.17773141 0.12476383 0.07211712 -0.22625773 0.006433449 -0.044811964 -0.10992546 0.024196351 0.028030781 -0.023052014 -0.19903253 0.057780296 -0.060185608 0.09403487 0.018685905 -0.057043735 -0.13660172 0.18396248 0.028366942 0.19365597 -0.22986063 0.063779496 -0.14796366 0.11856614 0.2165393 0.00036968564 0.21865122 0.07402114 -0.130598 0.050376873 -0.05430553 0.10204839 -0.14057189 -0.06811905 -0.09646058 0.24699323 0.033008754 -0.089759946 -0.016105182 0.1489752 0.18597905 0.002716436 0.09545381 0.12877037 0.02538706 -0.0099073425 0.33718404 0.12752783 0.06798621 -0.19022118 0.04426494 0.055471744
ⲧⲏⲣⲟⲩ -0.18005383 0.06927229 -0.016647106 0.13563733 0.08737982 -0.19162458 0.081518605 0.38760984 -0.16848853 -0.1335956 0.016039839 -0.20593639 0.0725477 0.080542795 0.06879122 -0.16912116 0.15774782 -0.06499721 -0.08728074 -0.3097032 0.15488437 -0.011777384 0.15326317 -0.0775095 0.003602931 -0.04678623 -0.14502233 -0.0119000515 -0.12263877 0.047499627 0.23339857 -0.07072158 -0.0030353442 -0.1521628 -0.07961579 0.13675006 0.07307004 -0.11102277 -0.08401175 -0.22776918 0.10629071 -0.14540623 -0.09758473 0.06501354 0.13099025 -0.0051664333 -0.06932049 0.009804394 0.17657278 0.119246915 0.095066905 -0.22058211 -0.0043335627 -0.04419807 -0.090389825 0.035373703 0.04418853 -0.0031598534 -0.1980575 0.058934078 -0.08907184 0.10720466 0.039402332 -0.078786105 -0.16127276 0.17502446 0.053799037 0.21881703 -0.2408995 0.07432526 -0.117284104 0.11891894 0.21333393 0.016756322 0.21749298 0.067457855 -0.115974054 0.036453653 -0.051574152 0.096235394 -0.14970216 -0.06583307 -0.0620249 0.25288248 0.04156934 -0.10749823 -0.032242537 0.12851524 0.21548699 0.015239108 0.091186196 0.124523774 -0.007692123 0.0048005134 0.33163294 0.1617853 0.04319502 -0.18496527 0.04525731 0.0631769
ⲛⲱⲧⲉⲛ -0.15222402 0.1180878 -0.006162821 0.0957501 0.13584596 -0.19508886 0.10910331 0.393932 -0.21006462 -0.15531123 0.028737802 -0.21569352 0.071909495 0.068130106 0.10116842 -0.17360957 0.19320542 -0.10223123 -0.05496329 -0.31512988 0.1542755 -0.002495641 0.1749149 -0.06897504 -0.017944107 -0.016464278 -0.21505782 -0.030561525 -0.10355335 -0.0005474644 0.23273715 -0.074522845 -0.033358738 -0.13477455 -0.047139876 0.13853534 0.06239777 -0.0990602 -0.10248861 -0.22054854 0.06946933 -0.09898921 -0.10645325 0.0933706 0.1031437 -0.008813607 -0.019138973 -0.0030172437 0.13927685 0.12089222 0.082467325 -0.21342686 -0.020156983 0.0076428056 -0.059320096 0.014019687 0.058974456 0.008041121 -0.1890549 0.023997718 -0.12061295 0.08289329 0.016921168 -0.0499711 -0.14484188 0.19076681 0.04332961 0.17189409 -0.2103636 0.057601526 -0.16521597 0.08233704 0.25482917 0.0043175654 0.18404585 0.06749285 -0.15854678 0.053932883 -0.08115327 0.07944653 -0.20112613 -0.08131506 -0.06938036 0.25899842 0.054484606 -0.04705125 -0.01644714 0.14990512 0.19768059 0.01014786 0.10018148 0.12709679 -0.01985279 -0.020465266 0.35369176 0.15503144 0.04130557 -0.12749027 0.052064106 0.055884793
ⲟⲛ -0.17519096 0.06518778 -0.004795531 0.099627346 0.09467588 -0.22828841 0.0679868 0.3626155 -0.15161899 -0.15601172 0.023446226 -0.18650804 0.061683707 0.07412894 0.09734725 -0.14353016 0.15262204 -0.060019102 -0.10473786 -0.30594435 0.1198968 0.0008156289 0.1457649 -0.09065672 0.00883993 -0.025419677 -0.13651289 0.027102146 -0.14400502 0.030657636 0.22989023 -0.09548085 -0.025014572 -0.1838651 -0.09442454 0.12812123 0.07933039 -0.106744364 -0.08579617 -0.19219385 0.1083778 -0.13839297 -0.118910335 0.07434162 0.12750423 -0.010993822 -0.090716936 0.017767165 0.14220084 0.13389345 0.09760196 -0.22750086 0.0028234262 -0.040022053 -0.053743947 0.038983982 0.05417125 -0.0064719124 -0.17909378 0.04199676 -0.110671856 0.100745045 0.054605953 -0.06925551 -0.12758915 0.21091197 0.026326092 0.21862432 -0.22607547 0.064708926 -0.12671028 0.15298267 0.2227455 0.024186535 0.22756083 0.07378395 -0.11008836 0.049419876 -0.047063388 0.07747943 -0.16319986 -0.042250786 -0.0923755 0.23410672 0.03690319 -0.10500759 -0.030048639 0.10871744 0.19142707 -0.0016605264 0.09713702 0.15341127 0.010432877 -0.003506014 0.33652344 0.16334309 0.03665978 -0.16839276 0.043896664 0.05220909
ⲣⲏⲓ -0.1751396 0.105601996 0.017818732 0.11731241 0.11442139 -0.2159508 0.07744149 0.36358944 -0.1667216 -0.15808998 0.015970554 -0.19168702 0.10386658 0.09017176 0.081718795 -0.13370718 0.16463922 -0.013942971 -0.12758599 -0.3186362 0.12047357 0.009249761 0.119962595 -0.096261315 0.026891045 -0.02886927 -0.15280433 0.007454379 -0.13927467 0.030459944 0.20119151 -0.07997513 -0.023253076 -0.2034102 -0.10074041 0.14656599 0.09219269 -0.10855538 -0.08981068 -0.17799832 0.10385724 -0.14927669 -0.10448823 0.065377526 0.12033319 -0.011674807 -0.085281305 -0.014958038 0.1549128 0.12690675 0.070526175 -0.2245357 0.004778987 -0.054861102 -0.07607314 0.017033637 0.056125622 -0.02667261 -0.18288745 0.064245105 -0.07675479 0.10441 0.035433967 -0.06368515 -0.11045897 0.18190847 0.024574002 0.19517967 -0.22771756 0.051488962 -0.114440046 0.11926389 0.19021 0.035248745 0.2247887 0.076051675 -0.10910689 0.05119791 -0.050458785 0.08541013 -0.15199073 -0.05812222 -0.073773906 0.19787313 0.018209402 -0.08735271 -0.034961812 0.12047406 0.18572411 -0.002540298 0.083122976 0.14589563 0.010620924 -0.013826774 0.30419818 0.135071 0.037908938 -0.19908667 0.038238544 0.07976177
ⲛⲉ -0.15819022 0.06477154 -0.028887143 0.10663837 0.09418705 -0.20454532 0.11009363 0.37256625 -0.14241236 -0.13349661 0.022113802 -0.16727883 0.049766667 0.041225962 0.07175701 -0.12922569 0.17268018 -0.038203787 -0.10722554 -0.3082718 0.12781589 0.002914154 0.13601129 -0.097515434 -0.0044894107 -0.035067588 -0.13501684 -0.006559527 -0.1329972 0.0147825815 0.23678666 -0.1045597 -0.010394194 -0.17333739 -0.07174184 0.13073182 0.08099577 -0.13587995 -0.08599149 -0.19995363 0.10731516 -0.1715733 -0.11081793 0.05902451 0.14234704 -0.012793956 -0.11006095 0.032756858 0.15177903 0.12533638 0.0958242 -0.2079015 0.012789494 -0.0357152 -0.104753755 0.033180118 0.067773186 -0.014976506 -0.17362405 0.079993755 -0.07788368 0.095100775 0.047252856 -0.06276176 -0.12517646 0.2022445 0.032614946 0.22210948 -0.2416337 0.057448257 -0.15738556 0.12825117 0.19027346 0.015864575 0.2601207 0.054377954 -0.09844027 0.047527585 -0.047778804 0.059591725 -0.15517694 -0.051916324 -0.09618842 0.23149201 0.032756086 -0.10773749 -0.026858948 0.114064656 0.17694288 -0.012903395 0.07457874 0.13979562 0.017994795 -0.0016413981 0.3322846 0.12271708 0.04500266 -0.20440204 0.048842687 0.050748702
ⲥⲃⲱ -0.184991 0.055622634 0.0042055645 0.10704441 0.11146817 -0.23904197 0.04979916 0.38932425 -0.1605703 -0.19447608 0.09050522 -0.23715979 0.07888709 0.12055468 0.08684042 -0.14043808 0.16736314 -0.07030915 -0.07775518 -0.32977042 0.078700304 -0.040513903 0.17256488 -0.10447463 0.01889962 -0.057134278 -0.13170165 0.024966035 -0.10962367 0.0060898624 0.22090489 -0.08169436 -0.0026696902 -0.13927895 -0.06897275 0.10187926 0.06983935 -0.14913742 -0.08118153 -0.23283347 0.118186615 -0.11796432 -0.14166197 0.09354627 0.11554688 -0.010034245 -0.066056535 0.027217854 0.098663405 0.15033235 0.085310884 -0.22214018 -0.017453786 0.0037474618 -0.036200814 0.020656165 0.10977783 -0.0019875553 -0.12977798 0.030018304 -0.14952318 0.08309429 0.07358168 -0.06313899 -0.1812117 0.20340286 0.063891366 0.19793983 -0.20202707 0.025445638 -0.09096719 0.10997779 0.23997578 0.06446693 0.20633067 0.06690089 -0.13283166 0.013873245 -0.09280726 0.09468801 -0.18150201 -0.019759985 -0.017769333 0.2316996 0.053841945 -0.06951188 -0.0046503656 0.08998804 0.2089516 0.021256363 0.08039249 0.16335997 -0.06128729 0.009735123 0.37493867 0.22071359 0.014666715 -0.13430125 0.056910153 0.07823971
ⲁⲥ -0.19158961 0.08902511 0.027481863 0.15253082 0.10635004 -0.21632321 0.099006094 0.37847266 -0.16029663 -0.17341532 0.023009444 -0.18635885 0.08964394 0.054396316 0.064156555 -0.11595842 0.17551123 -0.05053397 -0.09391513 -0.31364116 0.12016291 0.02476143 0.12197749 -0.09041231 0.037835017 -0.022181612 -0.17795308 0.012752133 -0.14604342 0.019347668 0.19560678 -0.07671182 -0.035273116 -0.15896426 -0.10852168 0.15022765 0.096921474 -0.13617373 -0.085554466 -0.20467003 0.10140579 -0.14326918 -0.114530265 0.06257115 0.1566839 -0.008650312 -0.08380812 -0.022427183 0.1507133 0.12327284 0.06573812 -0.21392635 -0.02241237 -0.053956136 -0.08527229 0.017447848 0.048072595 -0.026266528 -0.16736758 0.058139842 -0.09574633 0.11297567 0.054379538 -0.071143575 -0.15263762 0.1917847 0.029212745 0.21547124 -0.19012779 0.045479245 -0.11751634 0.12104009 0.20650811 0.03485429 0.24629669 0.07778292 -0.12698527 0.025426574 -0.05417814 0.08721227 -0.14487529 -0.07641671 -0.0697427 0.25651434 0.020123083 -0.0936269 -0.0279658 0.106037475 0.1738592 -0.019398063 0.074231744 0.16484965 0.010671224 0.020542169 0.3456271 0.15225405 0.030264772 -0.1654921 0.024235867 0.075450085
ⲛⲓⲃⲉⲛ -0.1420221 0.11426222 -0.042089447 0.11579255 0.12919852 -0.23475043 0.095648214 0.43127686 -0.17164332 -0.13874981 -0.015477991 -0.17197326 0.11363007 0.08738549 0.0772455 -0.1404289 0.16707419 -0.08313398 -0.06844898 -0.2748491 0.195738 0.018018655 0.1452661 -0.04011152 -0.006506326 -0.05859088 -0.19579482 -0.029162416 -0.1427689 0.03128135 0.24682763 -0.10491732 -0.008890189 -0.17632222 -0.072650276 0.17719243 0.10498461 -0.11957776 -0.14331429 -0.20434906 0.050119437 -0.11731288 -0.072481476 0.044028662 0.1007906 0.024174016 -0.08615912 0.026595127 0.16818072 0.09169791 0.064057685 -0.22219412 -0.03118148 -0.06710754 -0.08371343 0.023528669 0.022748997 -0.03333013 -0.22011 0.043819368 -0.083253846 0.098879434 0.002723067 -0.057607356 -0.14233589 0.16807939 0.0722234 0.18862073 -0.20220856 0.06836385 -0.15130086 0.09757718 0.1974896 -0.026371215 0.2563098 0.053954016 -0.12822656 0.03178544 -0.02706794 0.11368463 -0.1855206 -0.0774348 -0.09615606 0.287405 0.037211783 -0.077176586 -0.032269575 0.17561916 0.2199409 0.007809221 0.073973574 0.13021722 -0.0035842813 -0.017164083 0.32093865 0.1087419 0.046364043 -0.16511476 0.028279178 0.05292476
ⲉⲩ -0.17576025 0.0897688 0.013844225 0.12153137 0.12025907 -0.20077865 0.07153421 0.3827452 -0.18175764 -0.13364322 0.018700082 -0.20304477 0.08560491 0.086086616 0.11401986 -0.16731732 0.18103829 -0.09943441 -0.06167355 -0.31524777 0.1174534 -0.013050805 0.15858062 -0.08049392 -0.005747363 -0.04503162 -0.19269155 -0.026651425 -0.123796 0.016141012 0.24127577 -0.0697105 -0.044962212 -0.13327993 -0.053960864 0.11069362 0.047075775 -0.12542774 -0.06953818 -0.23556133 0.08740153 -0.0820924 -0.13042997 0.09077301 0.09917307 0.015781047 -0.05140081 0.008616003 0.12923245 0.14085633 0.090887025 -0.23140143 -0.009307723 -0.013745246 -0.031315412 0.023058625 0.09190356 0.035115212 -0.160791 0.044646844 -0.15762995 0.09411622 0.008058247 -0.05875955 -0.14082436 0.17874792 0.036903415 0.17706364 -0.20620592 0.016357832 -0.13851032 0.098251596 0.25019413 -0.0031816897 0.18450736 0.050353333 -0.13305885 0.0127693815 -0.074086264 0.08294872 -0.18945348 -0.057188723 -0.050743382 0.24237244 0.04226595 -0.05855494 -0.031531807 0.11865759 0.19643454 0.0060329256 0.10199706 0.120351605 -0.04049279 0.0030300342 0.34446383 0.17966951 0.037563246 -0.118385755 0.06742159 0.05462655
ⲙⲟⲩ -0.1843355 0.08467032 0.021321287 0.103335194 0.10754666 -0.2250629 0.063701734 0.37353873 -0.180387 -0.13843673 0.032546367 -0.21549457 0.0755557 0.06702113 0.044564508 -0.12779945 0.14430314 -0.07794087 -0.10735334 -0.3269536 0.11285541 0.0019917823 0.15650193 -0.1099796 0.008893673 -0.03071211 -0.11801139 -0.007402215 -0.12684578 0.0245871 0.20794228 -0.065772064 -0.0010885482 -0.17327876 -0.11919251 0.146457 0.072527274 -0.14989908 -0.10126955 -0.22388247 0.098624445 -0.1633751 -0.091671295 0.085386716 0.13019596 -0.0052541555 -0.073274255 -0.0152357975 0.09926438 0.15440193 0.08675262 -0.21381348 -0.040845927 -0.016100558 -0.06728719 -0.007519966 0.049132198 -0.0009924857 -0.19409165 0.037326075 -0.075467594 0.09912483 0.044540633 -0.08618922 -0.12706381 0.22181883 0.067273386 0.19203413 -0.22961618 0.06598169 -0.12713978 0.15160988 0.20122607 0.04479844 0.2376435 0.08488681 -0.09770597 0.023703547 -0.06514084 0.087594494 -0.15811734 -0.048239075 -0.08486857 0.20485021 0.018743172 -0.09344316 -0.012058755 0.118275076 0.19923191 0.02702708 0.05723055 0.17355032 -0.022264324 0.02573043 0.35966027 0.16013514 0.034174006 -0.14436921 0.061754763 0.05164318
ⲙⲁⲑⲏⲧⲏⲥ -0.17300428 0.089884795 0.039174277 0.12391551 0.10132542 -0.2401498 0.03894414 0.36186588 -0.19587606 -0.14981502 0.021241585 -0.20578663 0.08889565 0.09978096 0.11784975 -0.13453016 0.16075358 -0.06625904 -0.10586085 -0.35194427 0.12032235 -0.035296347 0.16305746 -0.079598084 -0.0371387 -0.009769513 -0.1764464 0.023078589 -0.13994585 0.013391921 0.23476191 -0.072381325 -5.784862e-05 -0.14911908 -0.09094387 0.09634726 0.053558808 -0.108410455 -0.09519916 -0.2208028 0.10896521 -0.10433721 -0.1422412 0.086414084 0.10298329 0.0048937383 -0.06997455 0.017867994 0.10590529 0.15776888 0.082726315 -0.24507211 -0.021554057 -0.05386135 -0.02667792 0.021376466 0.05481284 0.0020684712 -0.1850093 0.0087174 -0.1151622 0.11211619 0.035497352 -0.03224486 -0.13920994 0.18593454 0.06603857 0.22035319 -0.21130526 0.062245753 -0.15365541 0.118114226 0.22227539 0.041536067 0.2197677 0.101137966 -0.124750674 0.00711677 -0.07355717 0.06347265 -0.14714858 -0.049986627 -0.08070455 0.24619436 0.011816181 -0.08379883 -0.020100815 0.09144507 0.20114526 -0.012479219 0.10027711 0.13702017 -0.036500618 0.023197357 0.330788 0.20378944 0.017907072 -0.14035693 0.03939169 0.0487845
ⲱⲡ -0.16680008 0.09529553 -0.0067876955 0.12359824 0.0859489 -0.2191133 0.104006484 0.4154243 -0.15839921 -0.14604189 0.0040771887 -0.17265658 0.07154867 0.064394325 0.06368812 -0.11372027 0.16460574 -0.08225828 -0.10012729 -0.30762318 0.17101738 0.016006267 0.15630046 -0.09823852 0.0064817546 -0.03667883 -0.18486398 -0.048818715 -0.12683608 0.035802774 0.20387168 -0.049462937 -0.030814929 -0.18792284 -0.077142626 0.1522958 0.07979334 -0.13976867 -0.14751391 -0.19805995 0.0623712 -0.15364282 -0.09029511 0.06264482 0.14805691 0.016967986 -0.07852037 -0.00657357 0.15396373 0.12792692 0.08549603 -0.2224633 -0.029461982 -0.048383817 -0.09585527 -0.0013885733 0.03491858 -0.0584227 -0.21230349 0.08628225 -0.06818937 0.10685206 0.027252484 -0.08926848 -0.105161704 0.19074292 0.056524597 0.20876145 -0.20531128 0.06262424 -0.13683222 0.08606139 0.19072546 0.015833504 0.21983974 0.07804307 -0.10280906 0.036428608 -0.03194007 0.09546847 -0.15642907 -0.057051703 -0.0928365 0.23613036 0.033246372 -0.080742195 -0.010215085 0.16096847 0.20346929 0.031889684 0.090418704 0.11483902 -0.0017495856 -0.009106805 0.3341981 0.1287643 0.039189257 -0.1736188 0.03417211 0.057036795
ⲉⲣⲱⲟⲩ -0.16864993 0.059763405 -0.010874004 0.12709983 0.07661628 -0.23193403 0.07422113 0.3854687 -0.18477589 -0.13003577 0.0356508 -0.18857567 0.0658773 0.09657415 0.07318476 -0.14955665 0.1639919 -0.07178636 -0.1327122 -0.3155765 0.14808781 0.0017290604 0.13632317 -0.081581846 -0.0002256638 -0.059086278 -0.13384219 -0.005125023 -0.13303344 0.05225041 0.23464696 -0.0841055 0.012778942 -0.18819322 -0.10056294 0.13370053 0.08184974 -0.11517888 -0.07085704 -0.22251649 0.13333517 -0.15372308 -0.09603886 0.08661647 0.12419482 -0.0006238672 -0.09008429 0.021105519 0.15410009 0.13138387 0.07014877 -0.22876345 0.008910352 -0.06994441 -0.052098233 0.018626953 0.046366226 -0.010942905 -0.15898624 0.061162524 -0.090136334 0.10826345 0.052181475 -0.085270666 -0.15502921 0.18215816 0.05594249 0.22639586 -0.24317813 0.0377482 -0.12055037 0.12997383 0.20661971 0.029639265 0.24078655 0.075719625 -0.109862514 0.03572597 -0.05683993 0.09712716 -0.13559122 -0.03646413 -0.07725348 0.23557393 0.018320454 -0.11351878 -0.02894594 0.11183394 0.19548522 0.01057333 0.08497382 0.14864625 0.008196256 0.015615907 0.33163056 0.15125194 0.034278896 -0.15361066 0.055082884 0.05009984
ⲉⲡ -0.14425628 0.07626821 0.017472988 0.103959054 0.12317202 -0.20249085 0.06577532 0.37932852 -0.19153732 -0.15498021 0.028993737 -0.18170969 0.06236635 0.09321706 0.09450439 -0.14960778 0.14987615 -0.045297958 -0.13152298 -0.3335892 0.12941754 -0.013760494 0.16132824 -0.09521377 -0.006876975 -0.056122605 -0.16463408 0.009019868 -0.103349224 0.042309675 0.19784133 -0.09087054 0.0041982383 -0.17447053 -0.08025633 0.13718632 0.053969163 -0.10228321 -0.06747413 -0.2064737 0.1072234 -0.13771707 -0.093535654 0.09772736 0.13780826 -0.033083703 -0.06367286 -0.004623936 0.14578 0.14205448 0.078758255 -0.21513355 0.0014321969 -0.036725577 -0.071329564 0.018302312 0.068750285 0.004336981 -0.15371387 0.031200355 -0.10006843 0.11746171 0.03818418 -0.06347635 -0.14412874 0.20446298 0.055441834 0.21135642 -0.22960298 0.044734012 -0.13811718 0.121199615 0.21692446 0.013855862 0.20255823 0.058023673 -0.12840961 0.06093211 -0.04951151 0.08826935 -0.16137215 -0.07663107 -0.08095724 0.24334878 0.057088204 -0.07880204 -0.03744191 0.113610744 0.19572787 0.007934219 0.07684233 0.13378043 0.00576833 -0.025237229 0.35681838 0.16421068 0.035842903 -0.15898652 0.03257934 0.06451129
ⲙⲡⲉ -0.15964529 0.092599496 -0.021703873 0.13593724 0.07726581 -0.20779172 0.10499238 0.40460894 -0.19638038 -0.12805903 -0.0074698804 -0.19924259 0.099948965 0.054436754 0.044511497 -0.11259215 0.17489524 -0.041472126 -0.12264914 -0.34257796 0.1362394 0.031561833 0.164477 -0.0757286 0.0067414436 -0.01425194 -0.16427436 -0.0016979207 -0.13187017 0.032544173 0.22539513 -0.109294906 0.012969141 -0.21187541 -0.08916416 0.1448693 0.095964655 -0.13929479 -0.09187733 -0.20099264 0.074099325 -0.1669952 -0.10022989 0.082777336 0.14084995 -0.0017517442 -0.09925089 -0.010533074 0.13600904 0.1002668 0.0922161 -0.2426993 -0.026152046 -0.058896396 -0.061420538 0.021201408 0.034512714 -0.042733252 -0.2008592 0.06335049 -0.09750014 0.07678826 0.01807963 -0.045124363 -0.14509574 0.2129268 0.05055858 0.2207502 -0.21384875 0.07317399 -0.15101728 0.10806408 0.22225109 0.04381874 0.21950127 0.07821511 -0.088645875 0.033677764 -0.02892033 0.092732154 -0.16559136 -0.05595524 -0.078274414 0.22233498 0.019332826 -0.1136935 -0.057661533 0.12571056 0.19860743 0.008423675 0.096337184 0.15121557 0.045876052 0.011268279 0.35345548 0.120077506 0.052405816 -0.15868181 0.047153868 0.064024925
ⲉⲟⲩ -0.16789792 0.06927495 0.012431386 0.12109199 0.13642551 -0.20907983 0.10211112 0.39424506 -0.15350366 -0.18499629 0.04083194 -0.19758824 0.05840622 0.08077565 0.12467838 -0.12902251 0.15888998 -0.060337346 -0.09402436 -0.30384028 0.1049954 0.0060287616 0.15175521 -0.09590056 0.00780834 -0.036339793 -0.17978989 0.011411803 -0.12368605 0.020406293 0.22589496 -0.08754857 -0.018934172 -0.15439269 -0.09408697 0.13797477 0.08895621 -0.10017427 -0.077156164 -0.21248889 0.109580114 -0.11795042 -0.1092434 0.077237345 0.13085699 -0.0060995165 -0.08523414 0.022772074 0.14629842 0.12668492 0.07783576 -0.2224876 0.0001158726 -0.017778218 -0.0824883 0.02629187 0.069715574 0.0021626158 -0.1437625 0.0655453 -0.11214061 0.102989145 0.062322207 -0.079007365 -0.14354375 0.19860154 0.047565106 0.18378702 -0.23191552 0.04654961 -0.11920288 0.11836854 0.22314166 0.022899166 0.20873484 0.0691511 -0.1123973 0.055015393 -0.06038483 0.063360244 -0.14282152 -0.049361967 -0.06541385 0.24462134 0.03172571 -0.061069023 -0.019229889 0.10556501 0.18563434 -0.018019546 0.083707675 0.15391275 0.009232131 0.0050601233 0.32674018 0.15487108 0.0199608 -0.14004014 0.08047718 0.052737016
ⲛⲉⲙ -0.21045217 -0.0001650555 -0.037585843 0.11412617 -0.06332948 -0.2315319 0.122900374 0.39905056 -0.14875603 -0.0043162685 -0.25160173 -0.13424532 0.08231248 -0.00996869 -0.03261478 -0.093534365 0.12456402 -0.119327255 -0.11681136 -0.35311767 0.253773 0.09293292 0.123909175 0.09935644 -0.105630435 -0.06853845 -0.102597155 -0.20743102 -0.17930517 0.0625914 0.12959188 -0.073291585 0.064310245 -0.16900918 0.0323052 0.1490277 -0.055040505 -0.08593458 -0.06617387 -0.17420612 0.12768838 -0.13097002 -0.2618861 0.03227603 0.1743502 0.00409894 -0.030065035 0.019650012 0.30349058 -0.033092156 0.18606097 -0.32706735 -0.031606525 -0.0027568573 -0.16880287 0.10138494 -0.08031198 -0.17603768 -0.2272023 0.15073088 -0.021212168 0.1869027 -0.1361263 0.017323287 -0.043330703 0.14629841 -0.011241542 0.27947888 -0.28835112 0.1122507 -0.15529041 0.12568279 0.24906375 -0.12872271 0.2905933 0.02284598 -0.033166565 -0.078233324 -0.044067647 0.019582808 -0.24869148 -0.13006926 -0.07515663 0.19307125 -0.003802335 -0.20016165 -0.15527204 0.24582253 0.30826953 -0.029297167 0.2511069 0.065955244 0.17991225 0.09173617 0.32040828 0.109440796 0.09808851 -0.22041035 -0.068091065 0.2023675
ⲁⲩⲓ -0.1797622 0.099783696 0.024593867 0.13655545 0.076505944 -0.23067279 0.074964516 0.36733976 -0.1816321 -0.14510234 0.014407778 -0.19642618 0.09367117 0.09070434 0.09543268 -0.15220465 0.14935319 -0.06625344 -0.09102494 -0.30570552 0.12894757 -0.0037129573 0.14623477 -0.074489646 -0.031103777 -0.008500132 -0.16703276 -0.027769705 -0.14783412 0.047350343 0.21358071 -0.07248511 -0.013621845 -0.13663949 -0.08182566 0.112745166 0.051443145 -0.11279007 -0.09299346 -0.21148485 0.116719924 -0.119336866 -0.122243606 0.08495458 0.108747475 0.006940271 -0.069901794 -0.0040850504 0.15071175 0.113446034 0.07694479 -0.24047847 0.01083472 -0.057412315 -0.049371466 0.010632243 0.06773532 -0.015491348 -0.17304006 0.064302966 -0.097939424 0.109223366 0.022664541 -0.04698089 -0.13100956 0.20166917 0.04468202 0.19478132 -0.23283724 0.046901178 -0.13658677 0.11628839 0.22539452 0.0031329046 0.23910788 0.09376099 -0.1085193 0.030137572 -0.046201307 0.07439655 -0.15952578 -0.03150906 -0.07806504 0.22157484 0.011630759 -0.09555457 -0.025412466 0.11501592 0.21819787 -0.004298859 0.09978795 0.1264115 -0.031148644 -0.003701955 0.33300468 0.1591211 0.031052263 -0.17078474 0.051968873 0.06402791
ⲟⲟⲩ -0.14756218 0.09136122 -0.033547875 0.1183294 0.07929978 -0.21909697 0.12935917 0.4138064 -0.15743895 -0.1537285 -0.02767829 -0.182309 0.07575193 0.037646327 0.08033515 -0.10861593 0.15955347 -0.057415284 -0.086204045 -0.2972603 0.18637177 0.018184174 0.11194621 -0.060176875 -0.026087618 -0.0017808041 -0.19749953 -0.039800532 -0.1556374 0.02707373 0.23652117 -0.11265313 -0.028116433 -0.18705678 -0.06626024 0.16140372 0.08150886 -0.1186426 -0.12527373 -0.18987796 0.07595242 -0.15242857 -0.13186678 0.050756056 0.15526275 0.0029879755 -0.123271756 -0.0023542596 0.16241933 0.08888812 0.098183826 -0.22490568 -0.0032573508 -0.074869074 -0.07100076 0.011366703 0.05283171 -0.036735617 -0.20780459 0.08434751 -0.083643585 0.09813331 0.017798113 -0.06717663 -0.13023032 0.16646086 0.0573219 0.20558688 -0.21676126 0.044641808 -0.17930461 0.11087839 0.1719182 0.00048120294 0.265413 0.07251007 -0.096248746 0.051759295 -0.04612218 0.09312095 -0.17601122 -0.049809787 -0.07681194 0.26058984 0.0075292075 -0.09711577 -0.054523192 0.13884138 0.18868299 -0.024889601 0.10674654 0.14945781 0.020444576 -0.007617304 0.33227137 0.12081907 0.025537597 -0.20306528 0.03175183 0.091065966
ⲁⲓ -0.17846791 0.0997051 0.025517672 0.1193175 0.10423681 -0.21327358 0.08368283 0.37063825 -0.17644837 -0.17121187 0.04439232 -0.2131158 0.072149955 0.08178231 0.08582152 -0.12776408 0.16851889 -0.052138418 -0.109637186 -0.3039777 0.1096994 -0.015318634 0.13211292 -0.07584872 0.014784504 -0.038355548 -0.15672618 0.027237682 -0.11826949 0.023875523 0.20453942 -0.09001301 -0.026669374 -0.16749792 -0.08142685 0.1230718 0.10065965 -0.13476034 -0.075066596 -0.19965017 0.0968428 -0.15224276 -0.101611026 0.087127164 0.12568165 -0.010620614 -0.09288924 0.011175344 0.14617243 0.1467628 0.060443427 -0.22660232 0.017441142 -0.053667493 -0.05721977 0.03210882 0.05447456 -0.009488083 -0.1718824 0.04220784 -0.11464976 0.09759674 0.03167477 -0.06359182 -0.13275088 0.19769433 0.041742872 0.21736136 -0.1979393 0.039152686 -0.12937444 0.13335909 0.22021818 0.014950014 0.23223825 0.0934567 -0.099516645 0.030233327 -0.052494053 0.08976381 -0.16359313 -0.06884159 -0.06598079 0.23529088 0.035098523 -0.08190379 -0.0297996 0.10423552 0.1838891 0.0027011388 0.07392802 0.13981344 -0.018669313 -0.004001117 0.34384763 0.16170317 0.039547108 -0.16482255 0.04899578 0.0749809
ⲧ -0.16412652 0.09112397 -0.0154756615 0.13460262 0.12520224 -0.20041414 0.075076915 0.38262838 -0.16813423 -0.16159531 0.0276964 -0.18505822 0.06999243 0.07097329 0.10754734 -0.15099351 0.18152976 -0.027181478 -0.1288725 -0.3202622 0.11159226 -0.019537158 0.16904357 -0.113774285 0.0023964592 -0.0535016 -0.16033025 0.004675604 -0.12137848 0.054474037 0.20362504 -0.10896588 -0.014745165 -0.20065321 -0.11677078 0.14078103 0.0986368 -0.09980239 -0.07194774 -0.17861763 0.11439554 -0.1506597 -0.069765314 0.07929984 0.14781402 -0.007047331 -0.100875296 0.0079972 0.14567208 0.12704815 0.08226074 -0.22467595 0.014612143 -0.049805827 -0.08764441 0.0159802 0.056941394 0.004975623 -0.18292221 0.07605658 -0.08912101 0.11148794 0.06789216 -0.063580215 -0.11521903 0.18772662 0.036644746 0.21741846 -0.23151794 0.038337965 -0.12209634 0.1298328 0.21123892 0.02716475 0.22181575 0.0728092 -0.12243207 0.06528069 -0.04996462 0.0672551 -0.13794085 -0.08106788 -0.07503005 0.2416182 0.03328164 -0.081189886 -0.014792114 0.123053305 0.20563556 0.016379343 0.09358095 0.16141096 0.012395206 0.0036500518 0.3413923 0.13165079 0.030227162 -0.14091614 0.055390302 0.050287426
ⲙⲙⲱⲟⲩ -0.16937812 0.074252374 0.020522367 0.12910014 0.09356685 -0.20609081 0.093841374 0.37504584 -0.1770174 -0.13166519 -0.026875725 -0.19109294 0.08134223 0.04562187 0.08782139 -0.13758406 0.15427195 -0.09549954 -0.093036346 -0.33272457 0.15415785 0.03044772 0.13090163 -0.047213413 -0.019813396 -0.04161267 -0.17657293 -0.03502354 -0.13118106 0.020347875 0.21070391 -0.07472005 -0.0021684864 -0.15785615 -0.09538439 0.14078432 0.07182852 -0.11576266 -0.10534905 -0.19232553 0.105733804 -0.14527945 -0.098142266 0.07877533 0.134313 -0.0025356987 -0.08930404 -0.006213838 0.14360493 0.13165016 0.070561856 -0.22727534 -0.022644904 -0.05200297 -0.063500315 0.023092454 0.030377962 -0.014473123 -0.20975599 0.08733432 -0.09539502 0.12253405 0.004617153 -0.072982416 -0.15522315 0.15643713 0.05790283 0.21130228 -0.21370877 0.064577974 -0.13121618 0.1116308 0.21566577 -0.0143946335 0.24172266 0.053599656 -0.10420769 0.01941224 -0.0429728 0.07080578 -0.14626265 -0.05164875 -0.08579602 0.2708583 0.02509061 -0.05899291 -0.06107681 0.16821504 0.22124617 -0.010700585 0.1070085 0.11020906 0.031260286 0.026919391 0.31644118 0.15030923 0.046358887 -0.16807742 0.05626119 0.03606922
ⲁⲣⲟ -0.16006078 0.05964398 0.02947803 0.13042593 0.07740139 -0.21937047 0.05386951 0.36727604 -0.16170357 -0.13725723 0.021157991 -0.19600086 0.08503963 0.100760266 0.09861373 -0.12782595 0.14835575 -0.07669615 -0.09405681 -0.3163257 0.12456865 0.0091743255 0.13018279 -0.05735751 -0.025604278 -0.026000671 -0.1401902 0.0054509393 -0.15038686 0.057239365 0.22646427 -0.088169456 -0.0047407667 -0.14885129 -0.08799839 0.13158336 0.05320903 -0.12371867 -0.086197235 -0.21314803 0.11032963 -0.14538261 -0.11262234 0.09489585 0.1275054 0.012634075 -0.084284835 0.025629085 0.1261224 0.118400306 0.103419915 -0.21682668 -0.0071759387 -0.054079868 -0.042545088 0.03147847 0.05817552 -0.025414225 -0.16192162 0.047988128 -0.10626683 0.11243854 0.017751195 -0.049291003 -0.14046894 0.20252414 0.034826558 0.22073896 -0.2196121 0.05544997 -0.1281326 0.11446054 0.2124206 0.009723555 0.24543627 0.08935192 -0.10435953 0.037736263 -0.044753212 0.060799055 -0.15680379 -0.042729165 -0.081572965 0.24086075 0.029222166 -0.075958475 -0.02327697 0.11806199 0.21055846 -0.01427882 0.103774264 0.12604837 -0.031081876 0.023357252 0.3149051 0.17578356 0.027180832 -0.13842595 0.035017505 0.078007065
ⲛⲏ -0.15375827 0.08643215 -0.014691853 0.114710234 0.059773393 -0.18883246 0.12561858 0.36944664 -0.15538558 -0.10505891 -0.026637172 -0.17522538 0.059908032 0.052243058 0.06520785 -0.14303428 0.16000678 -0.08337988 -0.10855372 -0.33179468 0.17703694 0.029296357 0.13260335 -0.0704791 -0.013244113 -0.034291677 -0.1762841 -0.03633434 -0.13511439 0.044886895 0.23639962 -0.06667708 -0.002273689 -0.15970677 -0.064840265 0.1469578 0.08532419 -0.10622821 -0.124218345 -0.18891515 0.086826645 -0.17039867 -0.15558569 0.07269458 0.14233357 -0.018492328 -0.07059975 0.034916133 0.19296733 0.11904938 0.09557987 -0.24597491 0.010093605 -0.047525827 -0.11086171 0.038203545 0.033507485 -0.04794812 -0.20101021 0.09898562 -0.06416512 0.103410155 0.024467653 -0.056410402 -0.117293224 0.18093741 0.04438833 0.22817306 -0.25362858 0.08125118 -0.14829831 0.11696098 0.20700717 -0.0054002497 0.22415504 0.05428507 -0.10955367 0.025556857 -0.04174758 0.088666655 -0.15992284 -0.08231267 -0.09931685 0.2387538 0.041112572 -0.12408146 -0.024468992 0.15281549 0.19890815 0.016602628 0.13336802 0.12401967 0.040022038 -0.014614364 0.31899628 0.1233475 0.07456239 -0.18750663 0.07013629 0.0534544
ⲡ -0.14784028 0.07785365 0.0036189957 0.101290785 0.10241467 -0.2376672 0.09982266 0.37393612 -0.17232183 -0.13291703 -0.022656247 -0.19663721 0.048195243 0.099276744 0.058501802 -0.15964629 0.11498365 -0.06544986 -0.11368306 -0.36304498 0.14601387 0.04778449 0.1576327 -0.056853972 -0.04090858 -0.050435036 -0.15583257 -0.05167811 -0.0884562 0.025063712 0.21809362 -0.07571724 0.0221923 -0.13086662 -0.07941665 0.10702766 0.035646554 -0.09597061 -0.074014634 -0.23581599 0.12581974 -0.090062805 -0.1670735 0.10235552 0.1444539 0.0017086641 -0.09786522 -0.010875777 0.18898939 0.13766882 0.0493376 -0.22319043 0.03727373 -0.06772715 -0.09256452 0.013751793 0.08808072 -0.028723598 -0.17135873 0.036837265 -0.09761914 0.14590947 -0.031066561 -0.066268675 -0.124156795 0.16075112 0.06656225 0.19301374 -0.26821977 0.0018207039 -0.18474312 0.116194926 0.2449055 -0.008681667 0.2189023 0.053551815 -0.13566503 0.012766729 -0.08620386 0.06938055 -0.14881405 -0.09814388 -0.04078511 0.24351737 0.082077004 -0.10318516 -0.033575356 0.14821337 0.1694279 -0.011118123 0.08373721 0.13577764 0.031942714 -0.0047104005 0.36899132 0.16844831 0.0547781 -0.19591534 0.027597452 0.109470084
ⲏⲧⲥ -0.16704404 0.09660436 -0.026054367 0.102391176 0.08577863 -0.24480721 0.01567526 0.36147934 -0.19907567 -0.18765135 0.09398475 -0.25155115 0.077378236 0.123752385 0.072154544 -0.16893713 0.14373685 -0.047667317 -0.09077088 -0.30377677 0.077418305 -0.033086706 0.1584602 -0.119079836 0.02585682 -0.08385299 -0.095753275 0.0236219 -0.14795883 0.03332117 0.2303882 -0.13236332 0.02971755 -0.17455694 -0.095956236 0.10464427 0.08647257 -0.1292611 -0.042187564 -0.20458858 0.13482143 -0.20087393 -0.108869314 0.075141735 0.119831994 0.027980367 -0.0780958 -0.00360335 0.11532186 0.1734842 0.048632093 -0.20988137 -0.022896823 -0.01938136 -0.03148532 0.02093742 0.058532216 -0.049256206 -0.1127655 0.004859434 -0.08735839 0.11980499 0.034035403 -0.05861125 -0.14011264 0.20072605 0.0852489 0.20519407 -0.22871213 0.07719226 -0.10481814 0.11744023 0.20383237 0.06842902 0.21969463 0.10895449 -0.14418003 0.051667336 -0.058112558 0.14428815 -0.15869287 -0.033705816 -0.053741194 0.24533892 0.022368334 -0.13031375 -0.03906865 0.07172931 0.23469943 0.027244238 0.015482205 0.14366862 -0.064992435 0.024712538 0.3127043 0.19753055 0.0032314498 -0.16013078 0.010684659 0.096558526
ⲛⲧⲟⲩ -0.16986427 0.059721205 -0.01924871 0.13399519 0.0726143 -0.2290983 0.094229646 0.39834946 -0.18126564 -0.14092194 -0.024929915 -0.20015775 0.08475357 0.07723159 0.062360827 -0.10111023 0.16612944 -0.056651164 -0.10219747 -0.3043943 0.15017244 0.014625076 0.11405552 -0.03849595 -0.006392196 -0.038589302 -0.16683638 -0.05770505 -0.1500071 0.03587167 0.20530708 -0.077101395 -0.012087611 -0.1771212 -0.07276135 0.1457908 0.04552471 -0.13285519 -0.117048696 -0.21118233 0.078403905 -0.13333629 -0.1086892 0.06486345 0.11892785 0.0011248236 -0.074040785 -0.005276188 0.15943977 0.10497686 0.09382659 -0.24160703 -0.0009240834 -0.06186572 -0.09364072 0.021610852 0.035524465 -0.06381104 -0.18144284 0.08305296 -0.0776828 0.10609361 -0.014343101 -0.051778264 -0.12681079 0.19408326 0.030922119 0.22093695 -0.20566958 0.05131108 -0.13935527 0.10817784 0.20267798 -0.0121260565 0.2454951 0.049044304 -0.101031885 0.023706796 -0.025429273 0.07040679 -0.17563814 -0.056427233 -0.060561616 0.22940017 0.033761483 -0.09131873 -0.050303783 0.13927522 0.22080523 -0.013165733 0.11053807 0.10486147 0.027374176 0.029137515 0.31292495 0.14830427 0.057124805 -0.18560009 0.030594887 0.08037259
ⲉⲣ -0.19851378 0.06620587 0.02672584 0.13995917 0.09307982 -0.24201909 0.019113658 0.3690478 -0.17285472 -0.21217167 0.09644229 -0.25094992 0.08552054 0.13269335 0.063136056 -0.1364894 0.16294476 -0.06739933 -0.12562002 -0.28206137 0.058472548 -0.046005547 0.16385984 -0.08831311 0.02964079 -0.025211088 -0.122008465 0.08592303 -0.13857876 -0.002428056 0.19724272 -0.09697216 -0.019116275 -0.1696862 -0.09682006 0.14059365 0.12264935 -0.16438721 -0.06303028 -0.21001652 0.105081476 -0.1776205 -0.0925051 0.071935385 0.119634524 -0.019526975 -0.09421663 0.025358273 0.1238351 0.18963717 0.050460227 -0.20072939 -0.017767437 -0.0610342 -0.07160867 -0.006424002 0.067880206 -0.033816382 -0.16863726 0.002061462 -0.096339725 0.09961243 0.09307342 -0.027984181 -0.15628175 0.21237674 0.06649075 0.2303832 -0.19300938 0.06847053 -0.060542937 0.15336782 0.19166867 0.07822077 0.26466697 0.12144018 -0.15051365 0.025176745 -0.028592093 0.117369436 -0.17127395 -0.0071520396 -0.040081393 0.17660576 0.006366321 -0.13157561 0.01722712 0.07369625 0.20134848 0.020299606 0.05280765 0.18450996 -0.03231602 0.011443766 0.35250014 0.21920249 0.01269871 -0.16625331 0.010452599 0.09119178
ⲙⲙⲟⲛ -0.16882385 0.102833495 -0.04398598 0.11363697 0.0959425 -0.20861712 0.08711107 0.40720698 -0.17770456 -0.15490586 -0.017885532 -0.17499523 0.08845683 0.029917143 0.0768806 -0.10885258 0.18171974 -0.07657681 -0.07570822 -0.32869783 0.13805285 0.016986761 0.13697906 -0.06757854 -0.025516743 -0.022428038 -0.18506551 -0.04200398 -0.11719061 0.0315325 0.2185705 -0.07657589 -0.031008514 -0.20316613 -0.07002345 0.17631575 0.07372961 -0.12087324 -0.110949665 -0.21218589 0.091499284 -0.12103129 -0.10697712 0.04921177 0.15304 -0.020341419 -0.09910404 0.0048538344 0.1483515 0.08450622 0.059819136 -0.22582771 -0.019649444 -0.0350643 -0.07684225 0.016470252 0.014388101 -0.02872204 -0.20107922 0.10056053 -0.07224287 0.10179399 0.031352613 -0.058028888 -0.13189138 0.17505306 0.072121724 0.20124686 -0.19289581 0.054194372 -0.14020559 0.11543033 0.19481006 0.008494314 0.21299066 0.07761599 -0.11440645 0.041704886 -0.010293565 0.053646315 -0.14721157 -0.06264915 -0.08059266 0.25168937 0.031381216 -0.103528336 -0.031586595 0.18389447 0.22078326 0.002866489 0.08620194 0.12916523 0.05915544 0.017959706 0.32180774 0.10403721 0.058920037 -0.15703237 0.06653993 0.061679088
ⲛⲁⲕ -0.14911637 0.08888802 0.0067416867 0.11061709 0.12679315 -0.20009911 0.09177584 0.35843304 -0.2032506 -0.14726055 0.047441244 -0.2088298 0.08227508 0.07295528 0.070121646 -0.10848171 0.1731767 -0.04112162 -0.111017816 -0.34319723 0.08340929 -0.0045611346 0.14527106 -0.09603299 -0.002988077 -0.0001086875 -0.14354146 0.010004727 -0.10196161 0.02568599 0.22222559 -0.09544064 -0.009886397 -0.19618371 -0.06370482 0.13862157 0.10669519 -0.12786806 -0.09167454 -0.21492615 0.10649009 -0.15815638 -0.1294891 0.09757136 0.12903461 0.013719501 -0.08109441 0.0058992375 0.14478374 0.11253639 0.06674556 -0.2275226 0.0056668427 -0.018956207 -0.09851765 0.028744327 0.060201745 -0.0007643596 -0.17283338 0.02516308 -0.12959386 0.09318094 0.033505853 -0.044244945 -0.113027036 0.21799836 0.050459385 0.18850866 -0.21515657 0.044334285 -0.14785533 0.10305625 0.2117144 0.04607816 0.18532561 0.05239459 -0.13108331 0.06669507 -0.052725468 0.097971804 -0.17101383 -0.08885379 -0.058813304 0.1964183 0.023641929 -0.086553566 -0.020988766 0.11847658 0.20556533 0.021028234 0.058643177 0.16362347 -0.009418156 -0.010629329 0.33103988 0.13692637 0.04230788 -0.18703093 0.070251435 0.092146195
ⲥⲁⲧⲟⲧ -0.16569914 0.084219605 0.026308019 0.111036375 0.11184594 -0.20042972 0.06982921 0.3521906 -0.18974747 -0.13870588 0.027740339 -0.20330834 0.080067106 0.078203246 0.095101744 -0.12459596 0.16361062 -0.02601304 -0.13114432 -0.32178903 0.1188206 -0.0008761427 0.118930265 -0.09847782 -0.0041555855 -0.032109078 -0.13628168 0.03438513 -0.13813576 0.043592483 0.21319427 -0.095169894 -0.010945035 -0.1985485 -0.1168249 0.13082546 0.11065505 -0.11873765 -0.080285944 -0.17278916 0.10268733 -0.17573681 -0.09227862 0.09542473 0.12976496 0.0036918088 -0.070937745 0.008027939 0.12554206 0.14199618 0.07705205 -0.22810273 0.022796506 -0.06512113 -0.05713908 0.028010048 0.031069994 -0.033274706 -0.17675273 0.028530365 -0.10576335 0.11378252 0.05127685 -0.0661318 -0.09801297 0.21468213 0.050225653 0.22868142 -0.22567785 0.044642586 -0.11165403 0.13243915 0.20030215 0.0179781 0.22168198 0.10245363 -0.10897403 0.07600898 -0.034961972 0.086852476 -0.15538183 -0.078851044 -0.085097514 0.21192616 0.015412466 -0.07568944 -0.03477296 0.0874365 0.19840679 0.009827337 0.07520931 0.15467885 0.01029345 -0.0075068446 0.33054334 0.13568684 0.034421507 -0.17598577 0.053300146 0.068928964
ⲛⲉⲙⲁ -0.16464606 0.08241292 0.01366575 0.12087417 0.07347245 -0.2232386 0.07641024 0.37487406 -0.1750451 -0.13356256 0.00015529699 -0.17319259 0.08269156 0.07202494 0.056134604 -0.09456046 0.166503 -0.055956416 -0.124395296 -0.3336263 0.11826759 0.022769855 0.11981919 -0.06894827 -0.009303608 -0.018163294 -0.16643171 0.0062938924 -0.14910053 0.039083403 0.19989489 -0.08409464 -0.018342063 -0.18211569 -0.09241714 0.124881335 0.08859325 -0.13493729 -0.09537639 -0.19239742 0.088628136 -0.16578966 -0.102792956 0.080047704 0.14869174 0.0113086775 -0.10200375 0.02014342 0.1401253 0.12984142 0.07105837 -0.2226909 0.010878293 -0.05864785 -0.079446375 0.024401963 0.03784821 -0.040695146 -0.18874808 0.06585072 -0.10285804 0.088797234 0.00907631 -0.037816703 -0.111055575 0.20843543 0.05057011 0.22695336 -0.21104103 0.053471785 -0.11487028 0.12653832 0.21232204 0.027102884 0.24050817 0.080752835 -0.11203153 0.048960943 -0.014532576 0.08036138 -0.16915111 -0.051065277 -0.06626122 0.23658875 0.03695397 -0.095737174 -0.026372233 0.12747313 0.19570896 0.0062687607 0.10466127 0.14647102 0.0085104685 0.009247315 0.32204488 0.14733817 0.048178416 -0.1874372 0.04597238 0.0988013
ⲛⲛⲉ -0.16164127 0.099447265 0.019712912 0.14570373 0.10405784 -0.20855156 0.07534348 0.3924555 -0.19631878 -0.13558741 -0.0027754926 -0.17368606 0.06773625 0.06843614 0.094030134 -0.13513726 0.1641698 -0.059622824 -0.08091892 -0.33063683 0.10686827 0.024086053 0.12132975 -0.071533315 -0.018409312 -0.020860748 -0.18905497 -0.030617902 -0.1243322 0.045548283 0.21029723 -0.08941857 0.016362173 -0.1684333 -0.08114207 0.14305831 0.057776388 -0.14803262 -0.0702811 -0.21356009 0.11386825 -0.1437671 -0.10776316 0.089338735 0.13258043 0.016841685 -0.09484742 0.016874347 0.1367624 0.107366726 0.10515846 -0.20831704 -0.01249259 -0.05634483 -0.050815392 0.021237034 0.04787615 -0.0033584668 -0.17435732 0.034208454 -0.11967488 0.118384525 0.01064538 -0.068705216 -0.1466286 0.17468534 0.05298703 0.21041845 -0.22061014 0.040360652 -0.13019972 0.11765808 0.2152017 0.018069744 0.2469761 0.065186694 -0.09348149 0.03663754 -0.05739247 0.06817976 -0.17256089 -0.0365198 -0.07393866 0.2309407 0.035099544 -0.07979593 -0.045673136 0.14081724 0.21691535 0.0027239867 0.11073718 0.13462096 -0.015823178 0.006331641 0.33535993 0.17425972 0.05145222 -0.16971427 0.055900533 0.059669763
ⲓⲏⲥⲟⲩⲥ -0.14680311 0.07571674 -0.00095720694 0.10569928 0.122891985 -0.20024559 0.07769513 0.3822717 -0.15004909 -0.16167729 0.06731072 -0.20266122 0.053511485 0.071657464 0.106620185 -0.12812231 0.15937537 -0.062131807 -0.10218722 -0.32748902 0.09440525 -0.004804726 0.18190022 -0.10397673 -0.015024991 -0.038666546 -0.114236265 0.029949747 -0.1211466 0.05273768 0.22407514 -0.115375094 -0.0009903413 -0.17824388 -0.09590847 0.12762462 0.08742169 -0.12147388 -0.064734966 -0.22192836 0.09966143 -0.12556334 -0.11361307 0.09687804 0.14137714 0.0017845043 -0.06400461 -0.0054466 0.13536151 0.121028565 0.07343062 -0.20775515 -0.013933741 -0.020439025 -0.07654689 -0.008724696 0.08480662 0.02080071 -0.1380205 0.04942891 -0.115572676 0.10001202 0.067857295 -0.06429358 -0.15024506 0.22436641 0.05342462 0.19487171 -0.23027965 0.04578757 -0.12300405 0.13082165 0.20279017 0.056051034 0.19541524 0.06983846 -0.13779306 0.053686935 -0.07616817 0.0709073 -0.117513955 -0.04567743 -0.048602156 0.22621198 0.056063358 -0.080320135 -0.015272012 0.098490395 0.18382093 0.004558621 0.07247485 0.1407834 -0.003991199 -0.022630341 0.36281773 0.1514186 0.024623463 -0.14759442 0.070602015 0.038321756
ⲙⲁ -0.17490272 0.10133598 0.0024464296 0.112018 0.121549405 -0.19541417 0.09371339 0.38055336 -0.17430066 -0.16631106 0.030046484 -0.17766203 0.080056295 0.08229896 0.06589741 -0.1250986 0.18326002 -0.02951069 -0.11492966 -0.33768243 0.121325165 -0.015640337 0.12872386 -0.08714271 0.02271483 -0.035856225 -0.14887127 0.011811053 -0.1305944 0.028092671 0.19767727 -0.08341829 -0.018763285 -0.20498982 -0.09621174 0.14085877 0.1176884 -0.1379284 -0.094056435 -0.18022124 0.09271639 -0.15597305 -0.09001554 0.07734361 0.1536773 -0.0057250517 -0.07981932 0.01368232 0.15721495 0.12819058 0.0652921 -0.20954981 -0.0054668025 -0.037439674 -0.08660767 0.010585252 0.045447115 -0.027159376 -0.16352275 0.035782665 -0.09131958 0.101906195 0.053166687 -0.0639365 -0.11805483 0.21186331 0.0535546 0.19890548 -0.22340937 0.045467693 -0.14249015 0.12190755 0.18637891 0.030365607 0.22305605 0.07935663 -0.1311868 0.065713085 -0.05354182 0.08797032 -0.15349191 -0.06428051 -0.078370646 0.21683256 0.034146637 -0.081425436 -0.010167785 0.102598995 0.20265561 0.013478927 0.07582553 0.15712795 -0.00033756564 -0.0029646496 0.33704826 0.14747068 0.044523187 -0.19503647 0.06105479 0.0654805
ⲟⲩⲟⲛ -0.15559018 0.092962556 -0.020852843 0.11127913 0.10410023 -0.23165908 0.09839405 0.39983967 -0.17752412 -0.14762643 -0.0026172528 -0.17932108 0.08787769 0.042698562 0.078638874 -0.1244054 0.16026725 -0.07594138 -0.08197174 -0.30000675 0.16187626 0.0066696987 0.15135102 -0.056203872 -0.013573829 -0.03958691 -0.16756709 -0.048185926 -0.11220744 0.033656653 0.23341005 -0.08274749 -0.02276988 -0.1798554 -0.08283727 0.17126335 0.09807152 -0.11523614 -0.13369694 -0.2257275 0.091696486 -0.12093015 -0.10197395 0.040054623 0.1294626 -0.0137033705 -0.09523992 0.014102387 0.16574174 0.08870365 0.069388375 -0.22262667 -0.036543034 -0.040005077 -0.10441587 0.017632512 0.023344832 -0.038255643 -0.1951351 0.073204614 -0.0690011 0.114443436 0.010737829 -0.08587964 -0.11570065 0.17412876 0.07579725 0.1838421 -0.21059725 0.046378925 -0.14550233 0.12286584 0.19390512 0.02081731 0.22252469 0.070966326 -0.1280185 0.042672984 -0.040735323 0.08267606 -0.14877848 -0.0718013 -0.092017055 0.25853547 0.022277685 -0.08209441 -0.020234626 0.16076182 0.22127406 0.0091969455 0.09224239 0.14342907 0.006266461 0.00019372048 0.3413614 0.11173624 0.06220171 -0.16371235 0.046193577 0.052677866
ⲓⲙⲓ -0.1603244 0.0697173 0.023980506 0.1268222 0.11474285 -0.23273797 0.07801743 0.3858702 -0.15072738 -0.1324952 0.012030974 -0.18520816 0.07306652 0.061161023 0.0516845 -0.11571191 0.16023856 -0.071098514 -0.11698523 -0.32597 0.12629516 0.035272352 0.15022533 -0.068151794 0.00713417 -0.022011848 -0.17063977 0.0025143046 -0.12679793 0.04135743 0.1964971 -0.09587343 0.003350457 -0.17550154 -0.11926481 0.14235461 0.09152865 -0.1269927 -0.11345135 -0.18316922 0.09521952 -0.15163171 -0.10114473 0.0846218 0.15384899 -0.017672028 -0.08930489 -0.030715553 0.16230562 0.129914 0.06552908 -0.22263998 -0.017462762 -0.032354757 -0.062584326 0.020673323 0.065469995 -0.02726161 -0.18547146 0.065077275 -0.11277316 0.09865791 0.02475506 -0.08095358 -0.14401913 0.19762163 0.04170405 0.20436084 -0.20501268 0.054063547 -0.14692685 0.1172002 0.19939873 0.031509716 0.2317742 0.08797151 -0.103439115 0.030137515 -0.06869894 0.07624984 -0.13620597 -0.06821378 -0.07095151 0.24236724 0.021870254 -0.06734827 -0.059500948 0.15713005 0.18514812 0.022231743 0.08705085 0.14776929 0.008435501 0.01125168 0.33931252 0.15229656 0.03231033 -0.1436536 0.039039724 0.054708783
ⲛⲧⲉⲫⲛⲟⲩ -0.17967273 0.11797912 0.025128178 0.11402129 0.123947605 -0.22577798 0.12304514 0.41718087 -0.16648725 -0.16278726 0.0329719 -0.19447246 0.121195555 0.060632348 0.073324874 -0.13947535 0.15626124 -0.05630901 -0.08179144 -0.33264342 0.13788846 -0.0076676877 0.14336836 -0.08884465 0.016159557 0.015753258 -0.19650918 0.010180521 -0.11242225 0.0015820183 0.2132274 -0.09039665 -0.062457312 -0.14204277 -0.045650396 0.15440142 0.096159935 -0.14169797 -0.08008909 -0.2145968 0.080819935 -0.14665745 -0.13754582 0.0634992 0.13051477 -0.04305629 -0.02284866 -0.03624984 0.14677188 0.099922754 0.06937792 -0.2332236 -0.04034625 -0.010154351 -0.06377122 0.055377513 0.04579768 0.02949306 -0.1783256 0.07509856 -0.0872254 0.060736403 0.033941638 -0.07372581 -0.121404804 0.21438341 0.044626333 0.1650726 -0.2012499 0.09197709 -0.14001599 0.088294506 0.2519964 0.05388648 0.17050652 0.08379743 -0.14514123 0.008933344 -0.0564721 0.111357644 -0.19885993 -0.08130709 -0.08151306 0.2021572 0.03849168 -0.058615804 -0.02068301 0.1307054 0.2399758 -0.016752284 0.09150461 0.119721696 0.033296384 -0.01321479 0.3235047 0.110606186 0.07586348 -0.16685359 0.053440098 0.09425085
ⲙⲙⲁⲩ -0.17795953 0.10053804 0.011736052 0.10677736 0.09539791 -0.20341128 0.06404967 0.37396345 -0.16805424 -0.13497435 -0.00013571358 -0.19079554 0.08121119 0.08755408 0.08702836 -0.11494058 0.15954149 -0.030622354 -0.11797295 -0.31511986 0.12114555 -0.0023438055 0.12633584 -0.05830275 -0.0062915646 -0.039457854 -0.14954554 -0.018423654 -0.12937614 0.039361905 0.21352516 -0.10423487 -0.02574203 -0.19144635 -0.08524863 0.11251948 0.0952354 -0.11128245 -0.08284901 -0.19087294 0.094879285 -0.13704245 -0.12374573 0.06623455 0.114728495 0.009526279 -0.09855808 0.015073696 0.15876341 0.121876694 0.066058025 -0.2157447 0.011497436 -0.059813343 -0.06553916 0.03721682 0.04287442 -0.04252865 -0.1708514 0.05526618 -0.11422125 0.10830592 0.018994633 -0.046108972 -0.12281848 0.18426375 0.046830438 0.20521566 -0.20731427 0.058746092 -0.12774523 0.1030679 0.18957883 0.011009935 0.22248177 0.0702007 -0.0890906 0.060835022 -0.041965116 0.098859146 -0.17634284 -0.08229734 -0.07152144 0.2325866 0.016249834 -0.10265209 -0.031422004 0.11734937 0.21150815 -0.015901078 0.06598431 0.14545664 0.018150505 0.0071734 0.32943612 0.13991293 0.04878027 -0.17350812 0.04654677 0.0941365
ⲉⲁ -0.17079273 0.086614974 0.0028705313 0.11823815 0.122938626 -0.21928982 0.08198769 0.39304665 -0.1715629 -0.15788461 0.05322277 -0.19879234 0.07057088 0.09663914 0.09308667 -0.13994618 0.17050289 -0.049922377 -0.116313346 -0.33798867 0.09261446 -0.011208483 0.15724662 -0.08730919 0.00985498 -0.029797412 -0.13461332 0.010947853 -0.11635752 0.045679014 0.2312954 -0.091214456 -0.018717956 -0.17057155 -0.10661993 0.12386052 0.08560902 -0.13280967 -0.067387186 -0.2235217 0.10901235 -0.14496322 -0.09669889 0.08294971 0.1302606 -0.0036471055 -0.064945765 0.0007164227 0.1352551 0.14870155 0.06375797 -0.2148905 -0.010145827 -0.018555827 -0.071520075 0.0251604 0.050945338 -0.0005049701 -0.16940346 0.031112762 -0.098729014 0.08523628 0.057420444 -0.06149864 -0.12884134 0.20852208 0.060595226 0.18573776 -0.23256029 0.06087941 -0.115382746 0.13562435 0.2175856 0.020793296 0.20326933 0.090251505 -0.13876414 0.06213276 -0.067052655 0.095459186 -0.13999908 -0.061475825 -0.06728625 0.21396144 0.040519226 -0.089231916 -0.044099107 0.118351616 0.20266093 0.014385445 0.09210722 0.15033175 -0.003219093 -0.0013065932 0.36055326 0.16158089 0.035712115 -0.16410588 0.04839463 0.068807475
ⲓⲉ -0.16884135 0.11290654 0.0349299 0.08554287 0.09977752 -0.2062945 0.15791735 0.40981197 -0.15675849 -0.16096039 -0.011653232 -0.21425076 0.08433373 0.08509059 -0.039720498 -0.056455072 0.10906919 -0.040861916 -0.1318199 -0.38686863 0.10998306 0.08782541 0.11794105 -0.016114112 -0.06720183 0.06778599 -0.17932068 -0.08343113 -0.11689919 0.057281725 0.23225807 -0.10746425 -0.0053675994 -0.16180821 -0.06564908 0.16548388 0.06504657 -0.1540122 -0.08403424 -0.26417056 0.0774857 -0.14662805 -0.25295007 0.058121324 0.18723963 -0.034706987 0.008795741 0.00027784173 0.25455147 0.04117223 0.13047655 -0.27437562 -0.045264874 0.008923405 -0.1422457 0.09239169 -0.024761127 -0.040669497 -0.20663695 0.09372153 -0.01863014 0.055237167 -0.0428859 -0.015385792 -0.079818055 0.16283031 0.0867074 0.133354 -0.26592278 0.12881882 -0.16956405 0.13610023 0.24485639 -0.009847461 0.18001525 0.083760135 -0.13441809 -0.062117904 -0.04588291 0.035575278 -0.16640523 -0.069699496 -0.119459204 0.2238074 0.045125924 -0.12555447 -0.045043014 0.21649735 0.21123113 0.05742658 0.12865786 0.1768979 0.11501978 0.05445691 0.35058653 0.07495602 0.0934416 -0.23472393 0.10115518 0.08621283
ⲉⲙⲥⲓ -0.17247027 0.08766553 0.004348395 0.12636341 0.080903016 -0.20638785 0.07826032 0.36438322 -0.15864435 -0.12808947 -0.0050673974 -0.1935313 0.07496098 0.07569933 0.063946486 -0.11136534 0.13940461 -0.064804345 -0.09770119 -0.33398196 0.11711342 0.025305588 0.14596485 -0.07637896 -0.028895471 -0.032240648 -0.13805872 -0.025250783 -0.120105006 0.040941555 0.21110016 -0.08450735 0.012734241 -0.15761942 -0.09403886 0.14040598 0.05425726 -0.13301466 -0.078674786 -0.20146559 0.11800484 -0.15384348 -0.12041045 0.06738054 0.12773055 -0.0017467394 -0.0898049 0.01264258 0.14824162 0.10952331 0.094676204 -0.23535188 0.009296048 -0.04389989 -0.076314054 0.03138691 0.054304983 -0.034258116 -0.18796842 0.061326347 -0.084040076 0.12044331 0.009488408 -0.057011582 -0.11954837 0.17114468 0.046976537 0.20786715 -0.24620642 0.043625064 -0.12086237 0.11694374 0.2042923 0.010422634 0.23908433 0.07758529 -0.110715926 0.026189689 -0.042934466 0.07446604 -0.16481689 -0.075806804 -0.07522892 0.23697805 0.039836407 -0.105313145 -0.03326388 0.13695088 0.2042546 -0.0011026493 0.10893273 0.1372444 0.014431877 0.0033287776 0.3267892 0.14626251 0.044399634 -0.17509267 0.058775876 0.07889016
ⲥⲁ -0.14889741 0.083248444 0.017770851 0.12387484 0.11708267 -0.19805354 0.06424847 0.3973805 -0.18996823 -0.1495061 0.008483442 -0.21949637 0.06654547 0.10245052 0.078592435 -0.12145907 0.16551326 -0.032136615 -0.109233506 -0.31395707 0.11568279 -0.021654036 0.15500228 -0.0994685 -0.0048007006 -0.024792409 -0.12751114 0.012353056 -0.1477954 0.039918195 0.23388399 -0.099857844 -0.012303417 -0.16737738 -0.097949736 0.11654751 0.114474036 -0.14124739 -0.09291735 -0.19232658 0.08444291 -0.14561623 -0.11971986 0.066667356 0.12950477 -0.0008110855 -0.07725465 0.03060179 0.16986616 0.13688995 0.071395695 -0.22167407 0.031138849 -0.06614423 -0.05497177 0.020005569 0.043269426 -0.03437393 -0.17094241 0.02941115 -0.09823229 0.09991966 0.049176756 -0.07777338 -0.14930423 0.19869505 0.03148211 0.20928743 -0.2350766 0.069291405 -0.11802117 0.11893756 0.1958742 0.015764955 0.20989195 0.08076401 -0.1103102 0.06958465 -0.030267207 0.089447305 -0.11738341 -0.069783926 -0.09352153 0.23681124 0.026668506 -0.107528515 -0.029584955 0.090419345 0.19257328 0.016795045 0.06858976 0.14562266 0.016208094 0.01104359 0.3475986 0.14212756 0.030484756 -0.19671775 0.050206773 0.055647276
ⲛⲑⲱⲟⲩ -0.1769132 0.0747397 0.005097319 0.106418885 0.11049642 -0.2052723 0.10670655 0.38517115 -0.13903406 -0.14557916 0.05333944 -0.18479098 0.06696247 0.070577525 0.10996341 -0.15288582 0.1646837 -0.06978199 -0.07802229 -0.32759467 0.12786707 -0.00027347807 0.14359301 -0.0769978 -0.009109659 -0.018686708 -0.16647285 0.0030499904 -0.11430966 0.032529272 0.20508778 -0.08602766 -0.044557657 -0.14092521 -0.069928326 0.12060992 0.081432775 -0.12649477 -0.07251965 -0.21908961 0.089873604 -0.12399327 -0.11614808 0.098644905 0.12710574 0.002002147 -0.070972204 0.009092768 0.14956008 0.13770005 0.085894555 -0.2218069 -0.0041149724 -0.02286025 -0.07815131 0.025813501 0.0916422 0.01925824 -0.16084975 0.06462341 -0.111926995 0.09154725 0.05022459 -0.08643899 -0.15639044 0.20433044 0.045182433 0.20745504 -0.23086436 0.047896333 -0.13210663 0.13590394 0.22842513 0.0210378 0.20010474 0.06670202 -0.12675625 0.0548052 -0.082495704 0.07785327 -0.12660411 -0.034073435 -0.06788273 0.24897917 0.061073594 -0.055174477 -0.042863574 0.10163473 0.18999411 0.0066544577 0.102105714 0.12936027 -0.008072532 -0.0076066228 0.3474335 0.16763403 0.04634687 -0.14883626 0.08244778 0.027057393
ⲟⲣⲡ -0.15970252 0.058694635 -0.01057891 0.1198764 0.0884598 -0.20598981 0.09982268 0.38945833 -0.17690593 -0.14010513 -0.032287296 -0.18354656 0.09176112 0.07430297 0.06288545 -0.12878016 0.1456045 -0.059794616 -0.08996048 -0.2959872 0.16233519 -0.0011744993 0.12660724 -0.037708513 -0.0071754693 -0.06061472 -0.13629375 -0.040114075 -0.13987969 0.03957249 0.19744928 -0.08082437 -0.0067409147 -0.179352 -0.05821946 0.15336734 0.07250349 -0.103436545 -0.07627151 -0.22121295 0.10132978 -0.14003058 -0.11726364 0.066847846 0.13780305 -0.008987486 -0.07322642 0.03621593 0.18041751 0.08197296 0.103168696 -0.22097352 -0.018981945 -0.033765294 -0.094989575 0.026002524 0.0141648855 -0.049165633 -0.19267432 0.06505963 -0.09484389 0.1236885 0.019983277 -0.058582336 -0.14074177 0.172215 0.044491373 0.2229818 -0.22566958 0.06792878 -0.13170344 0.13971782 0.20642263 -0.012363676 0.24506654 0.067431994 -0.097544864 0.013828133 -0.035035104 0.08095346 -0.16278735 -0.06339986 -0.077151716 0.2248858 0.034474906 -0.12640657 -0.026033241 0.15710509 0.22922245 0.006089933 0.098394364 0.14822783 0.007524377 0.02229226 0.3274504 0.14312959 0.045667253 -0.1640801 0.030387996 0.082702294
ⲉⲣⲟⲩⲱ -0.18010043 0.06817781 0.0018692346 0.10471633 0.12180953 -0.21072403 0.072721906 0.37275508 -0.1549387 -0.16470656 0.06801879 -0.2094887 0.071455956 0.08515016 0.09758028 -0.15830857 0.16954055 -0.047093358 -0.12155761 -0.3179816 0.09479248 -0.014959132 0.15508723 -0.112304434 0.017053677 -0.048423603 -0.12237859 0.032069046 -0.13982798 0.030534897 0.21670967 -0.09816446 -0.026652796 -0.19760095 -0.10178932 0.14089288 0.07424398 -0.11181643 -0.053604815 -0.22369075 0.11416647 -0.13124523 -0.07566884 0.08242773 0.124115616 -0.027835455 -0.08030357 0.012554821 0.12963232 0.13178384 0.09384768 -0.22183919 0.00025762402 -0.023964645 -0.07260308 0.012742822 0.05898005 0.021517606 -0.15601107 0.027127266 -0.11827729 0.10287467 0.10305019 -0.089476675 -0.14911762 0.21617475 0.040398333 0.20213714 -0.2141647 0.03163123 -0.078311816 0.15957081 0.19397928 0.05740854 0.2204251 0.10280651 -0.11497216 0.0793585 -0.06327765 0.066392355 -0.15017618 -0.037673008 -0.06946625 0.20029882 0.025011603 -0.09957387 -0.004035763 0.07989642 0.19864522 0.0013273482 0.08059783 0.17371143 -0.028495124 -0.014825555 0.3473623 0.16172597 0.021733185 -0.12723187 0.060882617 0.060777355
